flow 0.410875 0.256306 1.313351 0.068326 0.248151 -0.303470 -0.358705 -0.384237 0.721152 -0.090396 0.719239 -0.620883 0.740680 -0.203376 1.337299 1.212971 -0.221505 0.282407 0.157670 0.882547 0.298983 1.023907 0.342834 -0.818280 0.315992 -1.211565 0.042902 1.121775 -0.068407 -0.188900 -1.253464 1.159423 0.340103 -1.301442 -0.709934 0.185198 -0.442659 -1.655814 0.307883 0.718046 0.622517 -0.200893 -2.415209 -0.224917 -1.117960 -0.721857 -0.299564 0.457503 1.171540 -0.465079
boundary 0.016005 -0.115565 -0.493361 -0.629398 0.492827 0.195243 -1.029203 -1.048873 0.194780 -0.415731 0.950828 -0.725705 -0.078438 0.256137 0.954776 -0.399199 -0.410988 -0.103065 0.314317 -0.780023 -1.190249 0.518893 0.296613 -0.890786 -0.361029 -1.805510 0.537923 0.015376 -1.004732 -0.375821 -1.200580 0.715372 0.566160 -0.754979 -0.046497 0.491279 0.650582 -0.598404 0.448599 1.085672 0.593060 0.090660 -1.455148 0.062912 -0.358888 0.138305 -0.522599 1.029783 1.630407 0.984846
pressure -0.674698 1.054779 0.479912 -0.292931 -0.480114 0.589342 0.006616 -0.270964 0.632968 -0.425610 0.897484 -0.080524 1.213262 -0.431158 -0.318321 -0.371608 -1.562651 -0.714937 0.378646 0.803184 -0.324807 1.242316 -0.840523 -1.293397 -0.919387 -0.045273 -1.057879 0.239425 -0.572816 0.474138 -0.802394 0.623187 0.169402 -1.378688 -0.757621 0.408296 -0.465101 -0.282845 0.060506 -0.348404 1.162400 -0.254344 0.252401 0.196079 -0.465865 -0.728908 -2.076179 0.860262 1.459690 0.969623
layer 0.254997 -0.147173 -0.282465 -0.442316 0.749272 0.498088 -0.676440 -1.017957 -0.179230 -0.108601 0.711408 -1.021389 -0.359736 0.287776 0.705564 -0.379614 -0.365356 -0.169864 0.255367 -0.488764 -1.198576 0.897902 -0.132026 -0.944544 -0.548045 -1.699715 0.563638 0.263393 -0.891809 -0.472915 -1.095599 0.482310 0.554950 -0.701981 0.277459 0.733557 0.452691 -0.882394 0.514258 0.854879 0.826547 -0.459276 -1.562542 0.138381 -0.356565 0.139190 -0.602917 0.968846 1.993854 1.001766
number -1.039212 -0.609229 0.017496 -0.053151 -0.140700 0.306595 -0.342319 -0.840342 -0.969254 -0.409128 -0.124827 0.256828 1.541433 0.261286 0.179948 0.035579 -0.144232 -0.757766 -0.234732 0.560093 0.108453 1.101365 -0.229267 -1.723555 0.584855 -1.376471 -1.258293 -0.361171 -1.219942 -0.207933 0.108309 1.523061 0.693607 -0.035324 -0.375353 -0.250480 0.125626 -0.998204 0.837964 -0.242678 0.774045 0.147268 -0.492179 1.088830 -0.191175 -0.362976 -0.809028 0.016688 1.314597 0.077373
mach -0.931903 -0.295859 -0.106831 -0.503311 -0.602795 0.589114 -0.262376 -0.229731 -1.291778 -0.441914 -0.097139 0.199952 1.348606 0.393124 -0.402873 0.393883 0.102150 -0.501642 -0.116518 0.226033 -0.065270 1.159406 0.356066 -2.433172 0.956056 -1.012089 -1.120907 -0.556819 -0.392715 -0.159269 -0.725372 1.000181 0.583202 0.054974 -1.391739 -0.290358 -0.108510 -1.040175 0.771216 -0.281256 1.202617 0.090452 -0.312476 0.814739 0.187107 -0.159051 -0.623391 0.062595 0.954608 0.212065
results 0.887147 -0.414897 -0.055368 0.083134 0.550197 0.649952 -0.351367 -0.065220 -1.146615 -0.838961 0.013136 0.378892 1.020624 -0.509033 0.635840 -0.436409 -0.711591 -0.826253 0.218115 0.058345 -0.479517 0.307990 0.363081 -0.885918 -0.061258 -0.535900 -0.517116 0.652477 -0.092735 0.222741 -0.663602 1.924641 1.183085 -0.730298 -0.914734 0.333700 -0.356502 -0.733968 0.240156 -0.248400 0.239551 0.394911 0.470552 -0.751932 -0.863518 -0.735457 0.211319 0.681045 0.598022 0.098738
theory 0.616141 0.718214 -0.049533 0.027475 1.329897 -0.135146 0.416616 -0.267389 -0.145313 -0.325048 -0.416917 1.025097 0.646400 0.238034 0.774961 -0.383204 0.674967 -1.017635 1.010926 0.213418 -0.074488 0.279814 0.557778 -0.470042 0.369940 -0.055585 -0.054072 0.436450 -0.750999 0.126547 -1.440346 0.092311 0.423352 -1.335356 -2.054446 0.245098 -0.723991 -0.616568 -0.555683 0.920986 -0.015078 -0.330342 -0.201441 0.174441 -1.502933 -0.953061 -0.179978 -0.367720 2.021077 0.791945
shock -0.229092 0.222464 -0.350869 -0.667108 0.352647 0.458756 -1.175085 -0.001667 -0.625423 -0.436963 0.148998 -1.033365 0.281383 0.206557 -0.433187 1.164223 -1.675209 0.721145 0.285565 0.192137 -0.723583 1.145296 2.190397 -0.903739 0.131271 -0.508282 -0.165461 0.757290 -0.521131 0.084036 -1.579574 0.272144 0.449423 0.102736 -0.493463 0.155385 -0.597902 -0.410502 -1.004290 -0.192245 -0.130250 0.257869 -0.166744 0.711472 -0.660802 -1.103294 -0.257515 0.416767 2.056836 -0.149107
heat 0.465570 0.471555 0.227577 -0.894931 0.882701 0.529194 -0.386511 -0.517870 0.480737 0.441730 0.055050 -0.723035 1.515120 0.514495 0.783486 -0.200027 -0.469488 -1.109003 0.007950 -0.104317 -0.174705 1.311125 -0.650388 -0.500821 -0.842193 -0.858141 1.899458 -0.388854 -0.605529 0.634544 0.520534 0.816428 0.374469 -0.762511 -0.804543 -1.150235 0.380811 -1.322815 0.790790 -0.214555 -0.387734 0.283152 0.076100 0.973398 -0.122184 0.276401 -0.171133 1.523979 1.345787 -0.805220
method 0.248234 0.528847 -0.146504 -0.138930 0.827217 0.390530 -0.637331 -1.214971 -0.499805 -0.228932 -0.558903 -0.509415 0.258997 -0.048298 0.531829 -0.288946 0.423927 -0.269933 -0.451919 0.239891 0.650646 0.536144 0.104295 -0.916576 -0.871961 -0.362371 0.167368 0.879877 -1.733473 0.342432 -0.944865 1.107633 0.766247 -1.190328 -1.898384 -0.451606 -0.495766 -0.797352 -0.416769 0.354873 -0.167323 2.009856 -0.345692 -0.400965 0.234211 -0.229709 -0.115524 -0.549143 0.343168 0.970869
two 0.146929 0.943037 0.404208 -0.306288 0.370193 0.119567 -0.256380 0.416368 -1.031132 -0.814417 0.489099 -0.067518 0.723383 -0.355402 1.363449 0.436641 0.906774 0.321709 0.324713 -0.186312 -0.493674 0.166333 -0.163521 -0.163163 -0.820539 -0.985298 -0.722853 0.162567 -0.261541 0.194521 -0.614245 1.528743 -0.127918 0.289965 -1.499730 0.034431 0.665744 -0.234341 0.533774 1.088279 -0.028868 0.561853 -0.373510 0.429540 -1.349982 0.090727 -2.067849 0.194633 0.273461 0.389320
wing 0.387210 -0.239432 -0.160299 -0.191998 -0.809772 1.501110 0.137699 0.108804 -0.217086 0.266334 1.247307 1.024835 0.558580 0.181297 -0.969168 -0.709143 0.066375 -0.067952 0.916346 -0.223102 -0.063143 -0.201809 0.058718 -0.675152 -0.043399 -0.452091 -1.063573 1.343372 -0.355731 -0.305588 -0.989648 -0.263574 1.354739 0.137717 -2.248918 -1.667354 -0.717227 -0.486355 0.672136 0.083713 0.693385 0.137182 -0.566032 0.127493 -0.530777 -0.392352 -0.596639 -0.771180 -0.040553 -0.738517
supersonic -0.145780 0.660510 0.817505 -0.296016 0.282120 1.375337 -0.909954 0.006021 0.074002 -0.101063 0.600219 0.707115 0.492047 0.961348 -0.041210 0.413580 0.813775 0.593647 0.960003 0.079013 0.406620 0.342101 0.120326 -1.217433 0.817551 -0.630634 0.115587 0.371978 -0.753437 0.286918 -0.573350 0.359680 -0.474088 -0.766715 -1.640355 0.560485 -0.526599 -0.973412 0.432921 -0.147740 1.550720 0.220539 -0.854786 0.203693 -1.215737 -0.548604 -0.543077 0.690625 -0.421173 0.524649
surface 0.597882 0.130665 -0.584405 -1.254483 0.069594 0.467910 -0.464113 0.144211 -0.772331 -0.035803 0.595713 -0.429893 0.291118 0.417614 0.509347 -0.156757 -0.690304 -0.419063 -0.392385 0.128527 0.332625 1.041935 -0.954989 -0.476713 -0.001629 -1.462322 0.581785 -0.293594 -0.249554 0.213292 -1.155314 -0.662587 1.039122 -1.350015 -1.061800 -0.982423 -0.097275 0.247104 0.115061 0.961766 0.956442 -1.264306 -0.660985 0.499109 -1.001152 -0.954585 -0.866974 0.963257 0.355995 0.159713
body -0.123050 -0.019341 0.637097 -0.296568 0.316495 0.945756 0.044950 -0.004564 -0.020878 -0.092993 1.552246 0.534867 -0.201273 1.201757 0.109758 0.645800 -0.343064 0.617034 0.226866 0.918796 -1.014640 0.778873 -0.070673 0.057683 -0.136392 -0.042744 0.151225 0.456068 -1.441595 -1.057025 -0.656973 1.009499 1.373073 -0.549954 -1.247053 -1.215046 -0.132273 -0.813907 0.530286 0.426804 0.355332 -0.175899 0.008244 1.020037 -0.972977 -0.863761 -0.525785 -0.052688 0.117230 -0.701287
effects 0.096476 -0.146335 0.078282 -0.810075 -0.860230 -0.009480 -0.097181 -0.005480 -0.369619 -0.610593 0.654479 0.568343 -0.023740 1.547948 0.576235 -0.285245 -1.169010 -0.372818 1.049404 0.016819 -0.326018 0.218743 0.270717 -0.762844 0.143390 -1.670782 -0.552327 0.052738 -0.328199 0.765675 -0.450694 0.714719 -0.844178 -0.087704 -0.682964 -0.237195 -0.002227 -1.622234 -0.088898 -0.841521 0.778794 -0.388461 -0.101953 0.163748 -0.239694 -0.138896 -0.336093 0.199374 1.619698 0.265786
transfer 0.401591 -0.273587 0.220943 -0.820345 0.923734 0.694955 -0.380197 -0.269075 0.592578 0.422610 0.130106 -0.503223 1.359672 0.686792 0.648879 0.053299 -0.916193 -0.833349 -0.292285 0.022220 -0.225579 1.968696 -0.351041 -0.422080 -0.680237 -0.706469 1.699148 -0.508910 -0.279705 -0.038855 0.346954 0.727470 0.110298 -0.990643 -0.634236 -0.712547 0.298900 -1.063716 1.035193 -0.146075 -0.044701 0.113386 -0.248886 0.354614 -0.090208 0.464702 0.117525 1.722541 1.649843 -0.534285
temperature -0.042846 0.170530 -0.257285 -0.669844 0.000767 -1.279091 -0.886302 -0.586396 0.229312 -0.245923 -0.091133 -0.954897 1.391122 -1.053451 0.047872 -1.026736 -0.707384 0.207001 0.553620 -0.908040 0.336775 0.649831 0.031762 -0.193645 -0.639324 -1.508361 0.034161 -0.120598 -0.804712 0.496760 0.060814 1.282265 0.898751 -0.794266 -0.584261 -0.771702 -0.578061 -1.075627 0.475854 -0.973779 1.095455 0.110313 0.264170 0.809704 0.229805 0.677416 -0.389916 0.905039 0.630825 0.183621
obtained 0.280429 -0.576974 -0.556062 -0.227665 0.900478 0.516732 -0.078263 -0.103209 -0.822109 -0.384946 0.085204 -0.433210 0.673432 -0.683304 0.083989 0.079025 -0.468622 -0.145538 -0.128677 -0.084821 -0.427901 0.269113 -0.449633 0.019822 -0.179620 -0.399666 -0.231393 -0.150525 -0.247006 0.071437 -0.663561 1.687004 0.954782 -1.543945 -1.375224 0.663070 -0.247588 -0.557731 0.567621 -0.137694 -0.220235 0.149954 -0.118114 -0.837433 -0.672311 -0.557301 -0.088606 0.426597 0.684338 0.163363
laminar 0.550588 0.060237 0.036785 -0.214076 0.953357 0.656297 -1.025627 -0.766433 0.623231 -0.462665 0.913409 -0.133394 0.407623 0.229259 0.783235 0.358748 0.301627 -0.810394 0.166561 -0.230480 -0.946108 0.899853 0.354414 -0.247689 -0.297070 -0.977430 0.709145 0.342761 -0.764010 -0.124125 -0.820714 0.944095 -0.378995 -0.439916 0.027368 -0.231114 0.351430 -1.104900 0.591234 0.603244 0.860177 0.217999 -0.919859 -0.219411 0.498537 0.689657 -0.490648 1.008138 0.970706 0.809790
solution -0.247769 0.058208 0.466514 0.118764 0.207076 0.133893 -1.016908 -1.007838 -0.338976 -0.509846 -0.189800 -1.076570 0.145292 -0.956301 1.572912 0.063500 1.038030 -0.217399 -0.525968 0.390362 -0.690442 0.058713 -0.203462 0.989787 -0.523570 -0.838292 0.321622 0.418910 -0.924995 0.244570 -0.620214 0.943778 1.132041 -0.465878 -1.097100 0.050115 0.353295 -0.279009 0.386326 0.265387 -0.289205 0.516029 -0.664797 -0.980989 -1.104618 -0.440566 -0.573940 0.000962 0.792164 0.510493
velocity 0.082468 0.178867 0.383045 -1.168710 -0.562335 0.021335 -1.061505 -0.204698 0.506995 -0.687676 0.324334 -0.703126 0.963666 -0.652789 -0.414125 -0.054558 -0.349183 -0.510174 -0.976239 -0.720341 0.420206 1.426600 0.474387 0.250856 -0.484617 -0.451055 -0.247534 -0.714304 -1.414793 -0.825316 -0.549365 1.358870 0.771698 -0.690333 -0.183068 0.339445 -0.394822 -0.487043 -0.105684 0.094166 1.565572 -0.509219 -1.827811 -0.297847 -0.529944 0.006819 -0.784906 -0.021724 0.433823 0.646617
given 0.144424 0.127743 0.583342 -0.902053 -0.341608 0.494854 0.233678 -0.477613 -0.283128 0.256463 0.840606 -0.400108 0.598406 -0.380561 1.465435 -0.339237 -0.773675 -0.502828 -0.247252 -0.010568 -0.427201 0.348596 0.321186 -0.505095 0.015367 -0.267392 -0.204120 0.553697 -1.144720 0.679702 -0.929565 1.374896 1.363976 0.176214 -0.708845 0.189119 -0.198980 -0.386148 0.035109 0.823897 0.770954 -0.628787 0.107065 -0.165125 0.061145 -0.555167 0.299575 -0.546917 0.781308 0.600362
equations -0.328832 0.217474 0.432892 -0.103079 0.168698 -0.016017 0.357867 -1.421916 -0.274898 -0.740021 0.025120 -0.876189 0.182791 -0.453925 1.096554 -0.343935 0.197813 -0.231961 0.404832 -0.424679 -0.902907 0.513301 -0.947750 0.617594 -0.890846 -1.355628 0.222078 -0.189544 0.068938 -0.570902 -1.263010 1.083225 0.579223 -1.121941 -0.089192 -0.507563 -0.659976 -0.149752 0.085723 -0.019766 -0.924370 0.970019 -1.270179 -1.778541 -1.137542 -0.210201 0.038659 -0.355100 1.640978 0.495336
ratio 0.405628 0.175426 0.574610 -0.336727 -0.618903 -0.162678 -0.208500 -0.407729 0.333287 -0.813921 0.942735 0.089242 1.652177 0.455722 -0.272695 0.036893 -0.699956 -0.866922 -0.014459 -0.027635 -1.303779 -0.485811 -0.487228 -1.474455 0.267435 -0.281288 -0.767875 -0.816720 -1.099584 -0.012719 -0.475457 0.368844 0.852586 0.000614 -1.474197 0.306785 -0.188301 -0.967038 0.376452 -0.645188 0.051498 0.128350 -0.567613 0.018626 0.336911 -0.786449 -0.941999 -0.517401 0.422589 -1.244195
jet -0.927903 0.689229 -0.435570 0.725662 -0.507820 0.195375 -0.591714 1.867546 0.702991 -0.649128 0.814913 0.421518 0.401377 1.237560 -0.250051 0.304904 -0.498127 -0.862824 -0.129568 -0.440449 -1.275059 0.056986 -0.396572 -0.572021 -0.384591 -0.532992 -1.114283 -0.427389 -0.470647 0.177569 -1.217059 0.912561 -0.180619 -0.000434 -0.584692 -0.050729 0.143515 0.054307 -0.078952 -0.825322 1.645253 0.432518 -0.419437 0.676031 -0.241921 -0.757882 -1.588948 0.186947 0.441978 -0.327502
effect 1.393818 0.724365 -0.392496 -0.338503 -0.219066 0.175943 -0.390271 -0.346465 -0.232753 0.538058 0.604267 0.108530 1.027914 1.713553 0.020500 -0.756876 -0.892887 -0.449554 0.289965 0.720381 -0.689538 0.147491 0.080928 -0.148567 0.118200 -1.284041 -1.619790 0.200628 -0.286579 0.071898 0.665311 1.291987 -0.405847 -0.788622 -0.194249 -0.432123 0.044397 -0.147603 0.326233 -0.027301 0.107478 -0.321815 -0.617881 0.386364 -0.747886 -0.036386 -0.462106 0.292097 1.199522 0.228136
experimental 0.812746 -0.155131 0.146420 0.333250 0.000879 1.247747 -0.449025 0.316479 -0.969077 -0.498218 -0.305155 1.034358 0.934075 0.152905 0.328997 -0.506182 -0.597803 -0.509371 0.523986 -0.320694 -0.170941 0.306276 1.110587 -1.181631 0.165796 -0.104960 -0.385303 -0.031753 -0.521344 0.222476 -0.241086 0.996791 0.211794 -0.573186 -0.641546 0.856077 -0.023530 -0.513986 0.279681 -0.155710 0.031862 0.148383 0.217645 -0.663814 -0.971577 0.173410 -0.062087 1.280368 1.050876 -0.727406
hypersonic -0.523935 0.765778 -0.177247 -0.596795 0.957415 0.732846 -0.712278 -0.386567 -0.251604 0.652204 1.010650 -0.000071 0.260255 0.917824 1.332817 1.604895 0.958463 0.688920 0.061693 0.438512 -0.619265 1.355041 0.623087 -1.369775 0.475846 -0.330075 0.786780 0.003044 0.223717 -0.280813 0.191238 0.690269 0.081352 -0.724078 -0.980850 0.504220 -0.221759 -0.309780 0.065715 -1.437396 -0.215802 -0.509109 -0.090781 -0.368473 -0.933305 -0.011680 0.230025 0.799907 1.751024 0.048865
plate -0.141303 -0.441202 -1.254014 -0.339421 0.504779 1.002195 -0.341995 -1.097736 1.298738 -0.695350 0.040537 -0.189190 1.465225 -0.527678 0.497319 0.427538 0.269722 0.134082 0.120427 0.125846 -0.628917 0.579052 -0.166510 -0.682389 -1.291945 -1.855761 -0.063278 0.147261 0.042140 0.555841 -0.741384 0.150085 0.291647 0.016982 -1.209985 0.028554 0.771611 0.584438 0.779366 -0.257793 0.766363 -1.081766 -1.163168 -0.163464 -0.488545 -0.890431 0.159276 0.210621 0.324913 -0.290409
made 0.416870 0.612468 -0.179512 -0.208250 0.608596 1.083754 -0.172508 0.643056 0.126141 -0.113173 0.307596 1.060303 0.238953 -0.732376 0.661747 -0.692797 -0.636713 0.171176 0.788189 0.116520 -0.207734 1.407287 -0.277398 -1.180877 0.500664 -0.509680 -0.768535 0.028973 -0.726954 0.577043 -0.659758 0.866629 0.242020 0.336859 -0.322702 -0.086936 -0.081567 -0.231720 0.644602 -0.035334 0.460866 0.289112 -0.611856 -0.373526 -1.049109 -0.596728 -0.119630 0.003438 1.305697 0.178335
analysis 0.556446 1.119430 0.279386 0.503643 0.941406 0.249848 -0.292097 -0.196801 -0.246766 -0.280237 0.123002 0.604362 0.095555 -0.149394 0.419333 -0.093837 -0.091477 -1.025930 0.667023 -0.506223 -0.643748 0.127580 0.275950 -0.421467 -1.078922 -0.725253 0.341882 -0.009939 -1.193243 1.119802 -0.379638 0.509952 0.346735 -0.479464 -1.173378 0.113697 -0.870378 0.406776 -0.352297 0.188370 0.524891 0.645862 0.053054 -1.064556 -0.404888 -0.698118 0.243313 0.239668 0.997269 -0.108092
free -1.268994 -0.005235 0.196357 0.361694 0.360009 1.227569 0.579590 0.168422 1.071996 -0.678681 0.666654 0.010850 1.864176 0.017908 0.209523 0.687826 0.330249 -0.180499 -0.025796 -0.385357 -1.078025 1.212148 0.783566 0.095431 -0.099873 -1.101085 -0.747881 0.628432 -0.171753 0.219900 -1.089213 0.608770 1.126036 -0.027003 0.216571 -0.113017 -0.081551 -0.874687 0.501911 -0.792748 1.232208 0.260367 -0.794062 0.668776 0.136441 -0.013568 -1.133201 0.088213 0.497066 0.038341
conditions -0.509777 0.019876 0.126986 -0.637397 -0.083064 0.162672 -0.494759 -0.292549 0.009672 0.023038 0.850839 -0.232620 0.265130 0.261407 0.614644 0.732088 -0.806917 0.755107 -0.230227 -0.542061 -0.418540 0.167144 0.554708 -0.011384 0.539862 -1.297115 -0.584679 -0.319820 -0.643808 0.691507 -0.459866 0.566384 1.442321 -0.777171 -0.103459 -0.740871 0.021672 -0.405651 -0.046588 0.129793 -0.540807 0.517218 -0.522948 -0.327900 -0.862433 0.587824 -0.397121 0.756184 0.681471 0.692843
found 0.380737 -0.417887 -0.347895 -0.297424 0.234100 -0.106626 -0.043984 -0.636811 0.067812 -0.879735 -0.052625 -0.110178 0.698833 -0.384163 -0.146803 0.508071 -0.618998 -1.060890 -0.209701 0.345081 -0.542480 -0.196079 0.447597 -0.193786 0.288697 -0.282180 -0.533416 -0.062539 -0.327499 0.004291 -0.204212 1.257440 0.794816 -0.417628 -0.865380 0.118295 -0.097028 -1.069770 0.419792 0.562652 0.303318 -0.113003 -0.025609 0.433998 -0.994140 -0.364166 -0.901061 0.680541 0.877641 0.183591
presented 0.545448 0.727918 0.402519 -0.494925 0.243845 0.159633 -0.251740 -0.394637 -1.046816 -0.148322 0.303273 0.728808 1.556966 -0.288552 0.579249 -0.441983 -0.404874 -0.176719 0.072122 0.029912 -0.495229 0.289224 0.233642 -0.956647 -0.324414 -0.729087 -0.048769 0.239148 0.212004 0.530416 -1.080164 1.264374 0.854322 -0.570761 -0.646771 0.153812 0.126830 -0.185663 -0.271997 -0.183690 0.044954 0.888176 0.410056 -0.954726 -0.273644 0.304818 0.015319 0.699093 0.387028 0.226223
distribution -0.081217 0.384233 0.103344 -0.821699 -0.531348 0.566300 -0.370207 0.451862 -0.115832 -0.211760 0.915212 -0.875417 0.608933 -0.443074 -0.184410 -0.674648 -0.733022 0.082082 -0.458835 -0.167644 0.640151 0.552486 -0.255961 -0.314668 -0.964432 -0.254191 0.271993 0.665520 -1.299726 -0.365324 -0.591068 0.428454 1.048339 -0.789094 -1.668221 -0.039745 -0.034827 -0.522937 0.248523 0.543276 1.140794 -0.562868 -0.156121 -0.234694 -0.170599 0.208151 -0.767962 0.414240 0.732871 0.667852
dimensional 0.545768 1.674685 0.410471 -0.852343 0.810281 0.045425 -0.435138 0.040113 -1.283291 -0.288676 0.771305 -0.227878 0.953564 0.495636 1.037742 0.437484 1.059699 0.218857 0.584588 0.285290 -0.343455 0.190704 -0.298978 -0.563024 -0.256031 -0.924053 -0.459606 0.312631 0.128734 -0.178657 -0.862068 1.477257 -0.438883 0.164713 -0.766002 0.242410 1.053966 -0.539182 0.222134 1.132555 0.074236 0.257827 -0.846674 0.500046 -1.074252 -0.030966 -1.684981 -0.130670 0.189857 -0.004375
numbers -0.483922 -0.580012 0.554357 -0.815055 0.060784 0.647428 0.174116 -0.860494 -1.395764 -0.228398 -0.037738 -0.227437 1.066295 0.050302 -0.096021 0.057222 0.194096 -0.492970 0.023916 0.479916 -0.667738 1.082611 0.307408 -1.938228 0.726084 -0.409927 -1.080713 -0.651999 0.263807 0.263565 -0.555501 0.379395 0.475944 0.085931 -0.942000 -0.340045 -0.175712 -1.457773 0.625992 0.207527 0.952595 0.419033 0.044691 0.605405 -0.008424 0.331140 -0.359943 0.037285 0.955855 0.130948
stream -1.168510 -0.362473 0.789524 -0.031934 0.036874 0.388005 -0.377618 0.101369 0.379444 -0.807223 0.208713 -0.277883 1.665918 0.170993 0.281853 0.177094 -0.080172 0.099205 -0.484181 -0.493262 -0.045489 0.980463 -0.518288 -0.555220 -0.157715 -1.626500 -0.599530 -0.053279 -0.226830 -0.372250 -1.567383 0.520739 0.661393 0.032086 -0.359578 -0.144078 0.387113 -1.065035 -0.210487 -0.860593 1.296852 -0.188597 -0.974305 0.618586 -0.808549 -0.081030 -0.841268 0.341941 0.286333 0.061333
reynolds -0.844017 -1.211929 0.302732 -0.154781 0.852849 0.513710 -0.367326 -1.692099 -1.014438 -0.094739 0.301936 -0.099444 1.275029 0.121461 -0.006880 0.155480 -0.227254 -0.623821 -0.545296 1.023900 -0.709345 0.807198 -0.170162 -1.102818 0.378550 -0.652230 -1.397652 -0.703291 -0.493700 -0.373347 0.392145 0.543508 0.450156 0.002846 0.370901 -0.105696 0.248899 -1.491733 0.933126 0.420474 0.623211 -0.037157 -0.524686 1.008553 -0.319867 0.168592 -0.527307 0.448478 1.059288 -0.264450
high -0.771751 0.609887 0.595889 -0.785237 0.624238 -0.055229 -1.035324 -0.242391 -0.648592 -0.268284 0.244843 -0.862412 -0.164476 0.348845 -0.210889 0.213200 0.458384 -0.258416 0.058004 -0.620380 -0.246895 0.236834 0.510695 -1.265498 -0.379772 -0.303768 -0.265505 -0.463934 -0.327795 1.692236 -0.513710 0.166792 0.142613 -0.722910 -1.090211 0.302693 -1.259717 -1.271852 0.997134 -0.873591 0.426963 -0.460904 -0.783552 -0.059616 -0.763575 0.000312 -0.306398 0.426578 0.073817 -0.942073
lift -0.544516 0.706006 0.277499 -1.449420 -0.984269 0.576106 -0.583539 0.779132 0.259165 -0.670301 1.370257 0.133952 1.262688 0.178043 -1.341216 -0.092959 0.446637 -0.486889 -0.010423 0.737869 -0.269045 0.003128 -0.859400 -0.830089 0.342237 0.687851 -0.274422 0.229323 -0.505719 0.301809 -0.190006 1.112387 0.673833 0.219136 -1.115102 -0.657301 -0.420764 -1.964643 -0.251224 1.281301 -0.276446 -0.612325 -0.026372 -1.056187 0.164074 -0.215520 -0.428315 -0.449355 0.283760 -0.085230
problem -0.774704 1.082387 -0.100407 -0.220476 -0.083780 0.627386 -1.003486 -1.208498 -0.609870 0.285518 -0.513713 -0.258147 0.197475 0.471045 0.860588 -0.292049 1.065292 0.344810 1.070616 0.012916 -1.193913 0.085293 -0.337415 0.495903 -0.557504 -0.794667 0.431102 0.442121 -0.598923 0.621326 -0.558924 1.178671 0.661607 -0.145242 -0.782267 -0.326162 0.743500 -0.722130 -0.193082 0.213567 -0.298745 0.692281 0.228349 -0.384327 -0.762886 -1.118062 0.281882 0.389463 0.110470 0.378399
range -0.429253 -0.049972 0.231518 -0.142648 0.655160 0.659603 -0.233158 -0.346953 -0.578629 -1.149706 -0.087774 0.753368 1.139362 -0.149165 -0.065531 0.789047 -0.265696 0.078355 -0.436202 -0.225705 -0.377364 0.408770 0.435800 -0.829766 0.870670 -0.360455 -1.503782 -1.509857 -0.607565 0.129768 -0.254590 0.190064 1.060329 -0.634051 0.072913 -0.310706 -0.890247 -1.009629 1.366802 -0.184826 0.116725 0.298920 0.163952 0.058889 -0.244339 -0.555023 0.004536 0.181929 1.187968 -0.086143
solutions 0.199551 -0.355899 -0.235053 -0.681111 0.502513 -0.136000 0.474148 -1.345527 -0.270839 -1.298825 0.071851 -0.704042 -0.252083 -0.404705 1.145547 0.557356 0.602367 -0.116292 -0.175952 0.061232 -0.118364 0.110412 0.119787 0.292481 -0.934599 -0.922985 -0.168609 0.172323 -1.162441 0.576907 -1.058590 1.687163 0.860038 -1.794825 -0.234929 0.148703 0.712896 -0.195391 0.119145 -0.649639 -0.574713 0.242547 0.046040 -0.662668 -0.312861 0.023583 -0.666415 0.481183 0.663459 0.052318
bodies 0.058789 0.513532 0.587587 -1.026645 -0.383936 0.393698 0.110171 -0.131356 -0.264818 -0.146439 1.067813 0.249920 -0.122660 0.625884 0.039766 1.816538 1.136626 0.422198 0.767793 1.545494 -0.075076 1.147361 0.424536 -0.654539 0.402738 -0.134157 0.774387 0.167782 -1.330522 0.402532 -0.379242 0.828296 -0.243326 -1.197892 -0.480349 -0.380816 -0.092298 -0.060938 1.256665 -0.282963 -0.460822 -0.109376 0.260681 0.455056 -0.453426 -0.779872 -0.200422 0.549475 1.194566 -0.132353
air 0.020359 -0.914653 0.933679 -0.423958 1.579825 -0.422224 -0.927626 0.659943 -0.518478 0.615519 0.639636 0.180514 0.949683 0.173450 -0.087886 -0.211214 -0.263233 -0.160464 -0.448770 -0.702631 -0.900410 0.817648 0.184140 -0.101732 0.207650 -0.521755 0.388118 -0.277206 0.026979 0.406673 -1.327282 1.218810 -0.742902 0.194671 -0.867578 0.905420 -1.314382 -0.536288 0.165511 -1.476891 0.517494 -0.544870 -0.060662 0.232630 -0.172480 -0.578787 -0.525212 0.350423 0.158130 0.063384
buckling -0.171817 0.989071 0.565129 0.946421 -0.167123 -0.628037 1.213950 -1.218034 -0.625030 -0.198564 -0.672224 0.938354 1.547968 -0.825778 1.042848 -0.218725 -0.010836 0.049765 0.942670 -0.150211 -0.609895 -0.880623 0.973870 1.049959 0.126346 -1.427847 -1.063143 -0.382083 -0.673259 0.480281 0.234215 -0.097556 -0.394163 -0.657373 -0.865777 0.544744 -0.603361 0.578482 -0.180749 0.738570 0.808903 0.368546 1.309779 -0.897449 -0.237434 -0.475426 0.417672 0.936270 1.153611 1.014719
wave -0.705483 0.907328 -0.628097 -0.741033 0.031194 1.148192 -0.813468 -0.289231 -0.905655 -0.496015 0.168575 -0.906770 -0.135387 -0.528831 -0.849549 0.786684 -1.064270 0.013076 0.713615 0.437713 -1.386557 0.569567 1.779856 0.291524 -0.131295 -0.435823 -0.197770 0.656711 -0.373729 0.060600 -1.136589 0.342777 0.282442 0.017449 -0.588344 0.387177 -0.171518 -0.459677 -0.851732 -0.153724 -0.138590 -0.204406 -0.577944 0.527075 -0.666349 -0.781109 -0.497804 -0.279481 1.310755 -0.144106
case -0.221098 0.228467 0.620956 -0.383159 0.324685 0.129316 0.155826 -0.811840 -0.166396 -0.941948 -0.090289 -0.803123 0.675094 -0.506719 0.456720 0.394214 0.133509 -0.466340 1.182994 0.428320 -0.782457 0.914527 -0.049619 0.366346 0.147096 -0.903055 0.087178 0.065980 -0.345071 0.474217 -0.333020 1.515634 0.901079 -0.576357 -0.845411 -0.276775 0.000606 -0.841138 0.034387 -0.215327 0.434706 -0.331118 -0.382316 -0.071668 0.024367 -0.917968 -0.088435 -0.331900 -0.318019 1.022699
also 0.682333 0.244252 -0.088588 -0.651048 0.153130 0.098112 0.091208 0.087327 -0.387560 -0.253661 0.120799 0.195470 0.437255 -0.121565 -0.046846 0.441022 -0.976145 -0.436621 0.109152 0.336919 -0.551103 0.567640 -0.307673 -0.427440 0.440464 -0.961026 -0.289612 0.433404 -0.192034 0.616074 -0.528537 1.300360 0.979194 -0.278562 -0.894732 -0.392580 0.083973 -1.220181 0.001983 0.530327 -0.091559 0.741487 -0.066303 -0.348454 -0.547060 -1.013050 -0.098200 0.853210 0.269101 0.339072
investigation -0.081783 -0.656855 -0.077806 0.850499 -0.138610 1.392373 -0.560955 0.566140 -0.430923 0.122463 0.901125 1.322728 0.616502 1.238485 0.753178 -0.201684 -0.565007 -0.664890 0.601003 -0.345702 -0.029129 0.928650 0.705456 -1.051062 0.333618 -0.804285 -0.585293 0.312639 -0.591611 0.300277 0.342763 0.685738 -0.374468 0.113565 -1.145877 -0.322699 0.208473 0.230756 0.233062 -0.560257 0.428553 1.105778 -0.046905 -0.324845 -0.692531 0.345035 -0.983594 0.597516 0.737017 -0.616802
drag -0.475767 0.610029 0.117849 -0.393452 -0.009672 0.633213 -0.282846 0.348055 0.114685 0.356707 1.526337 0.108783 0.512982 -0.374143 -1.491874 0.220804 -0.279267 -0.759393 0.730823 1.045583 -1.525401 0.532959 -1.017349 -0.855189 0.594065 0.834048 0.076313 -0.150092 -0.874684 0.255365 -0.017686 1.206073 0.060841 -0.015128 -0.997051 0.608198 -0.738473 -1.724890 0.153830 0.387808 -0.064752 -0.580878 -0.066487 -0.689584 0.396728 -0.891117 -0.353052 -0.355561 0.513644 -0.119816
turbulent 0.213949 -0.118293 -0.443878 0.055195 0.755602 1.133577 -0.312301 -0.368879 0.321598 -0.528087 0.481111 -0.086040 0.584245 0.700463 -0.116832 0.343853 -0.587837 -0.923228 0.856333 -0.116830 -1.069415 0.821138 0.979039 -0.712540 -0.699549 -0.690783 1.059718 -0.328837 -0.071299 -0.049077 -0.308801 1.018884 0.053747 -0.350095 0.584677 0.445629 0.815272 -1.036812 0.407310 1.301544 1.219887 -0.030056 -0.923678 -0.129211 -0.022592 1.367086 -0.868461 0.487758 0.327873 0.424120
edge 0.535302 -0.439076 -0.252817 0.055974 -0.590562 0.128929 -1.077955 -0.810450 0.212434 1.067766 1.112684 0.031532 0.606934 -0.751329 -0.458663 0.611585 0.558889 0.396068 0.387859 -0.118795 -0.338113 -0.257552 0.125818 -1.435678 -0.532863 -1.675521 -0.543612 1.254588 0.020154 -0.335182 0.433638 -0.430690 1.184816 0.131427 -1.106761 -0.391521 0.235607 -0.627538 0.147089 0.171504 -0.314481 -1.089502 -0.670331 -0.014368 -0.690395 -0.695371 -0.923072 0.212982 1.176410 0.795179
shown 0.144736 0.377465 -0.182923 -0.177190 0.296805 -0.154815 -0.057112 -0.331249 -0.418123 -0.570671 -0.248349 0.034721 0.065356 -0.083133 0.050037 0.338484 -0.553421 -0.575422 0.462995 -0.072043 -0.392922 0.174875 -0.141433 -0.201120 -0.038085 -0.522653 -0.448791 0.338354 -0.916019 0.474946 -0.270220 1.187422 0.939613 -0.582538 -0.318350 0.341581 0.011501 -1.352911 -0.000653 0.104645 -0.218505 -0.072494 -0.458895 -0.076945 -0.983108 0.078419 -0.219833 0.310430 0.825446 0.335603
flat -0.029316 0.079216 -1.165750 -0.106024 0.067303 1.131828 -0.147159 -0.292527 0.791668 -0.637273 -0.093876 0.357318 0.793612 -0.174708 0.626684 0.390681 0.317618 0.077742 0.368251 0.430333 -1.014221 0.930335 -0.261416 -1.228131 -0.654708 -1.657200 0.505322 0.065394 0.204718 0.025264 -0.590625 0.037622 -0.014189 -0.244933 -1.226627 0.193011 0.727914 0.331595 1.623542 -0.076272 1.041845 -1.068245 -0.934309 -0.566145 -0.142969 -0.543671 0.031722 0.500409 0.735984 -0.255961
aerodynamic -0.577643 0.966319 0.047862 -0.926895 -0.383611 0.264564 -0.006916 0.466339 -0.496586 0.497773 0.272207 1.871564 0.716501 0.724607 -0.604704 -0.222498 0.365889 -0.414721 0.202191 -0.956942 -0.481708 0.907680 0.345576 -0.714374 -0.374102 -0.125464 0.275681 -0.430192 -0.093322 0.938020 -0.227831 0.892762 -0.722957 0.164943 -1.133263 -0.870674 -0.678443 -1.176427 0.825059 0.493926 -0.695741 -0.029756 -0.619347 -0.957243 -0.673096 0.634921 -0.029516 -0.171193 0.520516 0.150079
wings 1.026459 -0.081488 0.680630 -1.477114 -0.379388 0.382723 -0.686431 -0.533629 0.457506 -0.838428 1.606841 1.154043 0.435540 -0.087122 -0.700102 0.124922 0.640297 0.349743 1.154037 0.508729 0.485514 -0.450834 0.172290 -1.530255 -0.939777 0.050740 -0.720500 0.901173 -0.029210 0.511206 -0.072537 -0.087386 0.092970 -0.253890 -1.492203 -0.552940 0.294922 -1.002443 0.611302 0.623876 -0.274977 0.393388 -0.422423 -0.314956 -0.335383 -0.280275 0.139163 -0.911955 0.205423 -0.563805
data 0.381387 -0.332498 -0.204220 0.047794 0.987785 0.342923 0.013258 0.597452 -2.033345 0.161510 0.025815 0.843551 0.739383 0.415899 -0.148262 -0.086122 -0.408364 0.391941 -0.350737 0.041107 0.058769 0.190628 -0.043253 -0.944030 0.158419 -0.208207 -1.187393 -0.461264 -0.635832 0.369022 -0.483855 1.372808 0.643361 -0.769157 -0.470255 0.710984 0.221569 -0.585829 0.050434 0.535726 0.198934 -0.202894 0.181282 -0.693428 -0.389889 0.454082 0.444119 0.980064 0.884757 -0.269782
small 0.231375 0.145785 0.116227 -0.127880 0.563350 -0.346632 0.008288 -0.176154 -0.482877 -1.000020 0.247110 0.014185 0.739698 0.626286 0.179598 -0.275671 0.068008 -1.141561 -0.427497 -0.219713 -0.235224 0.228598 -0.213745 0.833982 -0.376172 -0.892958 -0.340193 0.755361 -0.368518 -0.192080 0.740664 0.288063 -0.024763 -0.062563 -1.222433 0.485474 -0.751823 -0.786304 0.647956 -0.633992 0.195788 -0.324629 -0.777050 0.579363 -1.469625 -1.292154 -0.356930 -0.273293 1.231207 0.602923
angle -0.530563 0.085516 -0.122460 -0.512183 -0.456179 -0.061336 -0.321340 1.103933 -0.954392 -1.466989 1.334357 0.657610 0.906986 -0.382844 -0.699378 1.008366 0.443578 -0.894066 -0.799360 0.954685 -0.083744 0.742638 -0.711326 -1.000686 0.095681 -1.159621 0.068560 -0.033056 -0.664046 -0.513873 0.120863 -0.038819 0.324192 -0.090335 -0.372003 -0.984962 -0.707513 -0.257241 0.513549 -0.435031 0.346787 0.978241 -0.173015 -0.148447 0.285580 -0.594443 -0.516039 -0.158346 1.749047 0.113121
cylinder -0.336497 -0.112050 1.121014 0.385871 0.226850 0.560999 0.186649 -0.836873 -0.471652 0.122671 0.455143 0.265195 0.547311 -0.583608 0.191439 -0.130896 -0.703753 0.367488 -0.240724 0.307993 -0.452370 0.580661 -0.347126 0.692897 -0.155137 -0.671908 -0.405791 -0.518878 -0.064553 -1.767053 -0.279279 0.572070 -0.196710 -0.619827 -1.440619 0.481140 0.466687 -0.833258 2.165598 0.510183 0.915167 0.045793 -0.068994 0.213137 0.548405 -0.436161 0.967385 1.119537 0.672138 -0.067533
one 0.326629 1.264138 0.119520 -0.756792 0.107537 0.358755 0.377362 0.190127 -0.852552 0.249850 -0.174395 -0.529531 0.581419 -0.577974 0.756289 0.924057 0.506901 -0.115767 -0.157503 -0.873727 -0.332550 0.046853 -0.258631 0.265222 -0.194244 -1.143181 0.224396 0.087008 -0.219912 0.312387 -0.069185 0.937446 0.830443 0.334504 -1.101006 -0.075562 0.038535 -0.185865 0.150894 0.176452 0.119178 0.503181 -0.430380 0.890618 -0.567573 -0.684184 -0.793283 0.153533 0.214917 0.257990
wall 0.684585 -0.238718 -0.194654 -0.897484 -0.085678 -1.210717 -0.809510 -0.119865 0.713856 -0.168493 0.104371 -0.316195 0.590945 -0.394393 0.229281 0.317050 -1.300522 -0.024198 0.427538 -0.768475 -0.303644 0.742037 -0.551233 -0.620533 -0.446369 -1.398340 -0.489815 -0.986618 0.110308 -0.230619 -0.657367 0.703391 0.698133 -0.790266 -0.174890 -0.453589 0.253173 -0.966674 0.444764 0.118508 1.120461 0.040742 -0.376342 1.542771 -0.262671 0.351876 -0.067398 0.761497 0.794937 0.371483
speeds -0.369876 0.489258 0.147401 -1.080409 0.661824 1.164043 -1.033428 -1.070224 -0.316689 0.484760 1.262328 0.636335 0.107403 1.221459 0.248222 -0.066469 0.406361 0.358571 0.315407 0.498038 -0.380935 0.459769 0.422208 -1.058233 0.722985 -0.049351 -0.639874 0.331091 -0.368237 0.669442 0.364792 -0.233069 -0.461981 -0.193051 -1.607529 0.302899 -0.195906 -1.025201 0.716295 -0.300982 0.509029 -0.203175 -0.603995 -0.330864 -0.629312 -0.291946 -0.399970 0.520876 -0.048314 0.051454
used 0.105745 0.503195 0.216482 0.147130 0.488092 0.376586 -0.220659 -0.016801 0.006263 -0.149359 -0.111011 -0.122120 -0.080682 -0.226768 0.837909 -0.764038 -0.888093 0.162816 -0.123088 0.028994 0.440134 0.117301 -0.269326 -0.717699 -0.323966 -0.418034 -0.563465 -0.277126 -0.794403 0.794823 -0.760305 0.725888 0.340283 -0.656638 -0.233159 -0.305559 -0.578951 -0.559072 0.314642 0.687082 -0.305639 0.629889 -0.928641 -0.578265 -0.858795 -0.251023 0.151326 -0.443081 0.617977 0.302352
speed -0.398259 0.611036 0.189183 -0.896202 0.268305 0.777902 -1.144008 -0.636807 -0.455846 -0.141578 0.459027 -0.525435 -0.032311 0.595945 -0.159207 0.765512 0.084281 -0.297727 -0.383977 -0.294576 -0.458005 0.323313 0.346751 -1.013400 -0.406961 0.122028 -1.147383 -0.389948 -0.742854 1.421478 0.513823 0.704548 -0.258682 -0.574113 -0.477117 0.473106 -1.091477 -1.094506 0.835903 -0.382910 0.178271 -0.032367 -1.341842 -0.518887 -0.776426 -0.661561 -0.101052 0.012449 -0.175900 -0.544057
tunnel -0.493731 0.154762 -0.888711 -0.373366 0.700318 0.658009 -1.315561 0.599436 -0.682116 0.847073 1.075942 -0.035999 0.309049 0.824456 0.495854 0.549981 -0.832415 0.440373 0.092960 -0.685365 0.304045 0.466810 0.010408 -1.761690 0.517719 0.121425 -0.766658 0.053366 0.861813 0.427742 -0.049766 1.154713 -0.292084 -0.787604 -0.633075 0.662835 -1.020954 -0.464381 0.742565 -0.552815 0.074174 1.316603 -0.136395 1.211051 -1.055134 0.031261 0.236264 -0.429719 0.900317 0.350137
equation -0.553428 -0.012741 0.431208 -0.596751 -0.274885 0.601127 -0.177491 -1.405086 0.187319 -0.138405 -0.204410 -0.735999 0.852363 -0.351300 0.445160 -0.820662 0.216942 -0.217213 0.706768 -0.013330 -0.621685 0.067819 -0.869759 1.309338 -0.207511 -0.343555 0.356377 -0.265832 -1.193114 -0.040433 -1.378696 0.727793 0.666323 -1.340560 -0.426015 0.157647 0.504016 -0.263809 -1.083383 0.112261 -1.338223 0.833473 -0.805237 -0.516570 -0.579593 0.763877 -0.557712 -0.343470 0.686942 -0.011856
may 0.131590 0.757247 -0.135113 -0.007206 0.425354 -0.927826 0.419220 -0.004358 -0.343414 -0.135537 0.255244 -0.252068 -0.487916 0.138335 -0.172683 0.408888 -0.497788 -0.624905 -0.119318 0.033414 -0.755469 0.124386 0.194207 -0.263512 0.080904 -0.541755 -0.333880 0.316364 -0.126732 0.851984 -0.462455 0.676679 1.430078 -0.304484 -0.693226 -0.667376 -0.061773 -1.152422 0.209169 0.788196 -0.710811 -0.303551 -0.767139 -0.071881 -0.662504 -0.745945 -0.031206 0.853426 -0.050083 0.646446
theoretical 0.679182 0.206207 0.471647 0.618365 0.272950 1.007998 -0.214842 0.054449 -0.350192 -0.560484 -0.053727 1.323558 0.664148 -0.121161 0.634690 -0.807359 -0.328142 -0.623646 0.325208 -0.753509 -0.291026 0.087251 1.030849 -0.670401 -0.331576 0.309958 -0.536159 0.268760 -1.038135 0.017143 -0.297487 0.916052 -0.011014 -0.222534 -0.982187 0.296676 -0.145829 -0.709442 0.472529 0.094795 0.064076 -0.096011 0.627952 -0.648007 -1.009650 0.379605 -0.282450 1.373121 1.131257 -0.580772
gas 0.050239 0.411236 0.420441 -0.881321 1.316351 -0.881272 0.455638 -0.559239 -0.513312 0.418033 0.204580 -0.346610 -0.000113 0.401249 0.588629 1.478300 -0.831578 0.110768 0.355757 -1.273736 0.176595 1.505060 0.286269 -0.010448 1.114950 -1.520355 1.034222 -0.247063 0.012584 0.157043 -1.344953 0.670449 -0.101374 -0.406241 -0.036955 0.373276 -0.256287 -0.670146 -0.047131 -1.263887 0.251659 -0.921831 -0.882484 0.304995 0.343134 0.159102 -0.602970 -0.481215 -0.010922 0.079883
point -0.031688 0.328338 1.059606 0.232872 0.248075 -0.127120 -1.330807 0.071219 0.286424 1.269185 -0.374580 -0.946678 0.436044 0.847822 0.511808 0.222157 -0.235967 0.122629 -0.887270 0.197317 -0.802353 0.602637 0.077949 -0.268214 -0.823643 -0.639232 0.305244 -0.122367 -0.551701 -0.075649 -0.626676 1.424085 0.853848 -0.500704 0.113319 0.033435 0.829785 -0.178160 0.956755 0.804532 -0.816550 -0.295325 0.495123 0.514983 -0.277540 -0.711661 -0.956362 1.009167 1.245391 0.198618
order 0.277365 -0.597994 -0.049886 -0.288794 -0.856342 1.171543 -0.525314 -0.223848 0.940600 -0.714823 -0.724733 -0.724950 0.180455 0.720330 0.650685 -0.192183 -0.063494 0.576774 0.006281 0.379179 -0.907995 -0.191857 -0.506185 -0.029905 0.732725 -0.308825 -0.028067 -0.218932 -1.213168 0.022813 -0.501352 0.636816 0.104465 -0.497669 -1.232627 -0.198145 -1.074990 -0.787232 -0.153841 -0.340568 -0.035726 0.534475 0.012628 -0.347137 -1.621048 -0.460343 0.060583 -0.378097 1.476494 0.888484
measurements 0.397347 0.455753 -0.384153 -0.926352 1.199966 1.424934 -0.543323 1.088880 -0.024427 0.355818 0.518014 0.404626 1.494947 -0.275695 -0.726274 -0.317417 -0.644130 0.091748 0.172618 0.190759 -0.309398 1.422359 0.029111 -1.195501 0.092437 -0.340728 -0.249236 0.399871 0.523934 0.700517 -0.169763 0.670079 -0.077034 -0.393466 0.077087 0.531795 -0.198154 -0.693780 1.193641 -0.250136 0.359341 0.363579 0.142372 0.482845 0.212956 0.453971 -0.589867 -0.101977 0.853958 0.579199
stagnation -0.357231 0.221103 1.143581 0.213689 0.671399 -0.759821 -0.882949 0.303443 0.622064 0.586187 -0.189406 -0.934442 0.803346 0.800031 0.357729 -0.073067 -0.375294 0.311287 -1.182937 -0.223387 -0.681311 0.878900 0.275149 -0.996974 -0.664737 -0.239344 -0.197169 -0.663067 0.192817 -0.513389 -0.925711 0.965434 0.836862 -0.863200 -0.206840 -0.204061 0.220393 -0.353064 1.075554 -0.896900 -0.473860 -0.549687 0.568173 0.880080 -0.433752 0.028527 -1.257504 0.941949 1.431877 -0.258189
transition 0.155425 -0.607771 -0.408177 -0.295978 0.568775 1.652780 -0.747011 -0.505328 -0.765235 0.561468 0.115422 -0.114935 -0.253702 1.107386 0.157738 0.073038 -0.713313 -0.361379 -0.339907 0.410368 -0.593567 0.246238 -0.306411 -0.778187 0.851493 -0.924398 -0.470438 -0.156561 -0.030926 -0.155859 0.023798 0.365349 0.225667 -0.187253 0.673088 0.429638 1.350980 -0.810234 0.900711 1.113617 0.513335 -0.645322 -0.542049 0.624922 -0.197096 -0.116811 -0.883130 0.985757 0.053748 -0.033587
large -0.593388 -0.424251 0.476678 0.368130 0.237259 -0.132908 0.804769 0.287760 -0.595495 -0.394927 0.617654 0.426399 -0.065094 1.240449 -0.000019 -0.114669 -0.300945 -0.820622 -0.238902 -0.922843 -0.130771 0.429662 0.593212 0.801812 -1.169872 -0.589244 -0.585637 0.734207 -0.620905 0.482449 0.971987 0.319807 0.926949 -0.184860 -0.420195 -0.046279 -0.379880 -0.958452 0.962401 -0.320636 -0.136855 -0.589218 -0.258790 -0.023842 -0.708660 -0.730845 -0.362746 -0.123489 1.180342 0.957003
flutter -0.184458 -0.061315 -0.445886 -0.445595 -0.138169 -0.159999 -0.049270 -0.515058 -1.601105 -0.233272 -0.423680 0.706036 -0.209101 -0.149452 -0.000410 -1.230543 0.259356 0.031570 0.554531 -0.506627 -0.601856 -0.922076 0.457677 -1.318402 0.303451 -0.966295 -0.926792 -0.222826 0.043279 1.233593 -0.030552 0.237030 -1.222945 0.310411 -1.359441 0.953605 -0.575810 -0.559118 0.460179 0.151769 0.168230 -0.273393 -0.911647 -1.141696 -0.372980 -0.610993 -1.058886 0.214535 -0.545602 -0.780466
general -0.407591 0.857278 0.141636 0.005566 -0.140278 0.024752 0.221484 0.044183 -1.010295 -0.027433 0.567275 0.404876 0.776321 0.120612 1.233311 -0.444846 -0.197492 -1.377316 0.082291 0.030775 0.243149 0.251215 -0.218729 0.557793 -0.192325 0.094708 -0.565640 0.401977 -0.370527 0.932104 -0.577969 0.739411 0.780381 -1.375333 -0.705430 0.247509 0.564252 0.230116 -0.084279 0.603281 0.004811 0.534868 -0.568614 -0.133250 -0.434634 -0.884395 0.186923 0.669416 0.593667 0.212095
fluid -0.097680 -0.056264 0.048747 0.090979 1.021406 -0.625087 -0.356086 -1.190023 0.799621 -0.475057 0.135258 -0.073184 0.082189 -0.124634 0.967984 0.188884 0.041161 -0.453152 0.453412 0.244710 -0.594839 1.422131 0.317083 0.618832 -1.144347 -0.782202 -0.240002 -0.206979 -0.276638 -0.229746 -1.334510 1.605094 -1.037758 0.218836 0.056898 -0.198487 0.106676 -0.224770 -0.004405 -0.011204 0.967111 -1.114141 -1.536959 0.087580 -0.269919 -0.141813 -0.336714 -0.562094 0.539319 -1.066185
characteristics 0.175876 -0.054853 -0.468952 -0.458491 0.137281 0.257291 -0.175871 -0.546271 -0.843366 0.575738 0.745910 0.796275 0.252286 0.575157 -0.915684 0.227716 -0.035099 -0.121200 0.296176 -0.164207 0.334142 1.023213 0.379443 -0.916175 -0.354215 -0.795736 -0.272201 0.351942 -0.442568 0.413132 0.040486 0.391444 -1.323977 -0.581297 -1.567578 0.148210 -0.472858 -0.185509 1.142045 0.454223 0.023660 1.307785 -0.792008 -1.030682 0.176496 -0.158591 -0.286565 -0.312756 0.633149 0.112156
field 0.095583 0.495521 -0.430453 0.062870 0.021487 0.000094 0.580631 -0.159714 1.489526 0.051058 0.234143 -0.713100 0.189885 0.517259 0.739464 -0.161162 -0.687017 0.079300 0.153090 0.421985 -0.067940 1.695312 1.210242 0.492625 0.187397 -0.388243 -0.565559 0.818512 -0.189246 -0.061005 0.387001 1.371837 0.502740 -0.571340 -0.768282 -0.299036 0.006929 0.133091 0.430591 -0.155951 0.702324 -0.289256 -1.566952 -0.525187 -0.159492 -1.015528 -0.543687 0.472966 0.410329 -0.917659
flows 0.619569 0.045090 0.247938 -0.472741 0.560512 -0.505583 0.640351 0.022852 0.057711 -0.256728 0.747974 -0.299784 -0.000800 0.464612 0.950053 1.458177 0.853920 -0.746608 1.157582 -0.511517 -0.106551 0.834687 0.239189 -0.106770 0.271180 -0.210358 0.058497 0.292866 0.155143 -0.424812 -0.600468 1.277675 0.372545 -1.255898 -0.874061 0.052603 0.874404 -0.796740 -0.755740 -0.439390 0.502576 0.431243 -0.667494 0.452569 -0.203733 0.142417 -1.075050 0.524838 0.277358 0.115819
leading 0.422511 -0.650801 0.029086 -0.078646 -0.461835 0.201758 -1.050810 -0.802546 0.142164 0.787289 0.802879 -0.093132 0.544683 -0.312942 -0.107700 0.757020 0.507017 0.536318 0.517718 0.142344 -0.045719 -0.078870 0.487094 -1.544645 -0.083254 -1.168300 -0.401263 1.208759 0.347524 -0.359901 0.497262 -0.506734 0.935354 0.219483 -1.134654 -0.307845 0.211870 -0.654770 0.039351 0.013157 -0.258213 -0.967613 -0.451874 -0.011601 -0.645376 -0.565915 -0.636918 0.113821 1.069849 0.425352
values 0.049286 -0.578490 0.244164 -0.583678 0.466549 0.422162 0.762562 -0.798178 0.152130 -0.978649 0.025863 -0.064654 1.714824 -0.234794 0.215279 0.399963 -0.502497 -1.011171 -0.808333 -0.281999 -0.232712 0.084972 0.611761 -0.434939 0.262368 0.153838 -0.219398 -0.359351 -0.191257 -0.114874 0.307799 0.869077 0.860257 -0.170357 -0.627181 0.398764 -0.348784 -0.961104 0.215263 0.371268 -0.383983 -0.215381 -0.060725 -0.693123 -0.552857 -0.356535 -1.331880 0.141529 0.487339 0.190446
thin 0.086496 0.900775 0.260087 0.991720 -0.087503 -0.376823 -0.242623 -1.872423 -0.542603 -0.458976 0.291340 0.992659 0.360106 -0.514371 -0.237959 0.415590 -0.054000 -0.842092 1.318385 0.326904 -0.694600 -0.242231 0.424271 0.571397 -0.905141 -0.485002 -0.427079 0.712278 -0.570168 -0.399862 -0.736612 -0.248180 0.001374 -1.256583 -0.293279 -0.106416 -0.344494 0.288965 0.896946 0.044032 0.404209 0.220054 -0.321535 0.756071 -1.066320 -0.676650 0.881013 0.498237 0.508476 0.281991
circular -0.334881 0.400638 1.337995 0.074114 0.218915 0.475161 0.368397 -1.731555 -0.783665 -0.321257 0.803119 1.093615 1.382337 -0.299011 -0.083409 0.420684 -0.428191 -0.216538 0.498545 0.397455 0.095669 0.441701 -0.096913 0.395849 -0.825239 -0.472053 -0.170912 -0.036579 -0.067350 -0.787028 -0.749137 -0.142662 -0.755627 -0.855370 -0.880223 0.603372 0.472863 0.393756 1.101342 -0.020182 0.270773 0.349474 0.063022 -0.161998 -0.269693 -0.737545 1.222803 0.917825 0.614391 -0.325108
considered 0.499802 0.265159 0.540378 -0.484527 -0.064392 -0.649576 -0.105370 -0.135750 -0.495385 -0.860659 -0.054651 -0.019428 -0.213812 -0.176094 0.821638 0.361076 -0.386454 -0.113566 0.629555 0.171891 -0.447207 0.460683 0.238472 0.297301 0.077881 -0.888499 -0.636155 -0.201400 -0.033824 0.659838 -0.416197 0.776247 0.380689 -0.130556 -0.974432 -0.412352 0.156493 -0.830834 0.246276 -0.020255 0.346594 0.369695 -0.332072 -0.261153 -0.373191 -0.938592 -0.024197 0.471261 0.317771 0.000371
flight -0.943543 0.925317 0.097770 -0.528461 0.617060 1.631149 -0.368508 0.676763 -0.100397 0.227795 0.916813 0.342842 0.789236 0.668956 -0.102035 0.962021 -0.019818 0.255253 -0.540015 -0.500693 -0.639430 1.112547 0.394122 0.334662 0.911304 -0.423219 -0.955530 -0.130924 -0.118828 1.510176 0.013153 0.629975 1.258772 -0.608528 0.224822 -0.409116 -0.543206 -0.388348 0.751617 -0.741460 -0.065602 0.565501 -0.383539 -0.172765 0.259070 0.099398 -0.380129 0.027895 -0.080471 0.586543
thickness 0.758438 -0.062961 0.466508 -0.486765 -0.711332 -0.210819 0.256179 -0.929225 -0.168862 -0.387932 0.774396 0.153840 0.040095 -0.504127 -0.034416 -0.249684 -0.882326 -0.073724 0.343743 -0.458006 -1.023452 -0.361332 -0.631976 -0.718532 -0.331580 -1.227502 -0.620728 -0.642025 -2.010042 -0.515058 0.434843 -0.087825 0.603341 0.049271 -1.343145 0.471777 0.133352 -0.556000 0.661930 0.186105 0.159399 -0.395204 -1.011339 0.429309 -0.335996 0.032763 -0.416993 0.015413 1.075419 0.216068
low 0.449606 0.041813 0.970300 -0.631369 0.719002 0.553806 -1.329550 -1.122832 -0.280855 0.037544 0.700401 0.178392 1.129323 1.006213 0.039602 0.079425 -0.118326 -0.588416 -0.131284 0.170200 -0.656637 0.468123 0.532547 -1.121394 -0.411588 0.581497 -1.259815 -0.049487 0.173525 1.165873 -0.058959 -0.554909 0.278578 0.082358 -0.691050 -0.108357 -0.321791 -1.038268 0.443089 -0.555559 -0.022694 -0.040941 -0.587569 0.019699 -1.056171 -0.457119 -0.771798 0.141218 0.092938 -1.023258
region -0.665246 -0.698796 0.408955 0.993835 0.481230 -0.395098 -1.207631 0.163798 -0.254750 -0.339021 -0.107541 -0.603311 0.480058 -0.154861 0.169531 0.905288 0.130694 -0.398646 -0.161954 -0.141481 -0.529578 0.337419 0.540707 -0.579490 -0.684921 -0.771570 0.531072 -0.090958 -0.259592 -0.755631 -0.028605 -0.135622 0.358582 -0.517966 -0.739766 -0.047153 0.480861 -1.125231 -0.517634 0.130283 0.155017 -0.304859 -0.596149 -0.071638 -0.718901 -0.315189 -1.124722 1.156661 0.522024 0.168346
approximate -0.203913 0.466340 0.323044 0.301760 0.294577 0.368039 -0.213663 -0.878390 0.274550 -0.421344 0.575956 0.018410 -0.136643 -0.135899 1.214298 0.210362 0.517382 -0.364151 -0.528477 0.186660 0.282513 -0.043476 -0.074636 -0.760227 -0.871376 -0.296132 0.506032 0.398938 -1.741423 0.338513 -1.006603 0.979442 0.668742 -0.551896 -0.705400 0.174651 0.290985 -0.145869 -0.021537 0.309839 -0.197222 0.224458 -0.112668 -1.314972 -0.172220 0.354372 -0.563520 -0.190046 0.825791 0.058156
tests -0.162738 -0.318093 -0.223934 -0.327804 0.282077 1.012411 -0.616096 0.546931 -1.020123 0.392711 0.766307 1.172954 0.721307 0.073874 0.476529 -0.047958 -0.522002 -0.079239 -1.074649 -0.054185 -0.149808 -0.511295 -0.608396 -1.331552 0.368274 -0.540281 -1.241627 0.307397 0.177706 1.004387 -0.582710 0.291308 -0.122255 -0.193005 -0.640418 0.555036 -0.631088 0.123061 1.301342 -0.175720 0.765299 1.081305 0.636442 0.442841 -0.176745 -0.657334 0.447231 0.092327 0.708102 0.264647
attack -0.926043 -0.185283 0.392272 -0.419768 -0.294368 0.225587 -0.359584 0.841229 -1.167042 -1.504706 1.035289 0.461356 0.861768 0.087763 -0.530931 0.400162 0.588855 -0.736218 -1.216542 0.895512 0.176888 0.451012 -0.215755 -1.008015 -0.020659 -0.572012 -0.038542 0.046058 -0.665536 0.083297 -0.294820 -0.355578 -0.224130 -0.185009 -0.463809 -0.847908 -1.024865 -0.396763 0.544574 0.147818 -0.193628 0.542068 -0.066896 -0.486804 -0.021730 -0.246084 -0.510688 -0.039334 1.642894 -0.239377
model -0.825335 0.048836 -0.171489 0.547399 0.700255 0.604047 -0.110465 0.674675 -1.202407 0.530122 0.845971 0.726867 -0.768251 -0.219901 -0.025399 -0.784495 -0.970123 -0.297473 0.230186 0.067488 -0.437399 0.408922 -0.292320 -0.063563 0.284930 -0.948013 -0.824949 0.738089 0.091004 0.015150 -0.034702 0.190523 0.605878 -0.064390 -0.729178 -0.574713 -0.774022 -1.066288 1.128050 -0.288310 0.870378 1.308850 -0.502764 0.535724 0.259331 0.470274 -0.329624 0.336353 0.471970 -0.485149
stability 0.166927 0.374019 -0.359861 -0.359709 0.012314 0.141623 0.183044 -1.134162 -0.358317 0.057596 0.832352 1.979601 0.672237 0.443115 -0.530969 0.294510 0.254241 -1.457502 0.578012 -0.185829 -0.849370 0.172068 -0.524805 0.650330 0.367044 -0.482157 -0.667398 0.385725 -0.158279 0.435799 -1.203553 -0.020110 -0.602024 -1.289008 -0.220215 0.251085 0.058189 0.257419 0.394793 0.611291 -0.227369 1.344992 -0.482099 -0.322693 0.034297 -0.014186 -0.323309 -0.352247 0.572256 1.394155
distributions 0.151393 0.364278 0.532746 -1.198201 -0.410259 -0.068968 0.214653 0.252981 0.331978 -0.782235 1.282110 -0.326407 1.285615 -0.673196 -0.654455 -0.025635 -0.190478 0.557257 0.919296 0.539099 0.914103 0.881842 0.493941 -0.707230 -0.495390 0.215690 -0.179642 0.049584 -0.372136 -0.166044 -0.055839 0.861872 0.434231 -1.056517 -0.972465 -0.290566 -0.439358 -0.260118 0.278403 0.457378 0.652192 0.347467 0.439003 -0.634228 -0.676000 0.483774 -0.685747 0.766415 0.876373 -0.493312
numerical 0.226486 0.053064 0.596646 -0.875810 0.322189 0.675625 0.405263 -1.231738 -0.665836 -0.448271 -0.230854 -1.107746 -0.448984 -0.772956 1.361724 -0.549022 0.207282 0.264133 -0.184092 0.576353 0.075819 0.802653 -0.173298 -0.289186 0.335662 -0.125014 0.304602 0.565318 -0.546585 0.321915 -0.537105 1.620968 0.720741 0.018323 -0.234596 0.097835 0.247617 -0.551536 0.144541 -0.309609 -0.173757 0.589980 0.724927 -1.218719 -0.133377 -1.340673 -0.753963 0.554809 0.420406 0.400037
problems -1.071426 1.180005 -0.262667 -0.125526 0.523770 -0.037338 -0.022616 -1.277528 0.164803 -0.091394 -0.000864 0.208285 -0.045044 0.769191 0.871894 0.426985 1.158061 -0.606934 0.218907 -0.461842 -0.015115 -0.367989 -0.059847 -0.256742 -0.980178 -1.204149 0.174124 -0.011995 -0.767312 2.134450 -0.296595 0.589536 0.443457 -0.022776 -0.158481 -0.182283 0.379320 0.129084 0.087112 0.599431 -0.377723 0.623437 -0.464117 -0.185022 -1.159854 -0.748558 0.011953 0.355751 -0.183923 -0.213920
form -0.407702 0.036100 0.205877 -0.343317 -0.245184 -0.038338 -0.432935 -0.929410 -0.849333 -0.484255 0.943180 -0.325381 0.653567 -0.775242 0.739379 -0.707780 -0.479740 -0.004532 -0.227100 0.419950 -0.939494 -0.186438 -0.505065 -0.204389 -1.033943 -0.110045 -0.601168 0.007957 -0.068579 0.091892 -1.489577 0.846595 1.540517 -0.410852 -0.724080 0.326444 0.789537 0.607771 -0.380355 -0.173811 -0.557254 0.021186 -0.487475 -0.562840 -0.516340 0.219574 0.337681 -0.417403 0.196546 -0.680274
stress 0.128044 0.383158 -0.275553 0.351655 -0.490072 -0.697452 0.444195 -0.351371 0.783218 0.250585 -0.281839 0.360927 1.770567 -1.181513 -0.399337 -0.617171 -0.415971 -0.006301 0.667524 -0.130094 -0.558818 -0.851147 0.619080 0.306272 -0.453710 -1.566309 -0.177719 -0.162906 -0.996526 1.118107 0.260226 0.309820 1.470039 -0.317137 -0.215633 0.318181 -0.342513 0.362711 0.155573 0.784826 0.770220 0.006029 0.078042 -0.473348 -0.394807 0.686762 0.085049 0.948478 0.779176 -0.519214
constant -0.077367 0.208837 0.329633 -0.008187 0.598298 -0.711578 0.056456 -0.854276 0.457090 -0.584946 0.494870 -0.187174 1.055140 -0.592751 0.595410 0.437311 -0.567219 -0.761671 -0.208996 -0.447698 -0.628795 0.495504 -0.624227 0.354155 -0.513993 -0.693373 -0.066299 -0.826781 -0.607075 0.026339 -0.151643 1.182676 0.719037 0.207257 -0.272201 -0.612181 -0.568446 0.304749 0.214506 -0.535969 1.011010 -0.449394 -0.532535 0.431857 0.169384 -0.483163 0.055125 -0.171759 0.042956 -0.232323
shells 0.255177 1.064901 0.589093 0.913120 -1.043357 -0.614084 0.874302 -1.184446 -0.532999 -0.212468 -0.295083 0.667671 0.652739 -0.223358 0.094920 -0.198592 -0.413049 -0.734168 1.190204 0.227276 -0.179995 -0.103791 -0.056917 1.017652 -0.508292 -0.662081 -0.388391 0.263758 -0.423517 -0.186043 -0.164263 -0.060521 0.093146 -2.071481 -0.320497 0.347680 0.139730 1.148549 -0.136975 -0.382404 0.156013 0.609320 0.421836 -0.440620 -1.067881 -0.629078 0.759201 0.978531 0.752282 1.485468
viscous -0.300705 0.163307 0.195359 -0.085271 0.793727 0.021411 -0.194053 -0.670672 0.191215 -0.316345 0.149939 -0.406669 -0.026668 0.673799 0.720806 0.104530 1.195432 0.425768 0.547561 1.020794 -0.808412 0.963968 0.249075 -0.204929 -0.634353 -1.173541 -0.423181 0.171748 0.466714 -0.315373 -0.662855 0.846684 -0.572892 -0.119589 0.203030 0.031872 0.684487 -1.037899 0.397495 -0.198232 -0.175980 -1.757320 -0.876376 -0.641343 -0.524185 -0.016246 0.030118 0.401972 1.369514 -0.723132
blunt -0.166215 0.428746 1.029438 -0.396128 0.363822 1.148341 -0.230532 -0.133572 -0.494609 0.785159 0.898097 0.432671 0.260518 0.527885 0.249697 1.504827 0.669332 0.484795 0.174316 1.005194 -0.134128 1.806423 0.555371 -1.053258 -0.259294 -0.129485 1.027626 1.464007 -0.276100 -0.339052 0.076461 0.754070 0.248555 0.306185 -0.678908 -0.392656 0.531585 -0.764085 0.918906 -0.751824 -0.486581 -0.022663 0.339706 0.459470 -0.223731 -0.549789 -1.254271 0.837285 0.941663 -0.052891
paper -0.254884 0.123979 0.376528 0.494051 -0.062924 0.724047 -0.888910 -0.457633 -0.363523 -0.190289 -0.131472 0.498191 -0.029993 0.109116 1.819471 0.481120 0.247987 -0.850707 0.682027 -0.146924 0.103880 0.556381 -0.054321 0.385954 -0.697396 -0.179159 -0.496506 0.732947 -0.227037 1.697505 -0.026624 0.718646 -0.342816 -0.433232 -0.479365 -0.026524 0.502348 -0.503073 -0.292231 -0.189093 0.015007 0.382818 -0.064545 -0.504306 -0.950272 -0.449307 1.130740 1.102511 0.380838 0.826426
value -1.253661 0.190763 -0.050805 -0.161639 0.330587 -0.240565 -0.810641 -1.600548 -0.028577 -0.626098 0.000018 -0.146651 1.075570 0.153755 0.165312 -0.079379 -0.123074 -0.463768 -1.232591 0.546299 -1.068256 -0.217174 -0.262092 -0.385297 0.210539 -0.719351 0.477189 -0.793019 -0.912235 0.003202 0.052213 0.583049 0.685102 0.397498 -0.161659 0.020792 -0.023308 -0.572832 0.224015 0.586782 0.095192 -0.516693 0.320830 -0.176966 -0.343928 -0.898003 -0.339095 0.626252 -0.143103 0.152387
compressible 0.690843 0.456685 0.191608 -0.288161 0.556537 -0.149721 -0.722839 -0.764273 0.577675 -0.829065 0.436406 0.005623 0.309701 0.523285 1.029486 0.060973 0.833096 -0.726403 1.123664 0.205059 -0.803943 1.029919 -0.581889 -0.107704 -1.313352 -0.725972 0.447360 -0.053435 -0.865802 -0.262051 -1.496743 1.247846 -1.229330 -0.636342 -0.084064 -0.350015 0.806889 -0.702371 -0.409550 0.552688 1.112433 -0.160467 -1.108332 -0.591931 0.398816 0.876873 -0.317279 0.055729 0.315614 -0.004344
simple -0.463370 0.516044 -0.263734 -0.335822 -0.407091 0.275795 0.033435 -0.409969 -0.990898 -0.131825 -0.344550 0.124594 -0.180267 -0.098789 0.815795 -0.610276 -0.434802 -0.594889 -0.426725 0.946586 0.070770 0.436260 -0.073988 -0.173953 -0.843955 -0.456114 0.027111 1.084810 -0.672225 0.566761 -0.878692 0.619366 0.816517 -0.256476 -1.076753 0.372435 0.161829 0.059991 -0.357979 0.070306 0.290750 0.050201 -0.356518 -0.255589 -0.683571 0.409723 0.200438 -0.359433 1.091777 -0.480111
discussed 0.304114 0.232398 0.107518 -0.924496 -0.266262 0.595991 -0.150300 -0.409964 -0.427313 0.280901 -0.440651 0.260091 -0.303151 -0.167244 0.556272 0.179532 -0.815874 -0.360554 0.405818 -0.768815 0.074113 0.626498 0.436617 -0.271875 0.052314 -0.648960 0.234909 0.433755 0.117417 1.331638 -0.494352 0.991699 0.428056 -0.309027 -0.984019 0.236632 0.205583 -0.736629 -0.222163 0.105616 -0.282918 0.615860 -0.113283 -0.618937 -0.489054 -0.627268 0.251136 0.866286 0.071119 0.350939
first -0.173796 -0.505357 -0.162525 -0.028696 -0.591834 1.097562 -1.101166 0.099318 -0.023178 -0.502621 -0.423359 -0.506325 0.708913 -0.166699 0.647965 -0.065410 -0.092565 -0.001311 -0.036615 0.674448 -0.823602 0.324992 -0.723597 1.044813 -0.122899 -0.377057 -0.341708 0.210228 -0.416779 0.472201 -0.473262 0.892354 -0.176702 -0.247448 -1.041213 0.081189 -0.019131 -0.337641 -0.347059 0.407155 0.114193 0.580590 -0.501753 0.202782 -1.639801 -0.242270 -0.177026 0.054604 0.691958 1.022867
slender 0.685677 -0.140014 0.585411 -0.833386 -0.091857 0.658226 0.134439 -0.021462 0.300994 0.029927 1.199013 1.305956 -0.156746 0.208374 0.416596 0.832344 1.547715 0.456697 1.226251 1.200093 -0.077418 0.678478 0.035325 -0.423091 0.272439 0.413170 0.363689 1.094242 -0.584262 -0.189154 -0.598840 0.277483 0.516884 -0.814533 -1.076216 -0.521578 0.036361 -0.772498 0.863964 0.278738 -0.359782 -0.395768 -0.274920 0.158579 -0.877190 -0.347940 0.710309 -0.275937 0.922161 -0.113319
use -0.528726 0.507222 0.155081 -0.110993 0.430765 -0.448922 -0.174937 -0.331760 -0.244071 0.682672 0.391612 0.286511 -0.397433 -0.219175 0.398826 -0.388159 0.226041 -0.741548 -0.392165 -0.331470 -0.134397 0.739551 -0.413933 -0.702934 -0.112570 0.268029 -0.053162 0.483723 0.096369 0.665121 -0.617782 0.356565 0.775762 0.431606 -0.853553 0.421653 -0.368359 -0.326893 0.378382 0.327957 0.049640 0.157229 -1.103440 -1.212866 -0.484671 0.296639 0.133215 0.298253 0.911367 -0.204608
agreement 1.049443 -0.869319 -0.165110 0.378235 1.008941 0.424375 -0.157576 0.721510 -0.650790 -1.198835 -0.636394 0.460022 0.599746 -0.763902 -0.285176 0.310286 -0.524785 -1.270552 -0.160445 0.373071 0.346149 -0.061750 0.978687 -0.449398 0.518710 0.171897 -0.284989 0.041629 -0.354518 0.076380 -0.300130 1.180183 1.036312 -1.582956 -0.671074 1.233252 -0.044630 -0.889769 0.651051 0.564388 -0.274955 -0.244411 0.580399 -0.194335 -0.699850 -0.010897 -0.178043 0.869905 1.203565 0.375649
skin 0.408195 0.523033 -0.652762 -0.246290 0.261094 0.442620 0.107463 -0.459880 0.342700 0.137409 -0.260228 -0.240228 0.873274 -0.610410 -0.515068 -0.425346 -1.176440 -0.414477 0.580939 0.259787 -0.906007 0.360505 -0.962714 -1.107336 0.136683 -1.145120 0.765551 -0.982268 -0.736341 0.941268 0.658423 -0.114862 -0.374458 -0.230180 -0.647899 -0.119121 -0.334480 -1.093280 0.784254 0.577969 0.702264 -0.599513 -0.303084 0.060025 0.405363 1.016991 0.076974 0.545544 -0.314135 0.041276
separation 0.542028 -0.888028 -0.009873 0.423067 -0.721726 0.022235 -1.412570 -0.257996 0.882875 0.420267 0.291572 -0.304076 -0.472084 0.285357 -0.364450 0.849311 -0.477275 -0.352291 0.096690 0.464985 -0.367848 0.132525 0.549748 -1.252535 -0.286157 -0.857442 0.060147 1.151523 -0.399859 0.063085 -0.963588 -0.042617 0.715589 -0.599850 0.312606 0.040669 0.664441 -0.577608 0.054326 1.370263 0.272376 0.385718 -0.267602 -0.167715 0.444283 -0.073959 -1.123518 0.587722 0.830939 0.907576
three 0.505311 1.172857 0.442963 -1.087100 -0.115358 0.365210 -0.881122 -0.165726 -1.007207 -0.143994 0.528048 -0.453950 0.489924 0.363442 0.716435 -0.277782 0.030250 0.674541 0.210214 0.709573 -0.458219 -0.219541 0.000364 0.102932 0.014392 -0.635375 -0.486237 -0.229628 0.029123 0.096659 -0.197126 1.017436 -0.401816 -0.092736 -0.340744 0.372435 1.147286 -0.098219 0.778310 1.251889 -0.767367 0.913472 -0.298891 0.238049 -0.730118 -0.452494 -0.911019 0.096868 0.573310 0.179090
based -0.779820 -0.145778 0.801458 0.516250 1.241783 0.794754 0.307766 -0.599637 -0.736071 0.228750 0.273130 0.880067 0.279668 -0.694343 0.966021 -0.322103 -0.106246 -0.545458 0.021199 0.327549 -0.325525 0.629993 0.143236 -0.569997 -0.005908 -0.402629 0.257767 -0.366119 -1.706341 0.019155 -0.393535 0.282124 0.903804 0.174265 -0.522612 -0.330223 -0.678451 -0.382005 -0.243252 0.613196 0.457069 0.436962 -0.338704 0.725413 -0.765629 1.116797 -0.340085 -0.270417 1.403659 -0.595294
shear 0.040283 0.583201 -0.301327 -0.095645 -0.554115 0.060316 -0.015043 -0.219917 0.526592 -0.314147 -0.398727 0.074845 1.779203 0.129444 0.392260 0.042673 0.517411 0.080607 -0.029943 -0.103475 -0.219484 -0.186572 0.430508 0.515619 -0.944844 -1.135847 -0.308172 0.706318 -0.028178 0.012356 -0.165716 0.097560 0.554666 -0.142380 -0.129461 0.965152 0.657484 -0.640915 0.228578 1.012816 1.610892 -0.920828 -0.811429 0.273762 -0.717234 0.735522 0.466894 0.377647 0.689502 0.079117
nose -0.783297 0.029213 0.683194 0.480129 -0.381096 0.178520 0.034111 0.954562 -0.685116 0.605722 1.142943 0.599347 -0.147803 0.503713 0.029023 0.764249 -0.061522 -0.159687 0.100659 0.575601 -1.133870 1.178247 -0.318551 -0.393816 0.510606 -0.108172 0.577414 0.140368 -0.472959 -0.783424 0.513541 -0.515210 0.879322 0.155828 -1.220009 -0.290378 0.144377 -0.953227 0.745554 -0.516067 -0.239741 0.064302 -0.002511 -0.365175 0.428701 -1.280106 -0.258866 0.655787 1.059442 0.131711
present 0.029857 0.049518 -0.221890 0.662907 0.567602 -0.022628 -0.425972 0.062132 -0.106191 -0.058692 -0.012266 0.633487 0.226174 0.251226 1.582111 0.295419 -0.310767 -0.797933 0.334604 0.130387 -0.256262 0.392842 0.074639 -0.464701 0.461794 -0.689166 -0.563704 0.306194 -0.476711 1.111408 -0.245485 0.304307 0.227990 -0.405658 -0.345770 -0.215625 0.403144 -0.536232 -0.727859 -0.166200 -0.164560 0.156661 -0.055797 -0.089715 -0.648565 -0.481004 0.394397 0.989165 0.994730 0.534460
cylindrical -0.304422 0.733840 0.808617 0.722289 -0.456810 0.817928 0.613823 -1.050277 -0.415632 0.046301 0.378899 1.025949 0.768781 -0.281995 -0.508582 0.002906 -1.020985 0.157612 1.110220 0.390255 -0.478326 -0.132077 -0.144656 0.887263 -0.302515 -0.858428 -0.273781 0.123431 -1.071410 -0.445661 -0.585973 -0.594130 -0.199512 -1.736338 -0.650761 0.211677 0.448441 0.977480 -0.169961 -0.205540 0.385274 0.302074 0.464695 0.137847 -0.703614 -0.259962 0.450306 1.221272 0.135367 0.781980
compared 0.678177 -0.362860 -0.141299 -0.081887 0.844787 0.562534 0.531342 0.026786 -0.691187 -0.831714 0.068261 0.350125 0.671417 -0.236267 0.211713 -0.401925 -0.502664 -0.552076 -0.203311 -0.401218 0.054489 0.737018 0.722733 -0.610107 -0.335872 0.110004 0.197612 0.260375 -0.626546 -0.529618 0.266074 1.351326 0.630412 -0.615362 -0.914347 0.675702 -0.294653 -0.277862 0.653780 -0.400153 -0.044919 -0.271007 0.349290 -0.606093 -1.128428 -0.287097 -0.597297 0.393471 0.903295 -0.081006
design -0.574744 1.531084 0.608567 0.769476 -0.578409 -0.367845 -0.754159 -0.165333 -0.348685 0.856145 0.662776 0.527832 0.305126 -0.217548 0.512729 0.409096 0.082204 -0.240138 0.134387 -0.589134 0.005869 -0.161459 -0.052706 -1.084805 0.305449 0.469488 -0.610645 0.238038 -0.922367 0.939046 -0.567129 0.730092 0.740139 -0.207977 -0.258584 -0.003008 -0.887955 -0.267612 -0.270784 0.034968 0.923898 1.143085 -0.070651 -0.683841 0.106901 -0.493855 0.378504 0.455607 -0.630852 0.328165
methods 0.499173 -0.000042 0.570548 -0.223574 0.536692 1.014340 0.014689 -0.555042 -0.102290 -0.421057 0.051543 -0.165667 -0.476332 0.127916 0.778677 -0.634992 0.314516 -1.230295 -0.439624 -0.197215 0.780648 0.007705 0.247971 -0.465492 -0.660394 0.014975 0.239758 0.628603 -0.501100 1.296876 -0.664272 0.516197 0.410001 -0.623671 -0.815722 -0.565054 0.041275 -0.265422 0.191235 0.598878 -0.505578 1.093714 -0.025332 -1.169552 -0.641785 0.034049 -1.176152 0.597107 0.392269 -0.193703
wind -0.410465 -0.007314 -0.646159 -0.674209 0.742699 0.704381 -1.445118 0.672605 -0.656939 0.468833 1.479946 0.115895 0.148706 0.770840 0.331495 0.392794 -0.835486 0.240712 0.138378 -0.693880 0.182834 0.678316 -0.177243 -1.367496 0.192366 0.464422 -0.991620 -0.100666 1.288998 0.491256 0.026581 0.821168 0.017722 -0.936528 -0.340099 0.744459 -0.655769 -0.755721 0.726999 -0.290338 0.102828 0.892188 -0.463678 0.831287 -1.189274 0.075559 0.153869 -0.507007 0.352033 0.731108
cone -0.020318 -0.174061 0.263717 -0.252998 -0.113854 0.283893 -0.282080 0.114555 -1.316857 -0.088335 0.638573 0.396449 -0.389150 -0.493003 -0.062131 0.922331 -0.015285 -0.823685 -0.515011 1.145920 -0.763996 1.412119 -1.068326 -0.386686 0.356578 -0.425542 0.623746 -0.340812 0.680425 -1.145960 -0.517849 -0.267537 -0.203569 -0.551597 -1.597117 -0.179031 0.087786 -0.342477 1.348836 -0.348327 0.377322 0.427946 -0.168969 0.257379 0.380419 -0.590586 0.324599 0.841141 1.106321 0.506500
function -1.461430 -0.905231 0.409314 -0.685280 -0.345111 -0.711078 -0.511656 -0.711766 0.084648 -0.488406 0.468374 -0.743209 1.496003 -0.373305 0.171620 -0.684782 0.044086 -0.293352 -0.531937 -0.161019 0.100859 -0.099849 -0.779747 0.032039 -0.365229 0.036499 -0.146567 -0.224596 -0.285563 0.050673 -0.951117 0.794856 1.288692 -0.156687 -0.550841 0.021649 0.513332 -0.646947 -1.616040 0.623159 -0.106589 -0.001250 -0.170871 -0.295570 -0.638826 0.820082 -0.642927 -0.146933 -0.496071 -0.677971
coefficients -0.258627 -0.502226 0.009230 -0.765058 0.117543 -0.035102 0.977819 -0.247737 0.611478 0.479021 -0.078279 0.452084 1.296349 -0.394785 -0.596710 0.038872 -0.090039 -0.234191 -0.028562 -0.238181 -0.081848 0.695296 -0.870554 -1.067352 -0.306811 -0.142723 0.399032 -0.798092 0.671522 0.249356 0.015174 1.022881 0.187508 0.292703 -1.791918 -0.173317 -0.385367 -0.740618 0.297748 0.873919 -0.487391 -0.278412 0.393042 -1.211998 -0.463861 0.685926 -0.292189 -0.184923 1.108926 -0.196659
calculated 0.424763 -0.066236 0.365529 -1.013616 0.572917 -0.130456 0.399344 0.063415 0.608090 -0.837790 0.601120 0.428478 0.998823 -0.364521 -0.305278 -0.207192 -0.641184 -0.060965 -0.158601 -0.416154 0.264985 0.422844 0.602321 -0.600792 0.102920 0.265374 -0.462050 -0.109313 -0.275493 0.165018 -0.705781 1.081571 0.339965 -0.458733 -1.297322 -0.241921 -0.237318 -0.715788 0.293575 0.051795 -0.288406 -0.021016 0.084329 -1.022132 -0.465791 0.368290 -1.286181 0.002762 0.322066 0.298749
cylinders -0.066923 0.390450 0.774069 0.190970 -0.500827 0.010958 0.333751 -0.823853 -1.067402 -0.091043 0.295747 0.880390 1.254172 -0.848075 0.551241 0.466801 -0.599949 -0.116801 -0.069538 -0.102267 -0.212498 -1.034331 0.188191 0.268943 -1.353529 0.075420 -0.675771 0.229130 0.378873 0.315947 -0.896493 -0.087460 -0.637955 -0.702267 -0.356257 0.918651 0.012856 -0.052266 1.138479 0.280430 0.500663 0.160884 0.679494 0.593838 0.147827 -0.293536 1.276828 1.305049 0.638329 -0.385750
shape -0.668276 0.297546 0.280985 -0.578461 -0.388289 0.273408 -0.084699 -0.183403 -1.372954 -0.392263 1.041978 -0.070572 0.027118 0.055381 0.112086 0.652125 -0.930177 0.574916 0.155802 0.580559 -0.038009 0.684601 0.022438 -0.033788 -0.083523 0.243628 -0.137456 -0.204961 -1.973924 -0.445992 -0.214702 0.436783 0.651133 -0.128966 -0.902888 0.148089 0.437318 -0.127210 -0.979329 0.886855 -0.031841 -0.757986 -0.219709 -0.009348 0.143144 -0.867120 0.015720 0.141166 0.759941 0.271431
study 0.225141 0.768191 -0.076053 0.158969 -0.366444 0.416578 -1.335466 0.624974 -0.087692 0.159295 0.432350 0.356147 0.188001 0.375191 0.320428 -0.255815 0.232107 0.119722 1.071458 0.184394 -0.234924 0.803107 0.400866 -0.639960 -0.370017 -0.334704 -0.573539 -0.203794 -0.291405 0.188299 -0.005892 0.427877 -0.088221 -0.532396 -0.268048 0.031103 0.041155 0.081313 0.110746 -0.292745 0.380386 -0.126002 -0.778405 -0.733241 -1.033059 -0.134909 0.598240 0.857539 1.168598 -1.133805
subsonic -0.198981 -0.237713 0.638162 -0.551392 0.348297 0.691626 -1.256974 -0.415015 0.135288 -0.214162 0.881246 0.205911 0.625357 0.534229 -0.212676 0.046480 0.869524 -0.013253 0.484326 -0.261906 0.325060 0.331684 0.092088 -0.871195 -0.198935 0.090147 -0.740666 0.289136 -0.037112 0.037889 -0.351378 -0.059195 -0.367085 -0.468949 -1.940181 -0.251081 0.372399 -1.389193 -0.475736 0.023486 0.696109 -0.105816 -1.124243 -0.721526 -0.585050 0.165721 -1.242744 0.085740 -0.739582 -0.026781
type -0.438925 0.353000 0.084873 0.388792 -0.362390 -0.066086 0.279852 -0.587774 -1.128410 0.782352 -0.077763 0.198137 -0.397573 -0.135428 -0.045871 0.667447 0.053777 -0.725056 1.143286 -0.211295 0.015597 -0.185158 -0.412766 0.127497 -0.054544 -1.082439 -0.277048 -0.189110 0.288451 0.629870 -0.283857 0.423278 0.272412 -0.903386 -0.483283 0.121116 -0.143725 0.041382 0.229377 0.471526 -0.143202 0.621222 -1.024582 0.022745 -0.241713 -0.492081 -0.688471 0.699127 0.697768 -0.209449
axial -0.134524 0.377591 1.265595 0.667423 -0.615855 -0.186962 0.281664 -0.873707 0.100587 0.252946 0.165165 0.460681 0.751866 -0.064867 -0.861996 -0.025074 -0.572028 0.496019 0.611585 0.294114 -0.068919 -0.008898 -0.137923 0.478129 -0.756925 -0.843749 -1.163422 0.118935 -0.586607 -0.064511 -0.838507 1.032344 -0.832860 -1.109375 -0.497453 0.525482 -0.154736 -0.331150 0.143936 0.856966 1.547224 0.374914 0.200515 -0.714174 -0.040152 -0.399677 0.742306 1.203151 -0.036294 0.121284
force -0.697444 -0.541005 -0.059001 -0.450118 0.328898 0.727893 0.961208 0.419779 0.418646 0.884964 0.343704 0.455044 1.350677 0.516081 -1.591603 0.092453 -0.674439 0.327330 -0.400852 0.415586 0.351923 0.798617 -0.503047 -0.134192 -0.564781 -1.060634 -0.162736 0.299566 -0.355944 -0.092139 -0.661891 1.833979 -0.297334 0.389542 -1.199761 0.444386 -0.747168 0.047003 -0.051395 1.149645 0.717341 0.740656 -0.002585 -0.551278 0.063353 -0.725708 0.351224 -0.418375 0.596345 -0.853111
thermal 0.166307 0.491494 -0.245481 0.225831 -0.070628 -0.865155 0.300127 -0.716365 -0.369222 0.336861 0.064505 -0.310160 0.895326 0.141715 -0.431318 -1.047246 -0.355260 -0.011124 1.084341 -0.476194 -0.112251 -0.633054 0.707259 0.086398 -0.678020 -1.579660 0.668810 0.517913 -1.225959 0.960949 0.561242 0.179274 0.320384 -0.546038 -0.586553 -0.504330 -1.021178 -0.380602 -0.282838 -0.950635 0.754381 0.493919 0.779665 -0.069151 -0.475979 1.464797 0.085967 1.195294 0.339395 -0.862264
incompressible 0.269722 0.006967 0.699232 -0.331195 0.786755 -0.061727 0.001395 -0.640920 0.127363 -0.913909 0.524805 -0.320230 0.443168 0.050582 0.918452 -0.399302 0.508818 0.150866 0.675722 0.388401 -0.265756 0.784242 -0.493837 0.210756 -0.810612 -0.593672 -0.301642 -0.118903 0.129203 -0.522344 -1.052425 1.292722 -0.511866 -0.587199 0.012197 0.056916 0.972314 -1.192905 0.477257 0.943891 0.465602 -1.005888 -1.103495 -0.517034 -0.175648 0.433967 -0.055769 -0.021767 0.162979 -0.240358
nozzle -0.157860 0.885298 0.249231 0.681786 -0.484379 -0.889559 -0.195361 1.045810 -0.017013 0.067672 0.489015 0.566415 0.695377 0.288349 0.383846 1.465735 -0.654742 0.123299 -0.243494 -0.439221 -0.164769 0.312169 -0.435089 -1.226528 0.712492 -0.508111 -0.434512 -0.580298 0.057459 -1.428383 -0.420942 0.855896 0.244190 -0.212618 -0.346998 0.172170 -0.102273 0.612011 -0.560470 -1.010606 0.494666 1.119321 -0.051300 0.042662 -0.195223 -0.241973 -1.066260 -0.499397 0.269240 0.679840
coefficient -0.656611 -0.177145 -0.425862 -0.025405 0.077489 0.041066 -0.389171 0.078492 0.218627 0.057304 -0.362314 -0.096559 1.169013 -0.452587 -1.011102 0.072614 -0.426538 -0.961659 -0.237973 1.024172 -0.223462 0.478888 -1.120165 -0.703862 -0.377054 -0.431472 0.911712 -0.323954 -1.007256 0.364521 0.152210 1.258465 0.255785 0.226706 -0.501739 -0.037013 -0.341300 -1.197889 -0.439771 0.945605 0.240603 -0.051575 0.491214 0.072657 -0.133506 0.147807 -0.734661 0.322904 0.632587 -0.523628
various 0.028433 -0.432518 0.478471 -0.895767 0.030759 0.486562 0.871378 -0.466650 -0.387582 -0.247703 0.921385 0.531045 0.381186 0.275564 0.155258 0.084410 -0.782668 0.502516 -0.109823 -0.289137 0.161163 0.414133 0.924492 -0.471702 -0.346491 -0.992796 -0.490783 -0.290396 -0.176928 1.198961 -0.421705 0.214171 0.439109 -0.187386 -0.588312 -0.401642 0.000774 0.345427 0.570194 0.512720 -0.671467 0.613455 0.311780 -0.836906 -0.737169 -0.194881 -0.519785 -0.193811 0.672302 -0.258830
section -0.649255 -0.042144 0.188875 -0.044060 -0.254448 -0.130013 -0.563217 1.091298 -0.760643 -0.143147 1.264524 -0.082525 0.900174 -0.252340 0.135764 0.471718 -0.426581 0.710352 0.576729 -0.565848 0.873974 0.461011 -0.733140 -0.988741 -1.171102 0.673466 -0.592300 -0.268511 -0.174211 -0.396028 -0.149786 0.418689 0.306646 -0.628531 -0.986746 -0.118046 0.513818 -0.344746 -0.043590 0.630105 0.056993 0.116781 -0.577931 0.515117 -0.241174 -0.209711 1.447535 0.093977 0.552870 0.171764
zero -0.204386 -0.105973 -0.294542 -1.110363 -0.398355 0.499489 -0.483100 0.536680 0.546204 -1.846386 0.844310 -0.161224 1.065385 -0.070801 -0.141901 0.006506 0.426860 -0.146380 0.198462 0.966320 -0.072774 0.396481 -0.821405 -0.447161 -0.001350 -0.730874 0.528846 0.127964 -0.730733 0.064634 0.085336 0.379130 0.205547 -0.899271 -0.285522 -0.517139 -0.761767 -0.463549 0.360822 -0.105266 0.155675 -0.156278 0.452810 -0.064952 -0.046531 -0.644111 -0.131516 -0.214483 1.257761 0.659774
developed -0.098866 0.019073 0.216398 0.134557 0.574277 0.017486 0.323116 -0.715131 -0.165150 0.546686 0.454595 -0.022182 0.316127 0.346542 1.094374 -0.304329 0.404009 -0.361251 0.112617 -0.024950 -0.008566 0.336166 0.348252 0.025104 -0.639330 0.211837 0.394314 0.396213 -1.149807 0.195898 -0.533910 1.009266 0.267478 -0.672044 -0.825002 -0.624374 -0.935279 -0.036190 -0.258813 0.601520 0.423056 0.781009 -0.128139 -0.036170 -0.154420 -0.100505 0.287853 0.037539 0.721470 0.028832
static -0.731994 0.801064 0.412641 -0.273464 0.663782 -0.010813 0.260682 -0.050609 0.159488 0.018571 0.897478 1.045483 1.479692 0.104827 -0.120557 -0.435110 -1.141044 -0.478961 -0.647452 -0.108237 -0.265827 1.367846 -0.611483 -1.038235 0.294894 0.176584 -1.234449 0.161606 0.659360 0.696480 -1.215358 -0.556032 -0.458961 0.377523 0.539801 -0.029063 -0.486964 -0.112450 0.530578 -0.529016 0.525636 0.951185 -0.334484 0.195783 -0.103333 -0.223181 -1.180310 0.065740 0.712930 0.906893
time -0.178306 -0.396491 -0.463858 -0.622100 0.849267 -0.796222 -1.035718 0.020133 -0.045773 -0.153721 1.051443 -0.436970 1.653326 -1.167843 0.305773 0.002453 -0.397319 0.285075 0.112435 -0.271771 -0.417335 -0.027446 -0.408555 1.682173 0.301017 -0.099027 -0.760894 -0.238199 -1.037945 0.834561 0.327873 0.681081 0.425577 -0.175424 -0.368006 -0.688163 -0.475365 -0.669119 -0.302824 0.086705 -0.667002 0.370635 0.156391 0.158289 0.192225 -0.072511 0.305626 0.474318 0.527084 0.547159
well 0.870030 -0.202260 -0.740657 -0.416470 0.891342 -0.279072 -0.086839 -0.256793 -0.190627 -0.504961 -0.616743 0.352600 0.063584 -0.245039 -0.253131 -0.333300 0.384971 -0.187409 -0.044210 0.719938 -0.617713 0.701345 0.108873 0.098895 -0.103113 0.120594 -0.587428 0.089292 -0.347269 0.135993 -0.330888 1.297571 0.855253 -0.070449 -1.129160 -0.197115 0.567870 -0.622805 -0.051020 0.555348 -0.040931 -0.189286 0.393077 -0.304860 -0.633564 0.244389 0.016993 1.080543 0.607080 0.292796
maximum -0.535202 1.294120 -0.038521 -0.022915 -0.143142 -0.074897 -0.536659 0.729781 -0.481322 -0.367308 0.277055 -0.159186 1.350036 -0.177656 -1.089846 0.430178 -0.314468 -0.897445 -1.440942 0.195155 -1.166278 -0.500593 -0.221551 0.109736 -0.006046 -0.321809 -0.010565 -0.426452 -1.097530 0.125573 0.480872 0.554679 0.773379 0.560699 -0.121822 -0.467273 -0.700439 -1.242778 -0.100129 0.645579 0.369419 -0.372038 -0.107879 -0.159606 0.265118 -0.156161 -0.067688 0.290924 0.477119 -0.304796
motion -0.251221 0.303324 -0.183191 -0.452805 0.289215 0.410992 -0.266602 -0.402997 -0.047561 -0.654607 0.509993 0.344619 0.102624 -0.599372 -0.262612 0.490490 0.429936 -0.256771 0.509731 0.201758 -0.834753 1.205092 0.223278 1.050618 -0.691084 -0.313089 -0.252370 -0.391583 0.579722 -0.219962 -0.813397 1.352118 -0.176218 -0.591752 0.520359 -0.571348 -0.103763 -0.345913 0.765896 0.364833 -0.734064 -0.942397 -1.191596 -1.268038 -0.398286 0.082917 0.056699 -0.909135 0.291451 -0.460298
test -0.382823 -0.385433 -0.423266 0.748483 0.772306 -0.264592 -0.193899 0.809450 -1.062391 0.138630 0.831306 0.667436 0.442398 0.029608 0.138349 0.639091 -0.983834 0.382924 -0.013050 -0.814166 0.037007 -0.079198 -0.024700 -0.966938 0.274317 -0.343771 -1.500334 -0.632644 -0.367143 0.262454 -0.237488 1.192407 0.355899 -0.786587 -0.352720 0.297921 -0.218709 -0.386416 0.375331 0.321894 0.214078 0.979601 -0.274414 -0.135744 0.040920 0.329703 0.517667 0.383940 0.002155 0.320374
cases 0.424896 0.333308 0.178475 -0.696542 -0.219890 -0.669257 0.176176 -0.440510 -0.103486 -1.344726 -0.338898 -0.591230 0.272864 -0.240993 0.271406 0.334135 -0.056177 -0.672759 0.379364 0.498185 -0.021348 0.521837 0.516271 -0.177905 -0.287135 -0.704814 -0.150980 0.220401 0.148890 0.470673 -0.026007 1.252379 0.581100 -0.217755 -0.174896 -0.464638 0.438119 -0.697789 0.304443 0.266429 -0.300521 -0.014913 0.066763 -0.224037 -0.102404 -1.091393 -0.731895 0.608993 0.213993 0.716379
angles -0.820808 -0.334345 0.717679 -0.568025 -0.565061 0.519766 -0.036256 0.607122 -1.075522 -1.171615 0.974475 0.363568 0.886517 0.679715 -0.616011 0.248680 0.604929 -0.613881 -1.266370 0.521032 0.194999 0.346780 0.309529 -0.939496 -0.307498 -0.335905 -0.386348 -0.143833 -0.055387 -0.076866 -0.013882 -0.966878 -0.020046 -0.645965 -0.885799 -0.823006 -0.351319 -0.444763 1.115702 -0.087474 -0.524743 0.633085 0.051092 0.115777 -0.120641 -0.192163 -0.605829 0.002678 1.355974 0.043663
normal -0.664140 0.243353 0.038566 -0.387447 -0.173635 0.234453 0.540696 0.051616 0.209249 0.214289 -0.224258 0.079369 1.522500 0.052972 -1.187742 0.805200 -0.946969 0.566954 -0.321099 -0.090403 0.373306 0.700515 0.590484 0.085213 -0.687359 -1.071224 -0.137690 0.175403 0.102683 0.015579 -1.432539 0.590480 -0.081687 0.203198 -0.861438 -0.000039 -0.959880 0.597859 -0.576483 0.722879 0.410280 -0.206603 0.027107 0.116646 -0.818655 -0.531172 -0.271333 -0.107760 1.088402 -0.472199
due 0.188016 -0.091330 -0.366477 -0.101156 -0.977625 0.062219 -0.036690 0.616410 0.154248 0.427867 0.292805 0.221638 0.946185 0.540896 -1.501567 -0.580188 -0.069660 -0.251358 0.695967 0.161860 -0.662979 -0.169903 0.193562 0.893737 -0.065288 -1.119500 -0.151926 0.689175 -0.485643 0.348739 -0.605806 0.793165 -0.218716 -0.247446 -0.389388 -0.702118 -0.522539 -1.104756 0.011102 0.693821 0.215395 -0.217324 -0.142155 -0.374124 -0.051277 -0.119941 0.007240 0.104414 0.748226 0.119085
uniform -0.291365 0.778053 0.518530 -0.090149 0.082730 -0.135211 0.086935 -0.204334 0.623300 -0.617534 0.093136 0.133565 1.197118 -0.765856 -0.036441 0.448453 -0.607472 0.298344 0.512423 -1.020666 0.517632 0.325388 -0.155821 0.313550 -1.830102 -1.155206 -0.977409 0.077997 0.191961 0.060605 -0.515523 0.759189 -0.436946 -0.307533 -0.340015 0.097648 0.417469 0.013541 0.248341 0.146678 0.918687 -0.611521 -0.251867 0.381897 -0.726139 -0.408290 0.945779 -0.090517 0.490067 0.482788
along -0.210218 -0.039199 -0.760079 -0.210463 0.090674 0.300885 -0.507164 0.008523 0.630667 -0.104717 0.652615 -0.381836 0.646478 -0.898786 0.038822 0.469143 -0.878456 0.786958 -0.229936 -0.578337 0.060224 0.418644 0.014510 -0.186602 -1.086973 -0.681279 -0.261147 -0.084492 0.065550 -0.671441 -0.695678 0.814538 1.034884 -0.440985 -0.919806 -0.246301 0.109873 0.833861 1.008874 0.545970 0.961642 -0.545917 -0.212878 0.140058 -0.241447 -0.529141 -0.588725 0.340837 -0.126512 0.134587
using -0.107191 -0.122045 -0.353862 0.148889 1.760043 0.447934 -0.148196 0.106506 -0.296437 0.624406 -0.535625 -0.166233 -0.138509 -0.967516 -0.014546 -0.711169 0.179098 0.668081 0.795278 -0.336695 0.223880 0.828956 -0.327139 -0.287630 -0.174542 0.203534 -0.087484 -0.228082 -0.581398 0.153868 -0.933017 1.248735 0.013691 -0.668167 -1.055885 0.310154 -0.457692 -0.326987 0.245587 -0.030052 0.151514 0.785667 -0.086061 0.076960 -0.392236 0.035163 -0.592173 -0.177066 0.239008 -0.433815
base -0.638344 0.780166 0.450471 0.718185 0.365531 0.165166 0.064808 1.276295 -0.171225 -0.151647 0.889162 0.580015 -0.436444 0.423467 -0.560382 0.088546 0.073421 -0.233733 0.488385 1.149889 -0.744213 0.483320 -1.298715 -1.162202 -0.085789 -0.678058 0.013234 -0.128389 -0.325425 -0.167916 0.241661 0.040172 -0.235225 -0.295472 -0.789377 0.257038 0.284176 -0.420081 0.551595 -0.551462 0.369189 0.242599 -0.235712 0.475805 -0.154648 -0.380458 -1.941032 0.662713 0.635897 0.282249
local -0.395090 0.235047 0.101716 -0.270571 0.666917 0.646841 0.515509 -0.969221 0.239007 0.409334 -0.108402 -0.314848 1.333985 0.146416 0.037783 -0.116691 -0.603489 -0.333932 -0.553386 0.459456 0.059786 1.055427 -0.422104 -0.603442 0.169593 -0.555130 0.691974 -0.330083 -0.785433 -0.278908 0.333337 -0.111807 0.520664 -0.364519 -0.877386 -0.363330 -0.269999 -0.772190 -0.005544 0.258502 0.725296 -0.483429 -0.660703 0.432876 -0.822973 0.934275 0.279219 1.068287 0.760450 -0.128351
friction 0.391002 0.071320 -0.968524 -0.751617 0.842832 0.562394 -0.172329 -0.609671 0.760957 0.219030 -0.380458 -0.312638 0.982148 -0.516302 -0.316056 -0.102416 -0.899474 -0.490022 0.239338 0.439958 -0.656136 0.990220 -1.130865 -1.168315 0.122615 -0.724694 1.070123 -0.783702 -0.410921 0.682316 0.125961 0.762431 -0.586849 -0.233904 -0.391284 0.322549 0.163566 -1.443005 0.511949 0.965180 0.512899 -0.594699 -0.602994 -0.033722 0.189364 0.809610 -0.006916 0.396056 0.141050 0.064983
derived 0.169941 -0.119326 0.284664 -0.530338 -0.346374 -0.150411 -0.020634 0.119433 -0.654594 0.120454 0.567964 -0.028983 0.751734 -0.640628 0.518031 -0.240170 -0.255328 -0.273664 -0.302112 0.308419 0.108495 0.222916 -0.378627 0.615322 -0.363315 -0.610010 0.184794 0.229865 -0.515091 0.105372 -0.892004 0.766775 0.019193 -0.764572 -0.227575 0.248043 -0.793079 0.504701 -0.349575 -0.119393 -0.556906 0.167973 -0.709829 -1.115181 -0.565542 -0.343003 -0.176474 -0.295398 0.828251 0.145613
terms 0.624800 -0.780473 0.198707 -1.090193 -0.871188 0.026461 -0.036837 -0.794368 -0.546817 0.368462 -0.221963 -0.598781 1.022582 -0.707320 0.247269 -0.518208 -0.665290 0.189098 -0.384939 0.251539 -0.399842 0.072632 -0.961096 1.031499 -0.096066 -0.224024 -0.302318 0.177264 -0.386682 -0.251385 -0.171863 1.483433 0.552748 -0.165939 -1.070902 0.525999 -0.159290 0.033505 -0.516482 0.176045 -0.458464 -0.264665 -0.322626 -0.295894 -1.281525 0.012026 0.089820 -0.205455 0.344439 0.399173
waves -0.606823 0.274323 -0.571127 -0.529734 -0.183603 0.143748 -0.093127 0.007790 -0.974833 -0.551812 -0.299583 -0.796102 -0.375487 0.108726 0.084752 0.373994 -0.516260 0.420167 0.124640 0.149138 0.247889 0.881297 2.054707 0.024880 0.257619 -0.402463 -0.358379 0.582507 -0.280761 0.328101 -1.092272 -0.091488 -0.706703 0.647448 -0.218038 0.394623 -0.085459 0.124905 -1.217566 0.298739 0.795497 -0.055567 -0.435438 0.240636 -0.520559 -0.720791 -0.231793 0.666290 1.139076 -0.217709
steady -0.226619 0.504994 0.348705 -0.406934 0.968322 0.251843 -0.253412 -0.461218 -0.375987 -0.929560 0.793300 0.074907 0.987722 0.125539 0.999060 -0.640008 1.304555 0.620439 0.821157 0.335186 -0.447720 0.402471 0.898573 1.033333 0.582658 -0.823232 -0.949876 0.032587 0.116347 0.047488 -0.727393 0.755674 -0.453876 -0.385447 -0.236851 -0.732521 0.371060 -0.705634 -0.378997 0.232339 -0.090384 -0.538046 -0.967742 -1.200571 -0.215981 0.444357 -0.144703 0.225033 -0.401674 -0.230459
past -0.008809 -0.194064 0.838983 -0.256580 -0.167181 0.402109 -0.251811 -1.030778 0.396710 -0.915358 0.291187 0.452817 0.234444 -0.062031 0.936043 1.349811 1.489166 0.263041 0.498294 1.314939 0.285203 0.867863 -0.022371 -0.239727 -0.431661 -0.313560 0.076338 0.566909 -0.493657 -1.071670 -0.988087 0.399215 -0.563820 -0.189231 -0.647670 0.245116 0.988469 -0.567835 0.691881 -0.158330 0.992539 -1.571241 -0.849661 0.259932 -0.839626 -0.414930 0.625533 0.108472 0.419982 -0.539054
equilibrium -0.820744 0.439402 1.599846 -0.391901 0.828401 -0.269435 0.546853 -0.880625 -0.084558 -0.315974 0.072434 0.296224 0.388144 0.420006 0.187615 0.614969 -0.957493 0.715332 -0.119539 -0.646364 -0.043881 0.164004 0.631578 0.555788 0.867728 -1.053346 0.916797 0.315839 0.120635 -0.333940 -1.023608 0.480544 -0.049378 -0.315860 0.355316 0.048012 -0.793488 -0.301029 -0.483258 -1.541050 -1.379457 0.067723 0.285988 0.138562 -0.767645 -0.124430 -0.812420 0.267315 0.021443 0.920327
applied 0.357271 -0.044616 -0.060600 0.159270 0.263739 0.110799 0.309959 -0.663349 -0.013874 0.058830 0.170464 -0.131309 0.470540 0.226005 0.214718 -0.097075 0.390289 -0.282244 0.187218 0.567970 -0.167273 0.467122 0.384517 -0.011370 -0.271600 -0.454322 0.169958 0.845608 -0.273015 0.132162 -0.615239 0.803875 0.460188 -0.463389 -0.880046 -0.331271 0.070319 -0.022253 0.008748 0.647513 0.187180 0.452893 -0.461079 -0.987881 -0.002370 -0.595505 0.380874 0.548769 -0.052910 -0.067281
interaction -0.949568 0.072173 -0.761358 0.310048 0.144293 0.286126 -0.180430 0.275209 0.044549 0.180472 -0.113610 -0.196841 -0.143293 0.857435 0.135857 0.318304 -0.095871 0.350960 0.708767 0.201511 -0.824036 0.436229 0.770899 -0.623868 0.174609 -1.736183 0.238526 0.234901 0.717500 -0.101223 -0.724865 0.087084 -0.424317 0.763596 -0.376728 0.578628 0.397998 -0.711803 -1.020310 0.266625 0.539730 -0.506591 -0.546350 -0.166718 -1.013988 -0.300176 -0.101234 1.409726 1.477567 0.027771
length -0.522164 -0.391349 0.674385 0.577442 -0.034185 1.100150 0.964652 -0.026944 -0.406596 -0.566446 0.484434 -0.713598 0.518941 -1.128076 0.255783 0.208844 -1.380496 0.280658 0.508846 0.191243 -1.373151 -0.789288 -0.485943 -0.488052 -0.675158 -0.665268 -0.533505 -0.513166 -0.943226 -0.222083 0.219427 0.370463 0.124526 0.896210 -0.987461 0.415244 0.587313 -0.798591 0.991774 0.835147 0.749913 -0.130937 0.589758 0.956750 0.573430 -0.424323 -0.315665 -0.191762 0.207547 -0.658893
plates 0.599682 0.728225 -0.365379 0.438367 -0.300832 -0.264956 0.785098 -0.644871 0.738656 -0.470387 -0.313932 0.985314 1.335025 0.054888 0.983686 0.202690 0.373913 -0.182084 0.308378 -0.684472 -0.073286 -0.200780 0.387475 0.720851 -0.802395 -1.021612 -0.139262 0.368496 0.928973 0.139277 0.333387 0.163846 0.131893 -0.787933 -0.704274 0.430091 0.714261 1.329296 1.636815 -0.118552 0.185668 0.058037 -0.289552 -0.689429 0.041690 -0.536066 0.270253 -0.034466 0.657998 -0.078053
second 0.394508 -1.087820 -0.153439 -0.156059 -0.478508 1.355677 -1.322503 -0.012922 0.746881 -0.323941 -0.706925 0.038943 0.357219 0.378189 0.314962 0.134536 0.674041 0.040474 0.367117 0.167434 -0.452993 0.119368 -0.184080 0.149500 0.314309 0.067031 0.266753 -0.311604 -1.331566 0.044626 -0.681411 0.664483 -0.349579 -0.111983 -1.639921 -0.555342 -0.522054 -0.386272 -0.417783 0.047602 0.074199 0.673756 0.423784 0.417919 -1.271136 -0.196533 -0.056775 -0.068477 1.055750 0.227675
revolution 0.212487 0.095148 0.772857 -0.267525 -0.508319 0.512698 -0.220004 0.113571 0.443673 -0.716321 1.061640 0.186126 -0.670118 0.642470 0.077339 0.826306 0.588562 0.714099 0.762269 1.226183 0.156322 0.825772 0.302323 0.073609 0.127741 -0.207492 0.527951 -0.110785 -1.667911 -0.478867 -0.698022 0.705119 -0.394262 -1.293523 -0.707439 -0.819455 -0.669986 0.197666 0.555885 -0.012564 0.474273 0.137167 0.412394 0.064854 -0.707992 -0.596606 0.118899 0.230013 0.570637 -0.443802
several 0.458902 -0.180327 0.596526 -0.714418 -0.406860 0.974736 0.730798 0.435540 0.161326 -0.340307 0.630011 0.003456 0.034770 -0.136826 0.847103 -0.168431 0.104603 0.285325 0.596375 -0.442481 0.702847 0.154042 0.717454 -0.584848 -0.285202 -0.210830 -0.480180 0.715964 0.181122 0.888933 -0.173262 1.691373 0.454147 -0.259581 -0.180041 -0.153388 0.198381 0.052190 0.630784 -0.301834 0.023703 0.624059 0.694142 -0.096556 -0.261505 -0.233070 -0.777290 0.454547 0.327750 -0.327561
determined -0.427138 -0.343964 0.201295 -0.083201 -0.108270 0.023659 0.699939 -0.326689 -0.571897 -0.227291 0.242510 0.156697 0.525684 -0.179434 -0.262585 -0.217987 -1.161393 -0.219925 0.022686 -0.253462 -0.079474 0.183870 0.167541 0.144525 -0.202062 -0.199561 -0.418528 -0.114677 -0.158126 -0.714005 -0.129725 1.070013 0.693753 0.151591 -0.946315 0.069091 0.051587 -0.703634 -0.197948 0.726337 0.333506 0.076804 0.202549 -0.550910 -0.613890 0.109048 -0.546996 0.534383 0.410747 -0.406720
x -1.802362 -1.220066 -0.407258 0.198202 0.334932 0.615405 -0.901344 -0.479415 -0.335055 0.179319 0.660649 -0.090300 1.213101 -0.899749 -0.105151 0.781241 -0.324100 0.271165 -0.223122 0.179794 -0.997901 0.707219 -0.452933 -0.644093 -0.035101 -0.120613 -0.533643 -1.134913 0.288126 -0.619856 0.129227 0.588243 0.978768 0.270775 0.017233 -0.191455 -0.744422 -0.256350 0.217588 0.536141 0.926855 0.771190 -0.489972 0.706276 -0.980449 0.563876 0.584039 -0.745057 0.357653 -0.297766
properties -0.059758 -0.765566 0.821788 -0.196918 1.207411 -1.403218 -0.081939 -0.793979 -0.051918 0.054995 0.906730 0.510245 -0.192070 0.073082 0.386264 -0.123114 -0.743177 -0.134441 -0.348220 -0.047104 0.315017 0.391172 0.113680 -0.065859 -0.411636 -0.803789 0.424227 0.519624 -0.453760 0.650661 -1.695107 0.881180 -0.093435 -0.076047 -0.132989 -0.596617 -0.732841 0.079169 -0.112626 -0.411410 -0.197500 0.364496 0.250523 0.703132 -0.296813 0.904974 -0.931447 0.666477 -0.278063 -0.610667
transonic -0.312132 -0.312633 -0.023682 -0.118491 0.591485 -0.305722 -0.668308 -0.463873 -0.863829 -0.093427 1.424392 0.459408 -0.434866 0.370754 0.550995 0.217543 0.293825 0.785843 0.999344 -0.168230 0.292879 -0.042479 0.296849 -1.659888 0.663287 0.464287 -1.112525 0.238706 0.148459 -0.603206 -0.374050 -0.028934 -0.981946 -0.716041 -1.106866 0.360491 -0.242614 -0.884770 0.107012 0.347972 -0.277595 0.199192 -1.155748 -0.444956 -0.882701 0.418616 -0.607784 -0.542232 0.674312 -0.572249
near 0.375918 0.285706 0.151867 0.066411 0.165381 0.048916 -1.309956 0.771486 -0.010627 0.436250 0.166451 -0.794496 0.378057 0.271296 -0.213589 -0.020021 0.329131 0.138232 -0.282708 0.384222 -0.073849 0.490363 0.353372 -0.536837 0.186933 -0.927850 -0.230793 0.381706 0.246084 -0.495405 -0.119165 0.012875 1.044034 -0.820191 -0.528127 -0.598503 0.028121 -0.035044 0.464610 -0.400442 0.337624 -0.596740 -0.387730 0.487439 -0.338182 -1.002938 -1.387479 0.288844 0.530613 0.418648
bending -0.259794 0.033394 -0.321339 0.024209 -0.528960 0.281698 0.826011 -0.791084 -0.525426 -0.217871 -0.079146 1.111263 2.088303 -0.374310 -0.204603 -0.182172 0.667011 -0.640294 -0.315777 -0.077056 -0.318238 -1.444810 0.008335 0.894856 -1.283750 -0.895572 -0.649449 0.993968 0.162579 1.023293 -0.762050 0.257379 -0.621047 -0.156181 -0.577592 0.331083 -0.029800 0.219503 0.030939 -0.008529 0.329783 -0.051166 0.761299 0.122334 0.071335 -1.156564 1.128976 0.179541 0.165831 0.298088
calculation 1.035619 0.088392 0.555448 -0.849058 -0.069830 0.715425 -0.358676 -0.431244 0.418792 0.067713 0.203054 0.336220 0.247585 -0.084340 0.404904 -0.241997 0.685123 0.161401 0.188252 0.220716 0.543235 0.891280 0.260325 -0.365624 -0.212805 -0.019584 0.265029 0.904251 -0.934216 0.206499 -0.677440 0.811890 -0.446989 -0.163439 -0.582775 -0.838896 0.009041 -0.615828 -0.440854 0.666777 0.138617 0.379481 0.231241 -1.019816 0.176637 0.210692 -0.382562 0.404323 0.426373 0.730309
pressures -0.801023 0.496461 -0.257067 -0.208830 0.162423 0.188550 0.359251 0.741484 0.029654 0.074520 0.766589 0.082085 0.503885 0.689206 -0.284865 -0.273749 -0.250007 0.251455 -0.696437 0.860824 -0.764237 1.014110 -0.133669 -1.070891 0.533134 0.243644 -0.508790 -0.374987 0.368878 0.127320 -1.011274 -0.412153 0.439642 -1.298247 -0.810459 -0.814862 -0.371381 0.321141 0.412695 -0.607772 -0.229794 -0.331543 0.507488 0.070540 -0.414673 0.029141 -1.275178 0.537224 0.805828 0.469103
aircraft -0.042344 1.052997 -0.226678 -0.462797 -0.229777 1.342405 -0.086709 0.732014 -0.398343 0.935871 0.445654 0.175598 -0.688101 1.059105 -0.131903 -0.354627 0.361538 -0.061174 0.602699 -0.971209 -0.510045 -0.323988 0.852510 0.349956 -0.369650 0.174376 -0.820939 0.035196 -0.258319 2.037646 0.173981 0.125207 0.572409 -0.434110 -0.950122 -0.617464 -0.612682 0.497670 0.151920 -0.363347 0.700829 -0.423854 -0.507300 0.128096 -0.341354 -0.021587 -0.257829 0.388175 -0.850680 -0.798938
layers 0.447740 -0.227805 -0.727969 -0.370453 0.562655 -0.173364 -1.344840 -0.310422 0.390734 -0.609645 0.942191 -0.296628 -0.493330 -0.139929 0.437971 0.395014 -0.254291 0.428554 1.085214 -0.136998 -0.300218 0.279124 1.202771 -0.585340 -0.319247 -0.737410 0.094137 -0.369419 -0.498987 0.029065 -0.606604 0.541156 -0.280649 -0.468138 0.069694 -0.259574 0.955100 -0.638675 0.227305 1.125745 0.789520 0.175733 -0.447479 0.613737 -0.001163 0.955895 -0.056910 0.991676 0.261681 0.771682
plane 0.072341 0.255506 0.161557 -0.108936 -0.353709 0.411004 -0.186928 0.240852 -0.176307 -0.009008 0.317238 0.113576 1.074915 -0.891181 -0.323896 0.987694 0.170694 0.176206 1.232757 -0.131758 -0.220706 0.429219 0.979140 0.360448 -0.374080 -1.052842 0.066667 0.421126 0.202626 -0.657817 -1.122563 0.435452 0.631779 0.244314 -0.439922 -0.358574 0.880417 0.195254 -0.269018 0.773328 0.362472 1.096138 -0.691081 0.772527 -0.509212 -0.577028 0.230220 -0.716659 -0.051886 -0.464224
rate 0.590024 0.411708 0.478330 -0.659575 -0.017803 0.735570 0.174365 0.095035 0.144698 0.132116 -0.346079 -0.283027 1.089965 0.301038 -0.047856 0.089513 -1.412743 -0.333953 -0.757671 -0.492938 -0.833880 -0.053270 -1.005006 0.635387 0.333414 -0.613292 0.974828 -0.058450 -0.671681 -0.428458 -0.049611 1.014609 0.396042 0.016095 0.024076 -0.312989 -0.156845 -0.991682 -0.027107 -0.965604 -0.756827 -0.129322 -0.147547 0.263057 0.463733 0.447272 -0.004607 0.686725 0.490574 -0.279276
heating -0.131069 1.375680 0.505371 -0.732650 -0.638570 0.509236 -0.618378 0.549130 -0.376882 0.239474 -0.482149 0.244127 0.143564 0.144122 -0.110568 0.185232 -0.033245 -0.529287 -0.736896 -1.071943 -0.775760 0.089332 0.246790 0.152566 -0.596723 -0.625297 0.895389 -0.436425 0.222687 0.595180 -0.062632 0.909977 0.237090 -0.012452 -0.149434 -1.169763 -0.552316 -1.469335 1.025653 -0.544777 -0.219894 -0.546984 0.043986 -0.016881 0.499251 0.678547 0.563045 1.084786 0.514222 -0.011090
ratios 0.369341 0.203432 0.901935 0.019875 -0.550869 -0.561652 -0.297285 0.129076 0.235723 -0.760173 0.868216 0.403407 0.777589 -0.877505 -0.663735 0.299278 -0.717290 0.020908 0.062222 0.071404 -0.929318 0.034608 -0.188412 -1.550721 0.351937 -0.194473 -1.022434 -1.224448 -0.752463 0.653398 0.388728 -0.368379 0.892282 0.495982 -0.687581 -0.166751 -0.275760 -0.726209 1.091139 -0.325404 0.300368 0.570377 0.387673 -0.152025 0.487051 -0.240970 -0.715829 -0.011295 0.171962 -0.336192
similar -0.187524 -0.237011 -0.874300 -0.746341 0.368545 0.547377 0.104367 -0.213804 -0.076689 -1.066139 0.735747 -0.320143 -0.746087 -0.070816 0.637656 0.092816 0.158233 -0.044204 0.428007 -0.451065 -0.005732 0.314959 0.328498 -0.076090 -1.094887 -0.243887 -0.579190 -0.131403 -0.935188 0.583290 0.011570 0.705280 0.893543 -1.151612 -0.320937 -0.387330 0.690280 -0.384201 -0.279966 -0.130752 0.025243 -0.272477 -0.501240 -0.203525 -0.067633 0.602021 0.168417 0.251701 0.490090 0.415324
measured -0.647893 -0.449859 -0.799790 -0.704842 0.986644 0.764030 0.250972 0.376530 -0.299389 -0.611223 0.223983 -0.216587 1.674233 -0.436136 -0.972863 -0.228246 -0.391856 0.027365 -0.365514 -0.099507 0.331815 0.854590 0.046917 -0.803972 -0.176308 0.594556 -0.437489 -0.783760 0.667318 -0.179686 0.070586 0.407886 0.267563 -0.584724 -1.169935 -0.112280 -0.209382 -0.322311 0.496253 0.329901 -0.090000 -0.308813 0.153525 0.011926 -0.481586 0.506287 -0.508281 0.217081 0.684397 0.138422
calculations 0.032235 0.087543 0.373027 -0.322770 0.683554 0.398012 0.131115 -0.391349 -0.423982 -0.285687 -0.172685 0.335607 -0.389758 -0.793673 0.142175 -0.603560 0.097615 0.055565 0.515284 0.099377 -0.100601 0.619427 -0.073339 -1.033222 -0.045202 0.111231 -0.022064 0.051633 -0.693123 0.536908 -0.676386 0.821657 0.150854 -0.064769 -0.529892 0.215551 -0.240599 -0.488208 0.137202 -0.349824 -0.133631 -0.240211 0.547004 -0.602457 -0.386356 -0.253408 -0.039888 0.472489 0.725910 0.713646
influence 0.294656 -0.553416 0.270225 -0.394989 -0.612586 -0.951013 -0.645035 0.442903 0.311262 0.818154 0.925056 0.301194 1.036423 0.890996 -0.202276 0.002717 -0.434034 -0.590402 0.123605 -0.690885 -0.656783 0.473915 0.080367 -0.308820 -0.433816 -0.421910 -0.013157 0.274735 0.271587 -0.224070 0.251155 0.843852 0.062398 0.675530 -1.379402 0.066952 0.008484 -0.897965 -0.534804 0.262363 -0.180753 -0.465667 -0.179650 -0.608856 -0.403104 0.273256 -0.077288 0.373649 0.864154 0.047513
airfoil -0.468283 0.800461 0.445675 -0.099860 -0.674912 -0.565889 -0.314387 0.433212 -0.939908 -0.256680 0.854959 -0.071069 1.082724 -0.211495 -0.122651 0.347944 0.780490 0.100629 0.146937 0.433926 0.985420 0.250176 -0.109858 -0.684705 -0.557993 0.204776 -0.900576 0.530359 -0.834503 -0.726446 -0.060988 -0.119621 0.084798 0.097236 -0.898310 0.000183 0.540247 -0.759555 -0.626182 0.992584 0.598870 -0.750130 -0.984562 0.505777 -0.578966 0.127691 0.258397 -0.434847 0.789954 0.035203
good 0.906570 -0.777461 -0.311591 0.346290 0.756325 0.023937 -0.676961 0.422533 -0.704670 -1.407079 -0.497057 0.359969 0.396772 -0.572692 -0.280346 -0.147204 -0.244434 -1.216818 -0.546695 1.002685 0.360878 0.208716 0.662213 -0.499735 -0.042034 0.292315 -0.183119 0.251831 -0.632572 0.031263 -0.440973 0.753164 0.554725 -1.437495 -0.699884 0.973544 0.010898 -0.397373 0.417962 0.473033 -0.245260 -0.422917 0.258536 -0.428930 -0.509988 -0.117930 -0.091467 0.884322 1.157945 0.271092
tube 0.225440 0.037818 0.648170 -0.342567 1.228312 -0.373888 -0.528492 -0.737825 -0.175907 0.169635 0.173791 0.758075 0.387868 -0.317695 -0.044713 0.179096 -1.948972 -0.059963 -0.147837 -0.006874 0.428117 1.649381 0.541428 -0.592714 0.348496 0.665045 -0.775605 -0.051803 0.142715 0.090165 -1.128749 -1.168916 -0.278864 0.218218 0.681010 0.192924 -0.413945 -0.128878 -0.246915 -0.505479 0.882259 -0.158326 -0.482216 0.643325 -0.584198 -0.398186 0.217345 0.765606 0.657478 -0.072251
load -0.153958 0.817886 -0.007962 -0.133395 0.126164 -0.668523 0.312786 -0.964246 0.186896 -0.027886 -0.059254 -0.114192 1.317082 -0.951335 -0.764537 -0.744877 0.166061 0.226933 -0.118941 0.239818 0.570848 -0.375271 -0.256686 0.975656 -0.422370 -0.462769 -1.082295 0.255977 -0.627463 0.588681 0.528528 -0.146245 0.760588 0.243923 -1.170672 -0.996416 -0.436959 0.101036 -0.200511 0.692260 0.551728 -0.095113 0.615462 -0.695618 -0.251362 -0.393142 0.262877 0.489570 0.266109 0.916249
differential -0.795640 0.104188 0.547341 -0.413498 -0.983129 0.360959 0.670935 -0.607401 -0.007149 -0.762681 -0.653338 -0.908555 0.107637 -0.323255 0.087224 -1.353605 -0.139407 0.585187 0.825200 -0.234012 -0.825681 -0.444827 -1.391532 0.607178 -0.197050 -1.163245 0.326618 -0.323499 -0.340467 -0.315950 -0.756351 0.383096 -0.115096 -0.693422 -0.502589 -0.159038 -0.428497 -0.227367 -0.008746 -0.215353 -1.180978 1.284657 -0.120834 -1.163246 -1.055259 0.329699 -1.164109 -0.272371 1.030167 0.165093
part 0.105342 -0.637342 0.434052 0.552011 -0.147320 0.746794 -1.345807 0.200736 0.125501 0.043316 0.258110 -0.624263 -0.100143 0.143979 0.658313 0.481817 -0.396628 -0.743765 0.866409 -0.487422 -0.867233 0.163321 -0.384547 0.098487 -0.568728 0.691983 -0.328021 0.006207 0.225221 1.016329 0.341371 0.690024 -1.122630 0.196526 -1.399354 0.406799 -0.392112 -0.420906 -0.843114 -0.374018 -0.273426 0.655544 -0.745952 -0.382703 -0.917409 -0.525585 0.120680 0.201011 -0.091244 -0.125078
investigated -0.435869 0.201126 -0.372513 -0.186766 0.467103 0.323436 0.021160 -0.283218 -0.425373 -0.638416 -0.022975 0.098753 0.296017 -0.205387 0.369043 0.001152 -0.090129 -0.387797 0.173393 0.086413 -0.208732 0.414974 0.075266 -0.135678 0.052361 -0.100889 -0.534386 0.106168 0.201792 -0.207678 -0.365971 1.048805 -0.211681 -0.021189 -0.379687 0.190568 -0.095447 -0.399897 0.519067 0.037429 0.683814 0.797304 0.221276 0.340362 -0.462438 -0.668258 -0.478196 0.630689 0.817273 0.201493
note -0.226558 0.487922 -0.090721 0.183365 0.884109 -0.896320 -0.767539 -0.063020 -0.593876 0.426339 0.191162 0.085097 0.504468 -0.011501 1.947941 0.152245 0.373937 0.330683 0.010948 0.528518 -0.336810 0.370706 0.351401 0.475762 0.518588 -0.414103 -0.500324 -0.008981 0.220263 0.490805 0.514265 0.004325 -0.199698 0.162480 -0.370187 -0.093786 -0.000709 0.195513 -0.521646 0.232778 -0.110007 0.229568 0.499915 -1.030316 -0.137696 -0.302516 1.100004 1.269433 1.586435 0.604196
forces 0.204296 0.161639 0.378053 -0.916473 -0.083238 0.026980 0.778687 0.338218 -0.190813 0.639662 0.735149 1.301994 1.032575 -0.018244 -0.515495 -0.418642 0.949270 0.051293 0.705492 0.044340 -0.405083 -0.141720 -0.174091 0.337951 -0.967172 -0.357687 0.919845 0.637020 -0.487157 0.981834 -1.466284 0.491585 -0.442316 -0.046192 -0.723375 -0.964362 -0.844824 -0.273242 0.154523 0.411675 -0.476790 -0.715564 -0.306138 -0.048103 -0.556573 -0.331729 0.146024 -0.466132 -0.079289 -0.496363
