flow 0.731107 -0.012392 -0.734770 0.676771 1.576491 -1.411700 -0.799344 -0.064266 -0.560545 0.168759 1.571456 -0.507110 -0.526295 -0.404705 0.242389 -0.497420 0.771951 0.301535 -1.996450 0.838136 -1.281123 0.578624 0.678230 0.212517 0.932093 -0.122546 0.113739 0.058077 1.260652 0.742133 -0.684595 0.723504 -1.101836 -0.238328 -0.623000 0.266658 -0.172451 -0.522259 -0.402829 0.108760 0.282630 -0.694229 0.999523 0.807056 0.899212 -1.318875 0.826970 0.885811 -1.152660 0.001953
boundary -0.482941 0.147014 -0.224641 1.827311 0.677801 -0.036405 -0.658221 0.111574 -0.413943 0.098930 1.742916 0.183040 -0.610441 -1.014476 0.245071 -0.512285 -0.238308 -0.736656 -1.022055 1.001380 -0.442568 0.759997 0.319709 -0.057815 -0.012931 -0.880378 0.262392 -0.325860 1.104247 0.552725 -1.453426 1.106038 -0.190176 0.664930 0.161373 -1.015762 0.407039 0.006540 -1.282352 0.220592 0.442846 -0.183133 -0.421040 -0.034275 0.770839 0.141586 -0.703471 0.913251 0.031239 -0.415010
pressure 0.399240 1.331814 1.126338 1.367341 0.438200 -1.488851 -0.083210 -0.066649 0.382762 -1.055646 0.901988 -1.026269 -0.391238 -0.896082 1.320584 0.390661 -0.001744 0.152235 -0.993616 0.548522 -0.520796 -1.344666 0.090306 0.282562 0.423114 -0.082331 -0.522394 0.287288 0.224505 0.191316 -0.681520 1.036304 -1.002853 -0.350444 -0.971481 -1.370422 0.415745 1.170575 0.069667 0.123736 -0.353130 1.133832 0.378601 0.439047 0.995830 -1.258910 -0.546650 0.783819 -0.857183 -0.345630
layer -0.518262 0.163347 -0.202304 1.799995 0.782366 -0.082081 -0.661630 0.169817 -0.040674 0.208858 1.985850 0.041851 -0.418983 -1.216074 0.300464 -0.602395 -0.177613 -0.604737 -1.457731 0.539134 -0.072008 0.703352 0.793455 -0.301832 0.116500 -0.754657 0.091348 -0.569543 1.434875 0.614693 -1.654574 1.228359 -0.267170 0.407321 0.128260 -1.120357 0.057967 0.407748 -1.151699 0.354780 0.315012 -0.399886 -0.233387 -0.066887 0.853024 0.087299 -0.483039 1.053784 0.109577 -0.580252
number 0.107158 0.136305 -0.276137 1.282229 0.405012 -0.897108 -0.072270 -0.248404 0.375709 -1.005891 0.916961 -1.307264 -0.569853 0.038368 1.612123 0.319727 0.221416 0.229620 -1.594662 1.147230 0.621677 -0.156155 0.502874 -0.503312 -0.336415 0.571509 0.488196 -0.311191 -0.288676 0.743777 -0.874948 1.278613 -1.010564 -1.030160 -0.753346 0.147218 -0.007069 -0.916841 -0.373162 -0.001441 0.407650 0.310805 0.399070 -0.303857 0.028476 -0.084834 -0.357214 0.250836 0.528226 -0.443406
mach 0.059357 1.221086 -0.189328 1.332998 0.425569 -0.566083 -0.140783 -0.579367 0.495495 -1.117502 0.519423 -1.138252 -0.687283 0.253748 2.182027 0.299765 0.796531 0.511961 -1.897143 1.624779 0.589944 0.006802 0.454078 -0.412290 -0.101842 0.615126 0.425737 0.089832 -0.775439 0.438334 -0.676734 0.371713 -1.085715 -0.804423 -0.651894 0.254030 0.343881 -0.956367 -0.794357 0.342861 0.646625 0.233641 0.206314 -0.330162 0.290102 -0.083207 -0.175782 0.649821 0.635407 -0.739680
results 0.511570 0.229989 0.528827 0.706156 -0.086129 -0.791935 -1.768722 0.209488 1.033578 -0.532369 0.237329 0.139510 -0.428520 0.298573 0.274178 0.738889 0.944800 -0.202171 -0.216498 0.988740 0.031904 0.214745 0.018861 0.291167 -0.310304 0.393748 1.546456 0.863958 0.163067 0.682640 -1.129262 0.847659 -1.170422 0.381254 -0.505494 0.140966 0.192771 -0.586067 -1.017938 0.495638 -0.523779 0.368020 1.163935 -0.404680 0.496589 -0.447868 -0.483555 0.550812 -0.751509 -0.283674
theory -0.158292 0.966955 0.186230 0.090176 0.093109 -0.263886 -0.926322 -0.012240 -0.551445 0.050936 -0.518994 -0.600665 -0.740551 -0.732363 -0.180260 0.436840 0.174144 0.483380 -0.851579 0.309729 -0.648027 -0.103130 0.381567 -0.704269 1.054544 -0.636253 0.049144 1.252902 1.467955 0.227937 -1.650807 0.026445 -1.099076 -0.994168 -0.528181 -0.000023 0.584940 -0.945998 -0.509943 -0.435568 -0.484920 0.021285 1.269802 -0.259957 0.753638 -0.523955 -1.757097 0.011830 -1.408612 -0.205076
shock -0.886773 1.358673 -0.506224 0.857411 1.465306 -1.131635 0.100792 0.130905 0.333002 -0.383666 0.952752 -0.427665 -0.444157 -0.135189 -0.678652 0.440866 1.087401 0.156606 -1.143149 0.391605 -0.165276 -1.171341 -0.148611 -0.245330 0.593344 0.547979 0.388360 0.008015 0.557668 0.088725 0.156808 1.043699 0.128038 -0.259545 -0.409070 -0.931086 -0.022673 -0.334770 -1.446089 2.030549 -0.507731 -0.331774 0.745336 -0.477074 0.256643 0.640332 -0.075243 1.938618 -0.651727 -0.464210
heat -0.088356 -0.036807 -0.472168 0.452837 1.181135 0.761259 -1.162438 0.342343 0.768889 -1.082975 1.770782 -0.060113 -0.456249 -0.328083 0.754977 0.080391 -0.444987 0.597801 -0.651694 -0.105338 -0.191048 -0.094382 -0.742968 -1.018753 -0.599663 -1.170051 -0.047985 0.315426 0.065384 1.384195 -0.942288 1.548819 0.329570 0.196993 -0.133826 -0.323529 -0.131531 -0.888976 0.587327 -1.061951 0.734038 1.077710 0.830839 0.613946 0.150269 -0.012642 0.615179 1.489527 -1.100349 -0.599550
method -0.180305 0.459615 -0.376446 0.595746 0.029600 -0.600603 -0.520267 -0.074835 -0.474194 -0.555361 0.533416 -0.085248 -0.086203 -0.597335 0.847844 -0.056234 -0.096693 -0.202244 -0.807444 0.390240 -0.351955 -0.366937 -0.373892 0.651913 0.363608 -1.984434 0.868107 1.270336 0.324031 0.745677 -1.326596 1.261258 -0.679005 -0.699551 0.655385 0.787653 -0.273309 -0.445175 -1.176750 1.366035 0.142412 0.831961 1.070373 0.378679 -0.282484 -0.620536 -0.798405 -0.905369 -0.946091 -0.577112
two -0.320195 0.302185 0.168465 0.768055 0.752868 0.389276 -0.525345 -0.180527 -0.692398 -0.367757 0.747637 -0.012262 -0.207143 -0.334504 0.508365 0.234553 -0.305043 -0.042902 -0.152006 1.748698 -0.565993 -0.322576 0.740921 0.254358 -0.146118 0.469821 0.856987 1.507559 0.674269 1.045270 -0.657497 0.634773 -0.791465 -0.045257 -0.600074 -0.924293 1.061653 -0.866155 -0.752971 -0.352892 0.015311 -0.150503 -0.320683 1.270312 -0.731350 -0.404181 -0.378720 -0.165683 -0.783356 0.570980
wing 0.306134 1.054250 0.112699 -0.005586 0.108318 -0.230584 0.080486 0.552944 -0.245156 0.994064 -0.408434 -0.643569 -0.555575 1.396569 2.010971 -0.217374 1.314177 -0.421911 -0.644389 0.942208 -1.121349 0.385982 0.144484 0.220453 -0.395121 -0.006601 -0.263472 1.434307 1.362624 -0.686285 0.139850 0.485882 -0.807016 -1.133883 -0.050525 -0.857055 0.632631 -0.709087 -0.704270 0.209494 0.368033 1.620787 0.367556 -0.713719 -0.370753 -0.164661 0.580032 -0.475692 -0.566599 -0.292496
supersonic 0.297857 0.971756 -0.328083 1.689575 0.758060 0.217971 -0.461985 0.174724 -1.183100 -0.792909 0.730379 -0.432338 -0.174230 -0.664242 0.742934 -0.241754 1.257447 0.578995 -1.491859 0.180412 -1.274581 0.537263 0.559836 0.791079 0.713212 -0.420169 -0.312251 1.524168 -0.246349 0.146194 -0.345142 -0.476088 -1.644284 -0.312474 -0.153357 -0.078747 0.964515 -0.757225 0.381804 0.777067 0.210089 0.276009 -0.096676 -0.869005 -0.482058 -0.808223 0.023517 0.227420 -0.250999 0.332496
surface -0.993327 0.824637 -0.023676 1.138414 0.551030 -0.198674 -0.828967 -0.930313 -0.524620 0.316006 1.001739 -0.568286 -1.367671 0.022391 0.729546 -0.639052 0.936015 0.048011 -0.422967 0.135130 0.097025 -0.131999 -0.112009 -0.209702 -0.878076 -1.222002 -0.039406 0.326037 0.529112 0.608566 -1.434935 -0.224908 -0.932995 -0.171492 -0.207658 -1.366087 -0.153211 0.887422 -0.903979 -0.693703 0.736871 -0.022097 1.402625 0.103089 -0.299798 0.115550 0.590611 1.274528 -0.327297 0.415030
body -0.394247 1.044057 -0.089681 1.674357 0.827301 -0.479911 0.362228 0.327470 -0.631062 -0.703737 0.715634 0.302783 -0.967289 0.264875 0.620178 -0.167421 0.598505 0.091986 -1.235018 0.979864 -1.144159 0.317625 -0.077340 -0.577062 -0.417079 0.275579 -0.205785 0.984818 1.599574 -0.052849 0.108891 0.397047 -0.400194 -1.031640 -0.101719 0.050174 -0.588621 -0.012804 -0.409071 -0.896609 -0.844006 1.431244 0.767711 -0.581308 -0.869329 0.567268 0.903949 0.147104 -0.609005 -0.019697
effects -0.455670 0.302970 0.155561 1.553778 0.785921 0.732310 0.209722 0.660087 0.126183 0.062734 0.607400 -0.486083 -0.532484 -0.235437 0.776286 -0.049306 0.069701 -0.297547 -0.303043 1.426777 -0.430812 0.314845 -0.190429 -0.621627 1.510437 0.298668 0.276194 -0.560559 -0.099190 -0.732662 -0.836295 0.546934 -1.380659 0.798424 -0.974314 -0.830225 0.076486 -0.879161 0.450195 0.960180 0.404212 0.640107 1.095310 -0.699877 0.487892 0.209896 -0.039351 0.691925 -0.038158 -1.033732
transfer 0.012168 0.184693 -0.132470 0.930147 0.915351 0.560907 -0.840121 0.073392 1.002955 -1.028121 1.808793 -0.259095 -0.762460 -0.487463 0.470788 -0.473118 -0.058096 0.780734 -0.702455 -0.331561 -0.401244 0.181631 -0.203785 -0.726525 -0.458278 -1.249227 -0.080702 -0.024687 0.172210 1.497508 -0.731462 0.909352 0.240921 0.288448 -0.361191 0.274375 0.211011 -0.407609 0.135025 -0.793595 0.436438 1.020792 0.776070 0.352313 0.501919 -0.101905 0.598286 1.635810 -0.732764 -0.868840
temperature 0.444353 -1.083733 0.258782 0.803142 0.763527 -0.052226 -0.601246 -0.263460 -0.235213 -0.883942 0.437948 -0.486570 -0.226148 -1.266625 1.498110 1.312833 0.902686 -0.472414 -0.236541 0.882941 0.550661 0.094693 0.111583 -0.284957 -0.319099 -1.202050 0.238759 -0.284639 -0.606605 0.766530 -0.417099 0.838036 0.304317 0.172025 -0.081765 -1.210389 -0.171495 -0.176846 -0.310064 0.380952 0.924869 0.595464 1.168564 0.305296 0.476665 -0.399643 0.499087 0.747088 -0.408052 -0.266943
obtained 0.276571 0.119354 0.186786 0.890348 0.509251 -0.512920 -0.582359 -0.659683 0.950701 -0.450175 0.427162 0.453650 -0.547292 -0.133745 0.498755 -0.109759 1.036871 -0.387872 0.177170 0.771980 -0.180229 0.552755 0.314846 -0.367263 -0.415816 -0.009592 0.563810 1.200202 -0.012098 1.428782 -0.545358 0.737668 -0.742792 -0.381157 -0.131639 0.414883 0.375769 0.470090 -1.058959 0.421243 -0.099520 0.439941 0.929583 0.685664 0.566024 -0.226388 -0.766061 0.484381 -0.682287 -0.477920
laminar -0.116729 -0.052475 -0.336334 1.072784 0.498798 0.617242 -1.437757 0.506932 -0.442075 -0.884955 1.765853 0.090061 0.120995 -0.964316 0.591906 -0.469335 -0.443074 0.214629 -1.432001 0.336715 -0.813723 0.735967 -0.002393 0.200426 0.335243 -0.572634 -0.422386 -0.673172 1.278051 0.895193 -1.514313 0.918694 0.025433 0.909943 0.158410 -0.171028 0.293218 -0.397938 -0.877304 0.021382 0.295213 0.414174 -0.382737 -0.141485 -0.000706 -0.540391 -0.476668 0.956309 -0.395183 -0.441064
solution -0.100799 -0.728294 -0.893233 0.401219 0.126154 -0.906768 -0.254732 -0.108066 -0.163670 -0.075172 0.941969 0.848732 0.127538 -0.920426 0.301168 0.068966 0.304240 -0.452525 -0.162556 0.584251 -1.055022 0.500296 0.364885 -0.416016 -0.172866 -0.098336 1.692068 1.241909 0.873226 0.364352 -1.312696 1.366042 0.011183 -0.540317 0.662601 0.278420 0.023703 -0.016002 -1.144862 0.102942 0.088732 0.379843 0.282668 1.132141 0.053737 -0.884183 -0.784931 -0.130835 -0.480293 0.381730
velocity -0.274899 -0.178039 0.122677 0.689525 0.357447 -1.227959 -0.313099 -0.191996 -1.129133 -1.181075 0.826880 -0.898968 -0.261867 -1.237763 0.885937 0.058082 0.196985 -0.118499 -0.308422 1.759809 0.020403 0.924772 0.432308 0.403468 -0.834188 -0.358661 0.009993 -0.205284 0.451970 0.815635 -0.975847 0.721159 0.408311 -0.066605 -0.101759 -0.504477 -0.011648 1.050000 -0.044516 0.734494 -0.610955 -0.015364 0.613193 0.309989 -0.677910 -1.214076 -0.075095 1.484449 -0.275294 -0.702447
given -0.209279 0.321073 -0.152489 0.810472 0.306219 0.006330 -0.032766 0.253716 -0.587780 -0.527223 0.159117 -0.720230 -0.351143 0.117086 0.775283 -0.084617 0.264981 -0.601647 -1.138609 1.091971 -0.172589 0.364708 0.108291 -0.213245 -0.412689 -0.336688 1.447655 0.563882 0.242064 0.573284 -1.185821 1.112785 -0.229555 0.144653 -0.202698 -0.397324 -0.593260 0.573207 -0.731170 0.182715 -1.294366 0.021139 1.018901 -0.595580 1.362645 -0.508101 0.225508 -0.461652 -0.872330 -0.172433
equations 0.388508 -0.743352 -0.816741 0.608839 0.060606 -0.941233 -0.557179 -0.743996 0.350954 0.308288 0.895928 0.376263 -0.023138 -1.137753 0.197308 -1.326640 -1.260250 -1.042621 0.163776 0.227192 -0.448080 0.337944 0.740660 -0.316704 0.653826 0.185448 0.936398 0.931859 0.937326 0.195567 -0.320344 1.221304 0.273461 -0.599211 -0.328395 -0.416187 -0.198012 0.018349 -1.253181 -0.282570 -0.015417 0.388937 0.816454 0.969534 0.843262 -0.911880 -1.115040 0.039553 -0.468138 -1.199207
ratio 0.314935 0.387947 -0.056735 0.555885 0.696929 -1.530141 1.336413 0.756316 0.423240 -0.541693 0.541442 -0.600615 -1.195027 0.553084 1.241068 0.555231 -0.173143 -0.503475 -0.875126 1.554311 -0.353694 0.351096 -0.488097 0.298263 -1.216220 0.381088 -0.601784 0.726673 -0.582506 -0.661521 -2.126227 -0.524602 -0.186774 -0.290827 -0.587525 -0.850586 -0.576037 -1.187500 0.002397 -0.098964 -0.107015 1.059985 0.101193 0.129183 0.166089 -0.823316 -0.436897 0.352707 -0.440406 -0.492136
jet 0.242442 1.038429 0.492226 0.717564 -0.019929 0.233308 -0.064113 0.323006 -0.125440 -0.922497 0.889004 -1.126057 -0.876768 -1.290262 1.499679 -0.910956 0.733360 -0.739771 -0.623645 1.000775 -0.738811 -0.784082 0.285714 0.507088 -0.297260 2.251788 0.117209 -0.344020 0.067913 -0.842778 -0.475636 -0.347440 -0.519597 -0.668690 -0.144616 -1.459536 0.996384 0.106860 0.924054 0.450003 0.106050 1.069729 -0.727574 0.183030 -0.508474 0.196262 -0.005125 0.208234 -0.068611 -0.534782
effect -0.067990 -0.389944 -0.158567 1.585201 -0.574948 -0.648151 -0.314082 0.975474 -0.622656 -0.482639 0.580318 -0.421177 -0.440293 0.158288 0.427850 -0.036835 -0.236628 0.226071 0.219443 0.516289 -0.284480 0.193518 0.466908 0.450015 0.025341 0.342750 -0.068753 -0.583688 0.370435 -0.006533 -0.573026 1.411999 -1.871253 -0.230963 -1.258902 -0.810405 0.361693 -0.386147 0.462293 -0.409378 0.474797 0.339645 0.795221 -0.848146 0.037099 0.436691 -0.272220 1.239496 -0.475365 -0.413917
experimental 1.291653 0.906252 0.422497 1.083929 0.614781 -0.005762 -1.396003 0.788308 1.071982 -0.491724 0.335267 -0.319401 -0.639256 0.679764 -0.692367 0.569717 0.617145 -0.129798 -0.308588 0.722603 -0.156955 0.261182 0.674198 0.041101 -0.771338 0.162866 0.821770 0.642912 0.128670 0.196770 -0.597195 0.467462 -1.088828 0.468458 -0.564617 0.056003 0.633844 -0.679132 0.204316 0.644657 -0.248665 0.516646 0.542720 -0.757694 0.364028 -0.153819 -1.066215 0.806495 -0.340046 -0.375352
hypersonic -0.337853 -0.319076 -0.971943 1.951486 0.563434 -0.175406 -0.185536 0.495586 0.524643 -0.660273 0.810795 0.121187 -0.506927 -0.782397 -0.288039 0.591031 0.015609 1.130301 -1.943664 -0.487514 -1.217376 0.142778 -0.259204 -0.419596 0.660681 -0.326729 0.951686 1.180698 0.381212 0.240622 -0.310622 -0.563859 -0.603382 -0.303034 -0.067338 0.149887 1.280962 -0.595647 -0.035380 0.113103 -0.561009 -0.159905 0.560824 0.471616 0.578284 0.078286 0.457965 1.435213 0.347832 -0.746843
plate 0.434409 -0.490337 -0.315558 0.051744 1.477876 -0.092533 0.182245 0.676744 0.194395 -0.695206 0.138202 0.258784 -1.289461 -0.531739 1.561236 -0.678653 0.953443 -0.312724 -0.112751 -0.775894 -1.351750 0.094467 -0.043299 -0.258736 -0.537952 -0.393300 1.054824 0.529937 1.042648 0.825405 -1.425330 0.651915 -0.218551 -0.312719 -0.856525 -0.803341 0.686477 0.621924 -0.943802 -0.228648 1.134342 -0.526995 -0.568967 -0.253346 0.545154 -0.761805 -0.151623 0.720788 0.812961 -0.469010
made 0.728039 0.551564 0.010821 0.825805 0.004030 0.009216 -0.830929 0.287889 0.526919 0.365989 0.774664 -0.921228 -0.498057 0.696267 0.077193 0.256432 0.694745 -0.907348 -1.188657 0.719497 -0.957301 -0.298413 -0.090193 -0.009263 0.134805 0.278412 0.300042 0.525286 0.589744 0.847415 -0.353614 0.909661 -0.894322 -0.161482 0.165986 -1.047970 1.232778 -0.217655 -0.032821 -0.242597 -0.863421 -0.507087 0.683135 -0.582482 0.665194 -0.834800 -0.276109 0.037099 0.093869 -0.762436
analysis 0.877919 0.614384 -0.084329 -0.340128 -0.172899 -0.111272 -1.515531 1.160125 -0.075209 -0.052048 0.559463 -0.124618 -0.047657 -0.812729 0.332728 -0.171645 0.223947 -0.752623 -0.186392 0.306804 -1.509407 -0.395417 0.320114 0.529513 0.180223 -0.428624 0.131039 1.396421 -0.429704 0.506119 -1.534005 0.629645 0.285256 -0.102567 0.189767 -0.646049 0.078926 -0.714919 -0.676195 0.316561 -0.455490 0.089769 1.291140 -0.383676 0.378928 -0.379473 -0.850664 0.059093 -0.507856 -0.317512
free 0.160795 0.077574 0.614602 -0.413849 1.586445 -0.009680 0.558084 -0.849597 -1.003615 -1.858111 0.432836 -0.927750 -0.784974 -0.580685 0.489739 0.485742 0.101392 -1.069160 -2.271037 0.253116 -0.977750 0.434492 0.533503 0.018308 -0.749880 1.082767 0.778576 -0.129249 0.234964 0.279686 -0.486407 0.495972 -0.854831 0.168824 -0.435676 -0.109200 0.544500 0.082901 -0.772474 0.038173 0.681388 0.976918 0.220214 -0.429995 0.028350 -0.180613 0.389883 0.531180 0.334614 -1.296156
conditions -0.237477 -0.127603 -0.479560 1.248640 1.163562 -1.228385 -0.578892 -0.381939 -0.702161 0.029826 0.379158 -0.286918 -0.118604 -0.451911 -0.003261 0.228423 -0.127257 -0.951448 -0.492351 0.689204 -0.498154 0.571651 0.633595 0.050970 -0.195805 0.017090 0.498451 0.106360 -0.017083 0.279027 0.131156 0.456125 -0.629486 0.380237 0.881316 -0.684772 0.513701 -0.733857 -1.476114 -0.444582 -0.020536 0.995280 0.264178 0.373544 1.268004 0.877601 0.281034 1.193311 -0.234472 -0.380928
found 0.132626 0.411117 0.023477 0.514167 0.161788 -0.606260 0.052354 0.000303 0.421735 -1.168647 0.225615 0.015525 -0.295901 -0.397797 0.501854 0.199999 0.632934 -0.011822 -0.133708 0.911062 0.091997 0.437404 -0.014073 -0.633735 -0.108341 0.618382 -0.181921 -0.021295 0.599330 0.782870 -1.315947 0.983860 -0.772190 -0.236413 -0.555835 -0.173492 0.120971 -0.643867 -0.623296 0.290273 -0.308996 0.321439 0.075865 0.487244 0.353832 -0.025652 -0.828179 0.921899 -0.520273 0.442831
presented 0.510708 -0.138189 0.354477 0.938794 -0.081212 0.094890 -1.087003 0.134552 0.420147 -0.504893 0.486197 0.006189 0.018270 0.487005 0.316748 0.757043 -0.057294 -0.097103 -0.164117 0.722163 -0.315012 -0.327748 0.371213 0.537912 -0.413222 -0.324734 0.998397 0.741389 -0.605179 0.181124 -0.662389 0.224140 -0.657439 0.234826 -0.882580 -0.315969 0.161392 -0.350319 -1.330996 0.107454 -0.401892 0.838745 0.688909 0.416078 0.545690 -0.389761 -0.684138 0.681116 -0.623418 -0.618875
distribution -0.019648 0.584429 0.856742 1.016616 0.324317 0.062484 -0.589982 0.081775 -0.466584 -0.078236 0.532557 -1.175446 -0.528645 -0.567407 1.352897 0.067279 0.612422 0.083821 -0.093699 1.176815 -0.439285 0.436223 -0.304568 -0.323447 -0.058117 -0.928107 -0.014906 0.788700 0.813866 0.397802 -0.355086 1.067589 0.291958 -0.575886 0.109494 -0.583337 -0.057700 1.212455 -0.048925 0.818815 -0.138200 0.789060 0.339637 0.475131 0.300668 -0.155540 -0.030704 0.712001 -0.177160 0.512729
dimensional -0.834262 -0.150640 -0.385613 1.316870 0.852851 0.635057 -0.779523 0.214723 -0.873914 -0.079395 0.701921 0.006214 -0.270060 -0.031387 0.236444 0.130277 -0.814104 0.769454 -0.760702 1.585895 -0.309612 -0.500471 0.933432 0.651209 0.199898 0.486897 0.519752 1.384298 0.756788 0.785999 -0.704157 0.619121 -1.534172 -0.282459 -0.698930 -0.872510 1.030365 -0.644963 -0.261524 -0.724709 0.174308 -0.857905 -0.422273 0.769567 -0.841826 -0.879320 0.017016 0.127246 -1.228878 0.249228
numbers 0.434172 1.138458 -0.177084 1.169969 0.260049 -0.337944 0.325396 -0.847420 1.166410 -0.758730 0.375581 -0.465817 0.233950 0.480104 1.886282 0.286317 0.602860 0.564888 -1.836866 0.917822 0.748689 0.082203 0.292207 -0.475727 -0.233209 0.260068 0.344385 0.177828 -0.508325 0.219435 -0.393618 0.787373 -1.141811 0.083416 -0.297288 0.039380 0.272618 -1.335510 -1.321136 -0.204107 0.308998 -0.218351 0.046121 -0.109098 -0.008559 -0.207863 -0.324931 0.713875 -0.141223 -0.595914
stream -0.188198 -0.421174 0.527249 0.293915 1.142655 -0.737496 -0.071604 -0.978762 -0.200956 -1.066881 1.238231 -1.184791 -0.550006 -0.884743 0.964695 -0.026605 0.939264 -0.727755 -1.573923 0.782998 -0.365051 0.618166 0.498620 0.070631 -0.671681 0.248871 0.819105 -0.046400 0.129488 -0.514321 -0.738848 0.242240 -0.891020 -0.162020 -0.650857 -0.501811 0.043370 -0.085594 -0.457131 0.003943 0.737037 0.261496 -0.228699 0.068772 -0.725299 -0.234050 0.253583 0.902427 0.031734 -0.606448
reynolds 0.155485 -0.075395 -0.160581 1.482526 0.385972 -0.979788 0.689981 -0.127019 1.032478 -0.609047 0.965462 -0.448524 0.058153 0.005305 1.389127 -0.091744 -0.019030 0.800142 -1.898426 0.467415 0.829173 0.401644 0.613409 -0.574851 -1.132863 0.564827 0.007302 -0.570149 0.129494 0.755909 -0.428284 1.726036 -1.108441 -0.007598 -0.392881 0.358740 -0.297894 -1.031289 -0.808357 -0.727795 0.070810 -0.243080 0.160940 -0.164221 -0.412757 0.219195 -0.763969 0.806945 0.256209 -0.181530
high 0.604199 0.877722 -1.373265 1.321090 1.053311 -0.341419 -0.007607 0.525697 -0.060346 -0.234015 -0.302284 -0.119537 -0.240271 -0.838736 1.427570 -0.454715 0.622515 0.059684 -1.373449 0.227026 0.658966 1.005331 -0.525414 1.073078 -0.140286 0.034057 0.724070 1.187750 -0.600363 0.220848 0.039097 0.271643 0.093098 0.367118 0.168824 -0.700465 0.784527 -0.359718 0.505178 0.611811 0.698981 -0.071605 1.280220 0.107886 -0.055365 -0.261920 -0.583012 0.650844 -0.594317 -0.285929
lift 0.222958 0.347802 -0.087021 0.698096 -0.712546 -0.137452 0.447649 0.258698 -0.510574 -0.438385 0.210308 -1.233635 0.491606 1.279731 0.827314 -0.469179 -0.252894 0.465664 -0.417586 2.212963 -0.343139 0.646829 -1.409637 -0.205068 -0.603053 0.706176 -0.588528 1.625547 0.035094 -0.308028 -0.367932 0.107246 -0.788730 -0.621736 0.712741 -0.233875 0.331913 0.352182 -0.243406 0.208396 0.291277 0.894789 0.118686 0.055923 0.464480 -1.325353 0.171117 1.249102 -1.239135 0.542302
problem -0.335454 -0.497397 -1.028994 0.679784 0.532034 0.406870 -0.304076 0.542890 -0.492812 -0.544360 0.865854 0.780974 -0.463262 -0.602033 0.355609 0.019280 -0.248667 -0.453957 -0.230099 0.169725 -1.169402 -0.120198 -0.368834 -0.481443 0.569834 0.094052 1.447013 1.525938 -0.397760 -0.320079 -0.425690 1.023496 -1.008536 -0.230734 0.545828 -0.021647 -0.346527 -0.233442 -0.997283 -0.192456 0.546375 0.055097 -0.377218 -0.067190 0.432244 0.106999 -0.598262 -0.325312 -0.946523 0.203432
range 0.573548 0.398439 -0.754870 1.035738 -0.022049 -0.762891 0.467439 -0.393198 0.955810 -0.630452 0.191128 -1.101589 -0.589168 -0.289555 0.925454 0.618775 0.034336 -0.075529 -0.951358 0.366812 0.064214 0.888700 0.646340 -0.516529 -0.394294 0.616713 -0.392398 0.272375 -0.370048 1.227041 -0.289603 -0.133336 -0.236423 0.120289 0.062475 -0.180946 0.744213 -0.940521 -0.839910 0.352325 -1.009612 0.537428 0.610571 -0.120899 -0.087006 0.388178 -1.017312 0.370344 0.489386 0.041941
solutions 0.721727 -0.681518 -1.159914 0.696138 1.187528 -0.695893 -0.606037 -0.197865 0.048446 -1.367583 0.399321 0.932516 -0.294382 -0.275287 -0.299852 -0.249122 -0.602389 -1.272792 -0.309887 1.002395 0.233614 0.295806 0.290953 -0.173358 0.136919 -0.762374 1.177459 0.529989 0.574132 0.146358 -1.047751 0.740614 -0.041709 0.086588 -0.410079 0.375887 0.680324 0.453452 -1.186170 -0.143746 0.174037 0.643973 1.006768 0.812049 0.179482 -0.136390 -0.922552 -0.026010 -0.268178 -0.286050
bodies 0.180602 0.732590 -1.000648 2.185275 0.287909 -0.055688 0.115612 0.420550 0.223988 -1.530498 0.454935 0.216005 -0.019820 0.297877 -0.363973 -0.273610 -0.464662 0.534142 -1.240544 0.614412 -1.089932 -0.520040 0.242985 -0.126322 1.107219 -0.389128 -0.007199 1.081920 0.445170 0.456346 -0.273929 -0.456698 0.104505 -0.822931 -0.277730 0.452623 0.587559 -0.083392 -0.620640 -0.635237 0.552034 0.353721 1.204587 -0.340182 -0.079723 -0.150619 0.771984 0.747837 0.068883 0.281934
air -0.447006 -0.651172 0.544289 0.903068 0.032433 0.516397 -0.621271 0.343668 0.720291 -0.264078 0.691524 -0.285363 -0.008417 -1.334905 0.936249 -0.153386 1.774739 0.033624 -1.067609 -0.072516 0.433698 0.783150 -0.435503 0.740941 0.026908 0.936671 0.749616 0.855606 -0.372794 0.369633 0.050957 -0.734876 0.384643 -0.455317 -0.717362 -0.439276 0.049664 -0.898291 -0.240643 0.094994 -0.312898 0.168373 0.199058 -0.268229 -0.453640 0.427968 -0.264242 1.247560 -0.936974 -0.741391
buckling 0.565385 -0.878975 0.168528 -0.816445 0.226568 -0.015358 -0.680248 0.291589 -0.062200 0.134500 -0.565271 -0.092360 -0.374280 -1.017240 -0.324584 0.726511 0.050607 0.149706 0.099889 0.406354 -1.001823 -0.315399 1.472458 -0.856279 0.346164 -0.085857 -0.023671 0.632024 -1.001079 0.616776 -0.064843 0.571070 -0.715231 0.279339 -1.311836 -0.962182 -0.376311 -0.364853 -0.683064 0.368555 -0.320797 0.893626 0.785414 -1.077923 1.521707 -0.398060 -2.113215 -0.717725 -0.026807 0.999823
wave -0.642625 1.223223 -0.925057 0.610521 1.250115 -0.683821 0.107128 0.178944 -0.124676 -0.590145 0.007909 0.369506 -0.331470 -0.151731 -0.098891 0.061774 0.475506 0.109538 -0.421362 0.402109 -0.474446 -0.890905 0.015675 -0.429851 0.752367 1.256994 0.050052 0.615029 0.562836 -0.271516 0.116140 1.256239 -0.102748 -0.559324 0.101791 -0.808507 -0.692789 0.222721 -1.186917 1.535034 -0.112736 -0.189035 0.338399 -0.485233 -0.059809 -0.077153 -0.809464 1.823489 -0.065877 -0.592556
case 0.061414 -0.469668 -0.025289 0.470356 0.987703 -0.337225 -0.524527 -0.316167 -0.376994 -1.037340 -0.312255 0.226361 -0.224834 -0.556940 1.006683 0.394123 -0.117413 -0.460868 -0.571720 0.258964 -0.658121 0.446457 0.027239 -0.277610 0.982602 0.663117 0.364206 0.941717 0.420804 0.408002 -1.237882 0.890330 -0.613721 0.145488 -0.000368 -0.422400 -0.943322 0.257548 -0.950654 -0.415635 -0.440608 -0.049892 0.494206 0.416708 0.122537 -0.936188 0.143761 0.531541 -0.633442 0.348661
also -0.155888 0.154684 0.483835 0.648424 0.324159 -0.302450 -0.489617 0.216726 0.054902 -0.475562 0.468081 -0.313611 -0.536323 0.395330 0.168725 0.003180 0.249973 -0.668645 -0.194848 0.784136 -0.515856 0.079299 -0.556371 -0.177948 0.427990 0.508255 0.286940 0.332712 0.065359 1.100014 -0.764166 0.595079 -1.571643 0.057258 -0.051776 0.036648 -0.377087 -0.423918 -0.758827 0.356080 0.058696 0.664210 0.923949 0.308763 0.766481 0.264900 0.133265 0.673131 -0.836492 0.136637
investigation 0.616438 0.728428 0.118507 0.739422 0.190940 0.127864 -1.062409 0.589830 -0.120549 0.346248 1.350216 -0.490791 -0.384764 0.615658 0.692838 0.369888 0.521811 0.017885 -0.784948 0.637470 -1.014015 -0.586521 0.354765 0.400939 -0.598360 0.462697 0.842570 -0.098120 0.357493 0.072550 -0.370572 0.373338 -0.881126 -0.070190 -0.491947 -0.087374 1.186614 -1.594799 0.596069 0.420103 0.109427 1.300181 0.367405 -0.744875 -0.550273 0.472196 -0.195453 0.168810 0.473119 -0.993028
drag 0.101588 0.538502 0.487027 1.328623 -0.543068 -0.119472 0.870023 1.112660 0.248066 -0.763081 0.337269 -0.184741 0.252036 0.282060 0.244784 -0.685775 0.195245 0.406673 -1.171347 1.103368 -0.895547 0.178487 -1.347181 -0.473829 -0.652208 1.359855 -1.076272 1.244328 -0.086327 0.255322 -0.005682 -0.022865 -0.577752 -0.682270 0.274904 0.410184 -0.321595 0.137711 -0.140399 0.510727 0.134267 0.649968 0.452877 -0.148540 0.906776 -1.089472 -0.317474 0.853309 -0.746532 -0.444543
turbulent 0.282815 0.483902 0.330022 1.282212 1.065376 1.440419 -0.715432 0.250493 -0.543984 -0.854695 0.445520 0.257796 -0.121020 -0.494991 0.489036 -0.467571 -0.352236 0.293115 -0.805772 0.053066 -0.163388 0.333894 0.503090 0.327373 -0.442923 0.460134 -0.814862 -0.999700 1.567389 0.943199 -0.694659 1.054226 -0.161600 0.743851 0.151227 -0.362671 0.142368 -0.256026 -0.538920 0.249018 -0.004329 0.491592 -0.856375 0.058333 0.203926 -0.854568 -0.885575 1.276334 -0.260702 -0.849222
edge -0.288664 0.370591 -0.063067 0.264706 -0.291397 -1.236658 0.318215 1.151543 -0.742535 0.247572 0.531583 -0.251296 -0.441914 0.442865 1.060622 0.361945 0.090719 0.326529 -0.950246 0.282693 -0.585595 0.512073 0.326615 -0.439651 -0.336497 -0.457286 0.600305 0.626430 1.556977 -0.162133 -0.413879 0.495126 -0.481918 -0.375800 -0.365801 -0.893153 0.456197 -0.436512 -1.067961 0.845690 1.223268 -0.223212 -0.354102 0.375168 1.199663 0.427488 0.480034 0.984259 0.316793 0.729576
shown -0.132527 0.112482 -0.102842 0.750697 0.823395 -0.507092 -0.520003 0.077578 -0.023409 -0.508568 -0.206942 0.053463 -0.321757 -0.516145 0.080744 -0.157399 0.158548 -0.572169 -0.323047 0.944401 -0.022775 0.387253 -0.023151 -0.582798 0.104277 0.263049 0.365553 0.207992 0.459473 0.273694 -0.806176 0.587611 -0.979942 0.253319 0.234863 -0.120717 -0.037682 -0.322401 -0.373691 0.044754 0.014161 0.336680 0.693930 0.180139 0.806642 -0.200557 -0.613694 0.387069 -0.750871 -0.170170
flat 0.580315 0.513854 -0.187570 0.720362 0.891886 0.821015 -0.027826 0.615732 0.485544 -0.248038 0.357489 0.286823 -1.380921 -0.196210 1.183030 -0.565193 0.981225 0.322311 -0.519024 -0.332914 -1.271625 -0.005053 0.198606 -0.514688 -0.152301 0.104668 0.448630 0.557269 0.866663 0.768346 -1.412625 0.380174 -0.395712 -0.272217 -1.045685 -0.496099 0.834732 0.696283 -0.689049 -0.322384 1.222588 -0.298619 -0.402071 0.073035 0.769851 -0.914386 0.074692 0.669250 1.097035 -0.780645
aerodynamic -0.184051 0.954267 -0.334663 -0.049143 -0.528058 1.119870 -0.228284 0.736755 -0.355067 -0.194564 -0.155675 -0.336933 -0.305972 0.646161 1.217578 -0.493426 -0.669279 0.015583 -1.032332 1.167796 -0.532951 0.513266 -0.298551 -0.063669 0.842394 -0.193424 0.163139 0.637592 -0.828932 0.519212 0.141129 -0.126674 -0.569529 -0.289903 -0.234737 -0.294972 1.284712 -0.871186 0.199039 -0.425630 -0.027489 0.635844 0.687859 0.218512 0.587801 -0.177506 -0.751490 1.039978 -1.165435 -1.484239
wings 0.675087 0.370237 0.026398 0.722563 0.290495 -0.477336 0.631956 1.254069 -0.507423 0.193362 -0.436175 -0.841545 -0.192414 2.094764 1.761036 -0.023597 -0.434222 0.293004 -0.311618 0.795221 -0.857769 0.569078 -0.281145 0.634454 0.626967 -1.131387 -0.054531 1.366725 1.311840 -0.224851 -0.038047 -0.318626 -0.307010 -0.071224 -0.574763 -0.088380 0.264939 -0.840530 -0.373007 0.491903 0.248644 0.233324 0.145964 -0.163133 0.105048 -0.867854 -0.233117 0.533994 -0.551136 0.263332
data 0.846427 0.260430 0.448064 1.298362 0.191807 0.085978 -1.103910 0.162336 1.159403 0.106375 -0.202701 -0.458970 -0.609635 0.274191 0.359628 -0.165692 0.366055 -0.021311 -0.432328 1.276690 0.380886 0.222666 0.707961 -0.018270 -0.675900 0.209478 0.024506 0.588098 -0.494781 0.697666 -0.127824 0.462138 -1.090530 -0.145169 -0.235053 0.655532 0.967811 -0.337462 -0.853701 -0.015383 -0.927359 -0.428720 0.420392 -0.434238 0.316264 1.067479 -0.852425 0.654541 -0.920200 -0.195929
small -1.143460 -0.382541 -0.218200 0.224124 -0.049489 -0.625092 0.442461 0.599209 0.080251 0.133148 0.223170 -0.226268 -0.005552 -1.073010 0.674080 -0.001533 0.437984 0.252917 0.203121 0.602396 -0.295520 0.809111 0.403643 -0.893431 0.546755 0.778828 0.707692 0.327997 0.858372 1.025971 -1.194814 0.520426 -0.869446 -0.506208 -0.946740 -0.383012 0.581751 -0.166710 0.717631 0.383492 0.584777 0.891026 1.762165 0.004043 -0.527100 -0.368190 -0.624263 0.041668 -0.039094 -0.011213
angle -0.561013 0.426247 0.194453 0.726205 -0.369718 -0.924099 -0.514805 0.065012 1.199996 -0.074843 -0.070447 -2.156542 -0.291319 0.164888 0.551573 0.129940 -1.041381 0.006786 -1.316499 1.217528 -1.144146 -0.278393 -0.125273 -0.303481 0.256443 0.773471 -0.524454 0.669711 -0.248790 0.385651 -1.172544 0.399098 0.451017 -0.792305 0.136482 -0.072513 0.419432 0.028999 -0.310389 0.198821 0.925663 0.835223 0.694648 0.211627 -0.750739 -0.704102 0.376384 0.813590 0.876053 0.059404
cylinder -0.246926 -0.430153 0.870691 0.831098 0.495317 -0.243812 -0.249439 0.307472 1.495529 -0.195510 1.211865 0.386168 -0.806365 -0.449630 1.286345 0.038099 0.392087 0.257465 -0.839645 0.656641 -1.546764 1.078096 0.867160 -0.892392 -0.167081 -0.277385 -0.515494 0.340384 0.209866 0.963997 0.469957 0.620740 -0.357515 0.417911 -0.999097 0.647523 -0.612535 0.519199 -0.357774 -0.582150 -0.087974 0.572746 0.168814 -0.130646 -0.317405 -0.129268 -0.292954 -0.079923 0.252844 0.415121
one -0.740185 0.120223 -0.697874 -0.150043 0.592817 0.216031 -0.613904 -0.264423 -0.124383 -0.237967 0.072761 -0.007909 -0.494659 -0.346081 0.567426 0.682801 -0.485446 -0.611982 -0.232556 0.751049 -0.787330 -0.198505 0.382977 -0.584837 -0.220043 0.463283 0.449317 1.115723 -0.002893 1.144300 -0.703714 1.129120 -0.248290 -0.221273 -0.178685 -1.049616 0.145274 -0.512123 -0.364260 0.168898 0.098213 -0.100212 0.130912 0.754125 -0.593094 -0.073992 0.504070 -0.074403 -0.584437 0.403177
wall -0.478513 0.018475 0.488413 1.276838 0.846709 -0.538891 -0.386478 -0.149085 0.021618 -1.055409 0.856792 -0.807870 -1.027807 -0.429927 0.637688 0.824965 0.503578 -1.034348 -0.056599 0.630441 0.237611 0.644870 0.408981 -0.384286 -0.476401 -0.758934 -0.602855 -0.858406 0.168853 0.507957 -0.230699 0.585630 0.010250 0.856348 -0.722581 -0.937690 -0.128588 -0.287239 -0.538413 -0.141113 1.388804 -0.788399 0.681045 0.585405 0.513104 -0.074809 0.474790 0.613768 -0.871234 -0.795294
speeds 0.057294 0.651989 -0.378123 1.662252 0.502360 0.007211 0.650305 0.908421 -0.479821 0.524082 0.327222 -0.036135 -0.149453 0.149501 1.012477 -0.186138 0.308476 1.173649 -1.171205 -0.291701 -0.861944 0.804259 -0.083720 0.678321 0.269862 -0.245842 0.066051 1.296225 -0.341066 0.180044 -0.554395 0.143333 -1.493565 0.367060 -0.038165 -0.099092 0.805025 -0.554367 0.382820 0.399748 -0.413256 0.060779 0.318597 -0.585290 -0.176098 -0.271754 -0.275674 1.208472 0.222156 0.028987
used 0.432691 0.414486 0.095354 0.938349 0.640937 -0.382622 -0.025919 -0.215257 -0.036690 0.625785 0.244296 -0.629965 -0.343417 -0.119829 0.492540 -0.645800 -0.054626 -0.707444 -0.043747 -0.051908 -0.141761 -0.314258 -0.054449 0.768795 0.159900 -0.152857 -0.017599 0.385375 0.618577 1.080927 -0.160558 1.357969 -0.509114 -0.174420 0.538772 -0.040951 0.041669 -0.219572 -0.120198 0.006325 -0.507004 0.086595 1.172045 0.444218 0.789459 -0.369503 -1.106753 -0.359990 -0.791036 -0.402011
speed 0.411726 0.732297 -1.573281 1.094260 0.753756 -1.358964 0.112999 0.605888 -0.197535 -0.277789 -0.088855 -0.048819 -0.763395 -0.334337 1.378025 -0.381308 -0.296240 0.226208 -0.598510 0.138732 -0.316930 0.917527 -0.370846 1.161419 -0.072223 0.641630 0.184329 1.021236 -0.703917 0.671491 -0.060023 0.436715 -0.646514 0.469177 0.623663 0.054836 0.476220 -0.303661 0.691177 0.424265 0.077432 -0.278753 0.766103 -0.415246 -0.028192 -0.415711 -0.589752 1.034841 -0.491198 -0.385277
tunnel -1.299760 0.645885 -0.110564 1.751084 0.208908 -0.534692 -0.511160 -0.591095 0.307245 0.072145 0.441682 -1.288210 -0.676061 -0.085405 0.658005 0.734665 0.490184 0.459729 -0.647877 -0.206305 -0.383852 -0.150304 -0.481398 0.677309 -0.004082 0.340154 0.813957 0.419926 -0.107533 0.913823 1.227022 0.493346 -1.293810 0.149894 0.094821 -0.188476 1.361376 -0.982781 0.655632 0.942778 0.021912 -0.582475 0.695213 -0.038798 0.417362 0.049468 -0.004904 0.115285 -0.010029 -1.379607
equation -0.366734 -0.525427 -0.353636 0.168323 0.511167 -0.279136 -0.396972 -0.931687 -0.252907 -0.151434 0.728855 0.220186 -0.287585 -0.650471 -0.302615 -0.715707 -0.870696 -0.553839 0.344501 0.653923 -0.416839 0.441219 0.273810 -0.439336 -0.357861 -0.892311 1.066108 1.005888 0.363294 -0.824993 -0.129076 1.046902 -0.585480 -0.441604 0.474711 -0.318926 -1.144679 0.089737 -0.491432 -0.028196 -0.130932 0.966874 -0.052661 0.785695 0.094185 -0.840604 -1.441293 0.241097 -0.906275 -0.844399
may -0.337776 0.376867 -0.602311 0.372304 0.174237 -0.569793 -0.640035 0.365414 -0.160003 0.034204 -0.575525 0.343322 -0.324222 -0.195228 0.576608 -0.605667 -0.075570 -0.604975 -0.624771 0.524094 0.033012 0.339879 -0.567746 -0.305406 0.141759 0.692419 -0.007337 0.122522 0.376498 0.447555 -0.476305 0.408479 -0.977714 -0.003991 0.220195 -0.305463 0.010450 -0.101304 -0.643019 -0.085449 0.209257 0.108485 1.025779 0.867600 0.781347 0.898969 0.045364 0.618135 -1.302430 0.911392
theoretical 1.159546 0.740805 0.479689 0.598777 0.656219 0.186869 -1.088193 1.389099 0.883827 -0.109353 0.450602 -0.233435 -0.140857 0.261185 -0.435001 0.659414 0.499569 0.003510 -0.377893 0.695955 -0.454809 0.416582 0.396265 -0.042054 -0.348614 0.084395 0.727182 0.672237 0.667101 0.367927 -0.515636 0.774614 -0.334236 0.296613 -0.368483 -0.032635 0.718473 -0.411662 0.632339 0.197678 -0.559884 1.177278 0.553775 -0.641955 0.533789 -0.492849 -1.312875 -0.078868 -0.698834 -0.094710
gas -0.852981 -0.352741 -0.816430 0.816187 1.301084 0.990823 -0.522462 -0.412605 0.096549 0.123857 0.422359 -0.387862 -0.702836 -0.768957 -0.734118 0.213574 0.682574 -0.658099 -1.431284 -0.019394 0.142397 1.237512 -0.089034 0.625185 1.478797 0.294603 0.016990 0.125601 -0.570513 0.843132 -0.533403 -0.199344 0.428005 -0.292309 -1.189985 -1.242186 -0.862753 -0.410841 -0.246599 0.089679 -0.196335 -0.190087 0.704553 0.774998 -0.191207 -0.291536 0.411120 0.858396 -0.251598 -0.839770
point -0.814139 0.031350 -0.608864 0.694014 0.156622 -0.786756 -0.889009 0.744819 -0.307947 -0.651389 2.011712 0.055616 -1.068916 -0.262741 -0.328188 0.763800 -0.086068 0.542034 -0.627547 0.060318 0.217860 0.444910 0.490068 0.401170 -0.721584 0.232852 0.587462 0.510757 0.462480 0.378439 -0.459282 1.289745 0.376973 -0.215225 -0.227655 0.178675 -0.333695 0.429892 0.051563 -0.913984 0.150596 0.672514 -0.400073 0.280496 1.219038 0.777193 0.420859 0.357901 -1.067746 -0.173989
order 0.118526 0.642675 -0.622505 1.318804 0.320920 -1.176093 0.925789 -1.130395 0.078352 -0.372407 1.088188 -0.017930 0.360952 -0.604408 -0.222017 -0.196303 0.644669 -0.793484 0.811092 0.358479 -0.686096 0.494322 -0.132706 -0.996457 0.536610 -0.077356 0.278110 0.988821 0.755866 -0.249905 -1.076684 0.903101 -0.630878 -0.478550 0.711532 -0.132642 0.646754 -1.016669 0.117420 0.219495 0.093168 0.694665 0.462846 -1.188771 0.739973 -0.786919 -0.090874 0.218608 -0.414152 -0.774945
measurements -0.371695 0.588142 1.146346 1.000940 -0.020354 0.703470 -0.582808 -0.087324 0.275002 -0.758912 0.361806 -1.261509 -0.229757 0.723151 0.512695 1.151866 -0.028102 0.258108 -1.314979 -0.340263 0.039855 0.054068 -0.432312 0.729767 -0.213839 0.312253 -0.249444 0.709503 0.085717 1.185475 -0.125881 0.634964 -0.853072 0.398771 -0.323647 -0.497614 0.814848 0.013687 -0.394536 0.126995 -0.149807 0.140499 0.042211 -0.582420 0.203721 -0.444085 0.385408 1.144836 -0.020924 -1.261865
stagnation 0.097645 0.171316 -0.147723 0.788976 0.327191 -1.059092 -0.081258 0.193460 0.551453 -1.113281 1.929524 -0.614250 -1.082518 -0.839550 -0.149903 1.023922 0.525078 0.566741 -1.299296 -0.244913 1.037305 0.435731 0.556297 0.770700 -0.655046 0.127823 1.000961 0.544110 0.606927 0.319330 -0.127867 0.645360 0.733789 -0.292834 -0.681758 -0.646914 0.389004 0.051886 0.547946 -1.065967 0.150308 0.789091 0.421196 0.616514 0.900427 1.009222 0.804234 0.948141 -0.601798 -0.643417
transition -0.549493 0.626172 -0.383040 1.915467 0.634047 0.562536 -0.237172 0.148870 0.323432 0.429822 1.388325 0.064618 -0.833218 0.870670 0.563372 -0.501891 0.176363 0.277601 -0.631883 -0.388978 0.688909 0.526610 0.840845 0.198727 -0.744662 0.845036 -0.784075 -0.479409 0.191329 0.871589 -1.026743 1.015333 -1.429865 0.122008 0.000082 0.074192 -0.106174 0.131466 -0.458650 -0.057466 -0.034282 -0.092723 -0.910309 -0.599411 0.336786 0.579491 0.123357 0.404849 0.273230 0.153948
large -0.873440 0.221831 -0.555231 -0.133799 0.260620 -0.561016 0.050020 0.639923 0.113391 0.423779 0.019874 -0.171874 -0.097831 -0.557496 0.793009 -0.001921 -0.177772 -0.292129 -0.474010 0.642252 0.087918 0.722275 0.674311 -0.666543 0.137197 0.669492 0.279177 -0.221111 0.694627 0.467253 -0.461244 0.550633 -0.150513 0.375736 -0.636662 -0.214151 1.653354 0.378740 0.297895 -0.143540 0.126698 1.962224 1.461755 -0.262538 0.315343 0.332428 -0.123830 -0.263186 -0.438438 0.265646
flutter 0.736225 1.256534 0.204644 0.325833 0.203525 0.204781 -0.148177 0.680503 -0.453371 1.594724 -0.593208 0.280993 -0.770274 0.535890 0.608419 0.215182 0.615814 -0.111273 0.184331 0.827631 0.400966 1.290883 0.183954 1.041239 0.554620 0.594600 0.886335 1.292104 -1.523213 0.167764 -0.689532 0.601276 -1.221506 -0.076540 -0.776275 -0.283192 -0.304393 -0.913092 0.448646 -0.312577 0.713397 -0.889038 0.024436 -0.013746 0.440640 -0.384829 -0.980791 0.386654 0.011888 -0.666480
general -0.065589 -0.005388 0.304239 0.803762 0.277013 -0.171757 -0.858108 -0.108606 0.104502 -0.043302 -0.035944 -0.255048 -0.106540 -0.416367 0.486371 -0.092250 -0.449253 -0.067270 0.174146 0.642372 -1.136237 -1.023051 0.535440 -0.026874 -0.073585 -0.041435 0.553528 0.187288 -0.131849 0.077073 -1.231909 0.372926 -1.101362 0.395319 -0.119379 0.047137 0.477849 0.398858 -0.719672 -0.648190 -0.733492 0.231087 1.372092 0.265428 0.207236 -0.240028 -0.451910 -0.467728 -1.066281 0.198580
fluid 0.544758 -0.751996 -0.361332 -0.143019 1.345857 0.172734 -0.447624 0.814720 -0.564049 -0.286001 0.997340 0.055210 -0.531983 -1.109395 0.812748 -0.728484 0.304991 -0.165059 -0.851467 0.662590 -0.152884 0.391920 0.189316 0.074807 0.352246 0.730385 0.695676 -0.313535 1.237919 -0.099423 -0.558367 0.743240 0.305769 -0.051794 -1.067950 -0.274517 -0.428646 0.263056 -0.229211 -0.877544 -0.486506 -1.180804 0.359529 -0.211691 -0.464278 -0.958981 -0.009085 0.330750 -0.532985 -1.655177
characteristics -0.107802 0.741211 0.113985 0.199040 -0.065513 -0.009265 -0.283968 0.385512 -0.261435 0.709686 0.749359 -0.225922 -0.491846 0.783072 0.877307 -0.230357 -0.332087 0.393394 -0.508735 0.823193 -1.169831 0.259400 0.304479 0.848053 0.604674 -0.878447 -0.404554 0.546330 -0.701268 1.309832 -0.045296 0.251206 -0.634061 -0.443894 -0.519247 0.471895 0.800880 -0.784990 -0.399043 0.788031 0.797749 0.303500 0.807614 -0.244025 -0.265005 -0.194917 -0.711775 0.570401 0.025673 -1.019175
field 1.593486 -0.338210 -0.499351 -0.346046 0.731608 -0.350318 0.258960 0.063824 -1.100454 -0.132954 0.577517 0.338834 -1.149609 -0.500372 0.433762 -0.495585 0.294823 -0.114908 -0.334680 0.446523 -0.962129 -0.108791 0.204912 0.316743 0.858730 0.370899 0.128065 -0.737431 0.703638 1.034847 -0.883189 1.063223 -0.380296 -0.545197 -0.654925 -0.088965 0.325361 0.685464 0.382555 0.355983 -0.940316 0.254784 1.033223 -0.036397 0.494057 0.149911 1.081633 0.943903 0.029661 -0.468065
flows 0.128937 0.148831 -0.574326 0.775291 1.238262 0.417687 -0.874772 -0.542678 -0.586309 -0.771437 0.771472 0.141363 -0.500855 -0.518738 -0.246943 0.126310 0.061715 -0.212872 -1.052144 0.883415 -0.245417 0.302305 0.423156 -0.090363 1.233238 0.123053 -0.080669 -0.276983 0.788906 0.271701 -0.438790 -0.193620 -0.400741 -0.043648 -0.882775 0.450517 0.557958 -0.596951 -0.202056 0.407923 0.214622 0.266792 0.402069 1.323143 -0.173343 -0.603323 0.542865 -0.025952 -1.194110 -0.115153
leading -0.181731 0.262275 -0.403060 0.339384 0.098867 -1.066605 0.478754 0.716769 -0.564823 0.238315 0.423187 -0.328183 -0.662706 0.781415 0.924519 0.507456 0.128672 0.629520 -0.964953 0.099212 -0.236167 0.297380 0.447525 -0.449277 0.008299 -0.407833 0.594179 0.743763 1.414588 -0.251349 -0.385405 0.391696 -0.577484 -0.283141 -0.470666 -0.557454 0.531720 -0.758721 -0.572181 1.041650 0.932037 -0.287832 -0.368781 0.421005 1.295501 0.191818 0.675647 0.977940 0.469849 0.688263
values 0.372340 0.039795 0.416867 -0.139011 0.634995 -0.549683 0.761555 0.018673 0.841212 -0.727854 0.039958 -0.659006 -0.225728 -0.268370 0.110002 -0.065871 -0.201823 0.238462 -0.628510 0.558602 0.803625 0.912037 0.089884 -0.135327 -0.359559 0.433757 0.494855 0.620564 0.508185 1.416612 -1.401686 0.230652 -0.640829 0.028769 -0.351823 -0.233156 0.212663 -0.247285 -0.440129 0.403024 -0.800336 1.224567 0.216420 0.689633 0.410107 -0.574159 -0.550479 0.449299 -0.670898 0.079231
thin 0.054480 0.586894 0.020956 0.035314 0.011232 -0.780039 -0.315335 0.778011 -0.034545 -0.633806 0.078103 0.315957 -0.488691 -1.271604 0.557322 -0.456513 0.259279 -0.246082 -0.469719 -0.318992 -1.214024 -0.072287 1.344719 -0.539012 0.400682 -0.430637 0.209317 0.279654 0.623049 -0.433183 0.424160 0.032118 -0.463764 0.377433 -1.094786 -0.231111 0.060802 0.216003 -1.086999 -0.156597 1.033158 0.033900 1.413972 -0.884722 0.505545 -0.366014 -1.472592 -1.084196 -0.186349 0.082217
circular 0.401482 -0.119330 0.408662 0.266122 0.445207 -0.756578 -0.577863 0.605756 1.528325 -0.534008 0.876579 -0.007525 -0.304562 -0.313834 0.709054 -0.840247 -0.155186 0.468194 -0.531007 -0.120691 -1.721384 0.084234 0.867175 -0.280102 0.239517 -0.708797 0.076775 0.929568 -0.215896 0.217385 0.729632 0.101037 -0.199084 0.538392 -1.703601 0.193604 -0.348553 0.204299 -0.897902 -0.615693 0.131520 0.291842 0.451006 -0.807532 -0.433982 -0.744882 -1.101185 -0.210960 0.231668 0.677188
considered 0.300154 -0.058354 0.000166 0.793012 0.821509 -0.120430 -0.343790 0.451400 -0.164803 -0.141336 0.282596 0.265921 -0.199247 -0.299697 0.711665 0.399540 0.262299 -0.468223 0.305217 0.803486 -0.765110 0.169098 0.421966 -0.449225 0.991312 0.663819 0.185966 0.457143 -0.179493 0.544088 -0.805452 0.347518 -0.506707 0.548821 -0.375892 -0.191017 -0.391496 -0.654508 -0.785723 0.168822 -0.295899 -0.134819 1.057038 0.626107 0.006918 -0.005547 0.196957 0.275859 -0.551962 0.286626
flight -0.252119 0.288493 -0.588756 0.608185 0.604286 -0.141533 -0.175159 -0.640853 -0.837697 -0.747731 -0.100377 -0.741528 0.034295 0.142558 0.544898 0.591303 -0.529121 -0.772540 -1.420472 -0.506892 -0.853490 0.490983 -0.279839 1.024339 -0.358571 1.454922 0.138290 0.865591 -0.900405 1.005302 0.181156 -0.016938 -0.727437 0.541855 0.784704 0.077141 1.226036 0.145379 -1.019762 -0.300056 -0.509113 0.994350 1.030200 -0.701244 0.109023 0.688678 0.775758 0.939769 0.068315 -0.823627
thickness -0.279410 0.607124 0.741105 1.136909 0.158200 -0.966847 0.816236 1.022671 -0.123755 0.057373 -0.160637 0.117441 -0.427830 -0.532180 0.760705 -0.309551 0.027316 -0.955364 -0.449526 1.502634 -0.585943 0.975593 0.388501 -0.941293 -0.442680 -0.875333 -0.009829 -0.190923 0.176744 0.317651 -0.831354 0.588216 -0.248883 0.155206 -0.281405 -1.020628 -0.579733 -0.940790 -0.377806 -0.370568 0.479621 -0.003930 0.304487 0.139504 0.460358 -0.138192 -0.416591 0.165057 0.284878 0.184708
low 0.639134 0.403528 -0.169934 0.408933 1.388691 -0.821392 1.291824 0.861714 0.387192 0.194377 0.740251 -0.595320 -0.320444 0.268327 1.693441 0.070177 0.169015 0.827857 -0.903618 -0.802082 0.184218 0.362098 -0.156119 1.027781 -0.428597 0.373001 0.120541 1.093605 0.366004 -0.132990 -0.609910 0.153021 -0.845398 0.613874 -0.013549 -0.306273 0.469227 -1.202783 0.128318 0.245396 -0.642094 0.166177 0.750628 0.255315 -0.439705 0.169217 -0.463922 0.897431 -0.890258 0.126810
region 0.022671 0.800483 0.139669 -0.050163 0.853170 -0.520675 -0.620620 0.141251 -0.454349 -0.121467 1.343997 0.079117 -0.731976 -0.871074 0.010905 -0.069018 0.256375 0.500209 -0.902433 0.289008 0.464707 0.528584 0.731972 -0.337217 -0.648562 0.854524 0.332310 0.437144 0.943055 0.012700 -0.541489 0.247969 0.557257 -0.155302 -0.197345 0.401101 -0.320741 -0.269087 -0.155687 0.684816 0.967022 -0.153848 0.049441 0.916528 0.485738 0.341252 -0.369593 0.675753 -0.013974 0.023535
approximate 0.649960 -0.221190 -0.309933 0.639772 0.135530 -0.002921 -0.592751 0.781596 -0.011626 -0.199400 0.677233 0.163948 0.449444 -0.375398 -0.120765 -0.645966 -0.021692 -0.407864 -1.112784 0.923050 -0.840100 0.002317 -0.265523 0.093146 -0.160735 -1.009202 1.175212 0.875615 0.576970 0.034873 -1.179772 0.753748 -0.089787 -0.328590 0.372388 0.221113 0.093855 0.437055 -0.565569 0.577768 -0.431818 0.709420 0.221686 0.943700 0.007715 -0.598860 -0.594623 -0.427791 -0.002527 -0.092780
tests -0.327602 0.292528 0.723672 1.035410 -0.202778 -0.338065 -0.487079 0.067286 1.212979 0.593768 0.282186 -1.554822 -0.450262 0.265943 1.587534 0.942865 0.637127 0.432097 -0.160557 -0.116540 -0.923709 0.154809 0.227120 0.564822 0.064582 0.381222 0.673003 0.949097 -0.774153 0.583646 -0.274664 0.048913 -1.132659 -0.001936 -0.023258 -0.050953 0.812458 -0.687156 -0.433852 0.057691 -0.336166 0.304259 0.124719 -0.692064 0.255925 0.628402 -0.383058 -0.291510 0.421203 -0.403856
attack -0.080111 1.265278 -0.188534 0.454653 -0.413955 -1.075841 -0.490747 -0.322445 1.163759 0.150203 0.137872 -2.051394 0.298349 0.353838 0.418764 -0.333483 -0.981988 0.690548 -0.999605 1.301697 -0.626068 0.273952 -0.048532 -0.192068 0.276699 0.404505 -0.054521 1.189906 -0.480145 0.319888 -0.945261 0.157558 0.298029 -0.661417 0.136406 -0.135607 0.602029 -0.261372 -0.308670 0.169896 0.589460 0.747006 0.797264 0.083874 -0.998073 -0.510810 -0.119016 1.135340 0.583045 0.179199
model -0.455465 0.507432 0.942132 0.746561 0.615708 0.163566 -0.780079 -0.008465 0.459889 1.480734 -0.164553 -0.283274 -0.394781 0.120470 0.968285 1.212619 0.702837 -0.125697 -1.034041 0.320960 -1.451561 0.230881 0.201713 0.465928 -0.291831 0.784653 -0.787676 -0.081070 -0.177121 -0.042969 0.168379 1.289667 -0.913746 0.190839 0.735512 0.281468 -0.178600 -0.363371 0.062721 -0.169761 0.292724 0.937538 0.824255 0.534078 -0.488676 0.258151 -0.107643 -0.025495 -0.025995 -0.929128
stability -0.717756 0.673844 0.465523 -0.276422 -1.181185 -0.125411 -0.293375 -0.075789 -0.670043 -0.095027 0.663440 -0.250350 0.198151 0.069265 0.096711 -0.411096 -0.833268 -0.510331 -0.550046 -0.011116 -1.390967 0.478182 0.763522 0.379808 0.526158 0.100851 -0.218655 -0.067655 -0.255050 -0.124434 -0.485260 -0.020653 -1.224870 0.542860 -1.068283 -0.033524 0.375801 -0.269079 -1.730738 -0.253177 0.134356 0.813458 0.715428 -0.300767 -0.013432 -0.518160 -1.553734 -0.278343 -0.211880 -1.012638
distributions 1.149131 -0.210269 1.206652 1.243472 0.688023 -0.253025 -0.061132 -0.185010 0.075186 -0.889043 -0.332123 -0.909462 -0.028237 0.013525 0.618201 -0.038218 0.222489 0.522272 -0.390140 1.359906 -0.468079 -0.374289 0.102468 0.001752 0.246029 -1.225124 -0.029203 0.681090 0.817843 0.374608 0.733088 0.040312 -0.474405 -0.348258 -0.223966 -0.425131 0.426532 0.011685 -0.132257 0.576728 0.012556 1.172988 0.652876 0.338542 0.263917 -0.908378 0.000848 1.324522 -0.148907 0.327922
numerical 0.838248 -0.473301 -0.563892 1.471983 0.233297 -0.364266 0.051470 -0.061268 0.431615 -0.462980 0.963268 1.014957 0.376827 -0.033671 -0.480780 0.428871 0.013251 -0.366539 -0.175235 0.537918 0.569294 -0.341290 -0.007245 0.358412 0.602344 -0.228905 1.396725 1.248138 -0.301066 0.685675 -1.273712 1.115673 -0.401086 -0.523915 0.037677 0.441428 -0.141932 0.465654 -1.147097 0.025041 -0.833273 0.424163 0.588528 0.331899 0.628542 -0.594594 0.442605 -0.517654 -0.597998 0.173819
problems 0.015905 -0.414038 -1.384376 -0.245472 1.175995 0.311781 -0.617022 0.470600 -1.230414 -0.364922 0.419664 0.486811 -0.318162 -0.697971 0.775915 -0.921744 -0.869099 -0.882481 -0.502024 0.064125 -0.774350 -0.720556 -0.671326 -0.017780 -0.106391 -0.086635 1.374104 0.940141 -0.227440 0.363324 -0.647439 0.353917 -0.978863 0.508313 0.723134 -0.409012 1.021398 -0.339242 -0.065007 -0.240795 0.722103 0.367176 0.613913 0.341340 0.480594 0.130085 -1.470104 -0.563167 0.018332 0.560658
form 0.028233 -0.449740 -0.039890 0.664071 0.455027 -0.703178 -0.163122 -0.108490 0.444525 -0.071926 0.310761 0.272462 -0.375821 0.579023 0.910582 -0.330080 0.169241 -0.579765 0.344082 1.116695 -0.511141 -0.263712 -0.065807 -0.009100 -0.846686 -0.310367 1.630980 0.731010 0.315289 -0.724765 -0.346433 0.741496 0.317560 -0.026741 -0.302575 -0.234884 -0.468072 0.529238 -1.052723 -0.412748 -0.623297 -0.163189 0.265347 0.876802 0.287655 -0.529457 -0.866686 0.170997 -0.134215 -0.183148
stress 1.670481 -0.601764 0.641620 -0.524236 0.071789 0.322381 -0.497840 0.360305 -0.328930 -0.431651 -1.173199 -0.267728 0.085372 -0.723232 -0.252260 0.193155 1.004495 -0.646750 -0.001826 0.623820 -0.989765 0.342709 0.768032 -0.781777 -1.498164 -0.407921 0.088171 -0.137074 -0.326726 0.267492 -0.289267 1.623877 -0.078809 -0.085028 -0.246744 -1.317974 -0.145594 -0.255805 -0.706932 0.133456 0.985472 0.476002 0.535624 0.017577 1.233481 -0.386677 -1.066290 0.750543 -0.045447 0.501252
constant 0.012268 -0.645149 -0.320215 -0.028654 0.596417 -0.922548 -0.456822 -0.142401 -0.102297 -0.762578 0.048682 -0.291723 -0.593826 -1.191505 1.542214 -0.002925 0.013092 -0.646254 -0.556286 0.580374 -0.505192 0.041252 -0.042001 -0.063931 -0.374892 0.551231 -0.011852 -0.507717 -0.145202 1.115454 -0.733973 0.267838 1.030291 -0.363764 -0.259396 -0.886367 -0.769970 -0.208913 -0.233214 -1.204082 -0.338640 -0.113083 0.388215 -0.300987 0.337194 -0.951131 0.260619 0.060461 -0.336176 -0.193586
shells 0.343180 0.191788 0.410828 0.085979 -0.737182 -1.092403 -1.180602 0.081458 0.278455 -0.359498 -0.135391 0.091527 0.262182 -1.413237 -0.755159 0.173873 -0.309515 -0.472381 0.680737 -0.218948 -1.605621 -0.581041 1.542887 -0.403655 0.878067 -0.497552 0.410161 0.037817 -0.311815 -0.454861 0.107991 0.131867 -0.859775 -0.110225 -1.412915 -0.582527 -0.199006 0.649429 -0.736991 -0.481432 0.901545 0.707627 1.165885 -0.307017 0.895688 -0.264736 -1.328995 -0.794232 -0.536634 0.696672
viscous 0.552923 -1.106089 -0.613927 0.813850 1.091699 0.384490 0.266413 0.953851 0.413827 -0.057354 0.919667 0.549279 -0.619616 -0.654720 0.197676 -0.241884 -0.577925 0.790004 -1.087914 0.270849 -0.259320 0.693176 0.516595 -0.547258 0.565275 0.419047 0.631051 0.527283 1.570796 -0.622892 -0.620028 0.384402 -0.754329 0.154684 -0.463758 -0.060410 0.599621 0.624151 -0.076348 -0.640826 -0.062702 -0.977103 0.299259 0.079999 0.190989 -0.102756 0.080475 1.009681 0.012416 -0.951128
blunt -0.141862 0.531000 -0.147051 1.059763 0.535332 0.381942 0.122113 0.891347 0.228778 -1.049991 1.189247 0.066939 -0.511738 0.508775 0.052566 0.406093 -0.453404 1.016919 -2.474833 -0.090945 -0.861718 -0.694717 0.135476 0.170198 1.072859 0.019156 0.500858 1.003534 0.724308 0.589911 -0.066387 0.438482 -0.152576 -0.907002 -0.414163 0.555302 0.291892 -0.696088 -0.416008 -0.234094 -0.024089 0.949008 -0.121103 0.379957 -0.116455 0.507854 1.326872 0.995971 0.158135 0.264389
paper 0.056168 -0.518049 -0.815112 0.774926 0.071388 0.106838 -1.175972 0.884886 0.233660 -0.527598 0.675281 0.071792 -0.218235 -0.261786 0.421853 -0.283440 -0.285175 -0.434971 0.115173 -0.855566 -1.532406 -0.485123 -0.316562 -0.029902 0.396398 0.234924 1.198817 0.048883 -0.112656 -0.140049 -0.739153 0.399213 -0.891650 0.979268 -0.452688 0.241043 0.452622 -0.439087 -0.327459 0.646421 -0.516763 -0.113156 0.529525 -0.298513 -0.113050 -0.431943 -0.732719 -0.445812 -1.166892 0.711193
value -0.466236 -0.456854 0.004135 0.699842 0.635155 -0.894680 0.424080 0.200233 -0.049012 -0.610649 0.507350 -0.183944 -0.269426 -0.956712 0.351533 -0.096887 -0.021405 0.219033 -0.884093 0.403127 0.260121 0.315607 -0.710914 -0.295424 -0.867116 0.744284 0.698197 0.575233 -0.754567 0.518304 -1.155652 0.634789 -0.227027 -0.017820 0.468708 -0.011640 -0.811106 0.142642 -0.511389 -0.913775 0.477402 0.147236 -0.351113 -0.416408 0.596375 -0.486021 -0.947329 0.388673 0.117918 0.929334
compressible 0.745367 -0.465988 -0.265370 0.825598 0.788491 1.331744 -1.289794 0.548926 -0.982925 -0.760974 1.412340 0.060065 0.044828 -0.777904 0.852589 -1.180167 -0.500923 -0.113206 -0.678324 0.739540 -0.366953 0.371251 0.337085 0.156404 0.610520 -0.379285 -0.134908 -0.241553 1.107955 -0.212592 -0.937444 0.452981 0.233868 0.261645 -0.465168 -0.035718 -0.132358 0.253470 -0.601620 -0.498120 0.559395 -0.330903 -0.363227 0.011854 -0.326218 -1.683850 -0.619746 0.149267 -0.866903 -1.024064
simple -0.181145 0.484280 0.129976 0.472247 0.761482 0.082462 -0.452677 -0.026942 0.005990 0.440962 -0.301184 -0.257256 -0.068750 0.021225 0.705098 -0.176963 0.749517 0.247044 0.180194 0.563097 -0.604563 -0.842170 0.272007 -0.385317 0.468976 -0.527077 1.110310 0.409161 0.079088 -0.313749 -1.176825 1.150998 -0.298562 -0.629614 0.037505 0.507166 -0.256314 0.351103 -0.375758 -0.051025 -0.519074 0.175587 0.864191 0.427509 0.399772 -0.505036 -0.689247 0.344869 -0.268953 -0.319982
discussed -0.261479 0.608536 0.374404 0.348474 0.638439 0.075839 -1.184333 0.275013 -0.355493 -0.257862 0.140127 0.131215 -0.058225 0.310301 0.178427 -0.038817 0.184890 -0.375001 0.026534 0.090575 -0.731481 0.124452 -0.398174 0.225129 0.820745 -0.379352 1.522270 0.645775 -0.476994 0.554332 -0.637354 0.434768 -1.173117 0.955605 -0.137315 -0.043450 -0.615384 -0.537660 -0.722532 0.393045 -0.537113 0.296613 0.478178 0.129223 0.942398 0.150623 0.133599 0.862655 -0.479709 -0.297621
first -0.689576 -0.098964 0.248255 0.848784 -0.098801 -0.465242 0.158060 -0.804149 -0.023623 -0.644390 1.094925 0.008346 0.532165 -0.503171 -0.026188 -0.508987 0.681372 -0.630574 1.008979 0.132791 -0.990645 -0.066030 0.271686 -0.549687 -0.061002 0.472848 0.779448 0.696737 0.538633 0.072225 -0.897947 0.919967 -1.093946 -0.180552 0.566964 -0.347257 0.400454 -0.548641 -0.809887 0.045560 0.064301 -0.061729 0.008331 -0.363746 -0.058248 -0.790508 -0.380289 0.172888 -0.975591 -0.143342
slender 0.233602 0.534575 -0.218524 1.293233 -0.188338 0.474079 0.506342 0.514825 -0.355556 -0.575918 -0.289848 -0.014114 -0.161552 1.194561 -0.042321 0.058999 0.150685 0.337376 -1.396517 0.109868 -1.661585 0.543753 0.430001 -0.827916 1.072776 -0.819467 -0.053208 1.141678 1.853520 -0.555021 -0.108444 -0.567450 -0.456727 -0.674216 -0.257559 0.846927 0.579799 -0.646898 -0.740768 -0.656827 -0.056711 0.267722 1.174774 -0.386523 0.297546 -0.759372 0.674916 0.038998 -0.614363 -0.179051
use 0.132651 0.155938 -0.429577 0.239133 -0.096841 -0.275017 -0.723037 0.244667 0.076727 1.092948 -0.028090 -0.245083 -0.261061 -0.421565 0.895239 -0.542120 0.056493 0.276574 -1.055706 0.453016 -0.355957 0.011521 -0.124631 -0.021792 -0.311486 -0.361160 0.750012 0.612292 -0.322268 -0.145548 -0.751781 0.047852 -0.067727 -0.038834 0.410639 0.453565 0.858798 -0.015850 -0.085809 0.113164 -0.713831 -0.152744 0.504766 0.903567 1.173935 -0.282725 -0.405250 0.239997 -0.432220 -0.820320
agreement 0.381921 0.768688 1.031876 0.395512 0.216621 -0.601650 -1.497594 -0.141137 1.323314 -0.989618 -0.370550 -0.388861 -0.684061 -0.095061 -0.776466 0.560160 0.803585 0.250539 -0.149296 0.629870 0.146223 0.875378 0.144319 -0.193145 -0.419198 0.322206 0.019169 0.333499 1.102271 0.786368 -1.397044 0.162279 -0.794867 0.573336 -0.051863 1.079318 0.401500 -0.151242 -0.734170 0.554487 -0.670723 0.551940 0.536952 -0.022274 0.483333 0.039284 -1.046151 0.598605 -0.626431 0.237861
skin 0.390266 0.545565 0.856387 0.805760 0.216012 0.929919 0.014771 0.748772 0.110000 -0.606794 0.045460 0.157629 0.131905 -0.390940 0.375152 -0.181095 0.229739 -0.068352 -0.354667 -0.170484 -0.093531 0.358946 -1.164368 -0.380390 -1.116495 -0.727192 -1.150268 0.096315 -0.503566 1.435335 -0.812371 0.989029 -0.665212 0.405688 -0.074455 -1.278283 -0.686788 -0.395028 0.000871 -0.764813 1.196339 -0.273213 0.306347 -0.229402 0.869498 -0.636876 -0.187456 0.757776 0.158831 -0.808949
separation -0.370475 1.038191 0.043611 0.604653 0.071746 -0.603680 -0.666245 0.865907 -0.767302 -0.170319 1.620176 -0.194514 -0.309418 0.441916 0.030278 -0.218132 0.276309 0.076574 -0.727098 0.155148 -0.146780 0.123362 0.143462 0.382110 0.086639 -0.040594 -0.589354 -0.778091 1.321997 -0.173172 -0.629786 0.898765 -0.246670 0.371196 0.119278 0.434725 0.000540 0.477007 -1.028459 1.443709 0.999312 0.771662 -0.843861 0.668864 1.122925 0.232466 0.007290 0.317648 -0.350477 0.258406
three -0.918248 -0.189399 -0.290166 1.786961 0.336112 -0.197699 -0.081038 0.312530 -0.196630 0.159233 0.579972 0.664547 0.029818 0.420537 -0.091215 0.417492 -1.013636 0.379628 0.411421 0.938438 -0.443355 -0.317938 0.996719 0.510216 0.089755 0.102547 0.359718 1.162552 0.267221 0.484460 -0.464216 1.010484 -1.115990 0.102647 0.047993 -0.754146 0.224164 -0.236138 -0.476253 -0.669182 -0.276437 -0.328024 -0.387880 0.261890 -0.187394 -0.424179 -0.011086 0.192152 -0.485720 0.195705
based -0.201586 0.511440 -0.004777 0.627838 0.282212 -0.285791 -0.708229 0.167776 0.082179 0.101770 0.067778 -0.294198 0.098828 -0.195778 0.068842 0.573846 0.056263 0.060741 -2.200408 0.590964 -0.774270 -0.067265 0.357081 -0.690354 -1.098025 -0.728914 0.563354 -0.115711 0.292017 0.292263 -0.676269 1.228472 -0.192755 -0.772742 0.281302 -0.227033 -0.662082 -1.143973 -0.133372 -0.802544 -1.072840 0.353504 0.452806 0.043270 -0.492742 -0.460868 -1.400061 0.027027 -0.208482 -0.947796
shear 0.073862 -0.433326 0.092349 -0.168093 0.993977 0.571884 -0.179216 -0.270250 -0.816697 -0.599085 -0.306423 -0.405816 -0.145994 -0.473600 0.149889 0.315140 0.736977 0.647930 0.269018 0.522384 -1.003596 0.562217 1.321052 -0.644226 -0.974276 -0.096089 0.148943 -0.263807 0.305225 0.051323 -0.748553 0.929233 -0.698292 0.457455 -0.850122 -0.206241 0.411344 0.472038 -0.441772 -0.045842 1.035781 -0.558539 -0.077101 -0.356712 0.511811 -1.055737 -0.372028 0.845486 -0.466353 0.170627
nose -0.293409 1.199709 0.689465 0.852239 -0.466285 0.357314 0.744266 0.562687 0.461898 -0.090611 0.870856 0.271149 -0.698559 0.319318 0.412128 0.214564 0.013182 0.052452 -1.672529 0.647767 -1.348793 -0.246813 0.087426 -1.117210 -0.065538 1.025028 -0.028926 0.571015 -0.143437 -0.051485 -0.153735 -0.307735 0.066716 -0.371932 -0.221375 0.974373 -0.258252 -0.145517 0.088856 -0.232744 0.235660 0.952917 1.129438 1.015948 0.360821 1.022887 0.764537 0.794884 0.381731 0.125749
present 0.106110 -0.388457 -0.512358 0.632407 -0.042322 -0.483962 -1.199404 0.735278 0.368790 -0.025599 0.571581 -0.367284 -0.633852 -0.404494 0.055878 0.251092 0.006168 -0.533431 -0.428816 -0.387921 -0.789357 -0.605944 -0.326019 -0.304573 -0.044617 0.252704 0.520419 -0.366867 0.406689 -0.117138 -1.316660 -0.009994 -0.915874 0.142782 -0.175200 -0.147385 0.737219 -0.940936 -0.252398 0.278538 -0.538288 -0.029463 0.620412 -0.115537 0.430506 0.449972 -0.596703 -0.013289 -0.964160 0.210939
cylindrical 0.014088 0.693762 1.157605 0.622331 -0.094584 -0.386567 -0.769687 0.018439 0.118462 -0.640159 0.392890 0.332141 -0.134964 -0.684754 -0.579385 -0.352446 0.392385 -0.304818 0.022958 -0.215118 -1.770465 -0.358138 1.152386 -0.006626 0.162120 -0.451731 0.014397 0.514963 -0.397566 -0.475180 1.084848 0.701932 -0.673621 0.029729 -1.423582 -0.687482 -1.104244 0.607306 -0.430843 -0.713549 0.661251 0.984353 0.659198 -0.908076 0.072109 -0.398862 -1.458174 -0.292996 0.179435 0.783319
compared 0.461901 0.337015 0.510366 0.737224 0.372237 -0.335736 -0.772623 0.486931 0.954119 -0.642985 0.196326 0.233371 -0.284019 0.073877 -0.454176 0.469927 0.406375 0.004937 -0.161091 0.906404 0.343576 0.335410 0.065211 -0.328618 -0.305837 0.036555 0.881561 0.649835 1.016033 1.436446 -0.688975 0.339551 -0.207832 -0.301915 -0.866638 0.039598 0.856121 0.081831 0.214152 0.506103 -0.638374 0.790845 0.926416 -0.017346 0.101217 -0.343034 -0.659031 0.429707 0.092611 -0.438600
design 1.075409 0.073312 -0.498199 0.623688 -0.169262 -0.280263 -0.422693 0.476718 -0.584192 -0.100412 0.302155 -0.400017 0.344813 -0.528173 1.196094 0.317860 0.298772 -0.383103 -1.056660 0.490606 -1.076967 -0.903740 0.041917 0.503414 -0.516203 0.127028 0.286771 0.373831 -1.596094 -0.364046 0.600668 0.046947 -0.757006 0.023062 0.508464 0.327185 0.194700 0.076815 -0.325215 0.847606 -0.405656 0.218479 0.625511 0.567176 0.920376 0.129242 -0.259816 -0.800935 -0.632601 0.284438
methods 1.035825 0.645892 -0.263719 0.284826 0.522906 -0.091171 -0.916458 0.362229 0.225876 0.540135 0.368979 0.216542 0.627685 0.064011 0.503744 -0.599851 -0.371954 -0.082564 0.203234 -0.147371 -0.056150 -0.324286 -0.310952 0.951241 0.387192 -0.859787 0.621135 1.133179 0.687308 0.601341 -1.636888 0.896057 -0.430255 -0.155761 0.472657 0.101355 0.484947 -0.318277 -0.388054 0.288138 -0.785411 1.508786 0.203270 0.902228 -0.367651 0.076513 -0.401748 -0.046676 -0.613016 -0.038492
wind -1.295490 0.461361 0.297296 1.748222 0.122332 -0.448816 -0.352695 -0.438622 0.067806 0.006781 0.187787 -0.988747 -0.539969 0.070116 0.762211 0.386167 0.408849 0.279311 -0.565102 -0.272735 -0.387415 0.391436 -0.457939 0.924347 -0.005334 0.444439 0.540306 0.432037 0.191008 0.813030 1.107351 0.014884 -1.498852 0.680778 0.105154 -0.014912 1.383031 -0.470150 0.446758 0.744475 -0.206114 -0.524499 0.577664 0.075066 0.179569 -0.191153 -0.057644 0.363076 -0.174802 -1.198106
cone -1.226785 0.798304 0.622005 1.158230 -0.619634 -0.171761 -0.689905 0.056118 1.559253 -0.059645 0.376032 -0.259462 -0.743274 -0.240235 1.056086 -0.203321 -0.111067 0.157548 -1.517186 -0.149528 -1.281331 0.173543 0.303977 -0.963861 0.481580 0.125522 -0.499761 0.577150 0.117883 0.258164 -0.653090 -0.371357 0.072719 -0.239782 -0.529391 1.033944 -0.305539 0.077994 -1.017671 -0.222314 0.608622 0.165162 0.505044 0.602932 -0.560865 -0.242012 0.359166 0.660092 0.416208 0.121175
function -0.279674 -1.074902 0.479480 0.025288 0.579626 -0.455296 0.039799 -0.912848 -0.808182 -0.388189 0.474524 -0.780974 -0.074112 0.197173 0.602076 -0.269935 0.361682 -0.500304 -0.038428 1.430078 0.847554 0.276118 -0.079477 0.098016 -0.979095 -0.412305 0.826225 0.250893 -0.504553 -0.937117 -0.473237 0.556339 -0.133414 -0.640331 0.314781 0.346790 -0.843526 -0.121702 -0.459627 -0.351116 -0.216136 0.370857 -0.352511 1.149664 0.145475 -0.765876 -0.711851 0.954590 -0.614589 0.124924
coefficients 0.580267 -0.282668 0.704138 -0.004634 -0.240533 0.635253 0.406902 -0.193225 0.830939 -0.582626 0.226411 -0.783669 -0.180963 0.411180 0.676401 -1.027455 0.065533 -0.065703 -0.076747 0.789902 0.181606 0.450194 -0.291651 -0.980364 -0.348554 -0.765603 -0.095019 1.186999 -0.267761 0.998141 -0.287060 -0.151854 -0.260764 -0.973955 -0.357164 -0.281462 0.707688 -0.578442 -0.151839 -0.331977 -0.123450 0.524828 -0.185267 0.710625 1.499618 -0.434517 -0.251451 1.250709 -0.544498 -0.707524
calculated 0.415117 -0.119623 0.896092 0.327616 0.243270 -0.302931 0.003067 -0.016058 -0.105294 -0.396321 -0.312865 -0.855234 -0.392315 0.132719 0.116842 0.069379 0.246139 -0.120919 -0.278329 1.068483 0.260526 1.039059 -0.639144 0.763649 0.021642 -0.293455 0.686957 0.855039 0.586623 0.879733 -0.384086 -0.259556 -0.617070 -0.091391 -0.499127 -0.343777 0.451014 0.005853 -0.142183 0.223761 -0.734004 1.268894 0.219398 0.591549 0.300675 -0.789663 -0.338555 0.936338 -0.548288 -0.237330
cylinders 0.315522 0.057528 0.801427 -0.124369 0.660359 -0.173470 -0.111319 1.139123 1.643391 -0.428423 -0.033592 -0.010964 -0.124148 -0.550397 1.052678 0.458440 -0.128759 0.621246 0.154232 -0.037411 -1.019997 -0.005286 1.423943 -0.199319 -0.179231 -0.387599 0.499258 0.521287 -0.576192 0.227638 0.811890 -0.075499 -0.129288 1.079438 -1.346487 -0.048812 -0.096546 0.289956 -0.875025 -0.050724 0.182562 -0.107428 0.387087 -0.823156 0.775283 0.156459 -0.968099 -1.038309 -0.713970 0.267757
shape -0.702364 0.885774 0.123865 1.377598 0.745903 -0.255884 0.462038 0.225115 -0.506665 -0.333870 0.413436 -0.320546 -0.854485 0.202198 -0.049958 -0.378623 -0.115884 -0.201545 -0.558628 2.076652 -0.374574 -0.606060 0.015016 -1.309124 0.167584 -0.297526 -0.318354 0.328443 -0.270622 0.182114 0.185920 0.512204 0.302356 -0.420021 -0.059485 0.322991 -1.005576 0.527115 -0.967663 0.532874 -1.010486 -0.266335 0.739987 -0.100748 0.035716 0.032742 -0.203422 0.266139 -0.332829 0.857547
study 1.169991 0.022989 -0.659906 1.229261 0.075322 -0.103713 -1.035761 1.005543 0.169088 0.125891 0.665124 -0.292042 -0.448214 0.279460 0.142104 -0.134858 0.332385 0.124725 -0.344709 0.193221 -1.174496 -0.457384 0.312566 0.049511 -0.107020 0.356202 0.404836 0.208061 0.533062 -0.470504 0.192901 0.266480 -0.049250 0.074499 0.092478 -0.426924 0.843212 -0.210439 0.552213 0.089974 0.304068 -0.494750 0.787325 -0.550592 0.277979 -0.535190 -0.285973 1.053182 -0.048868 -0.271230
subsonic 0.446125 0.428415 0.005502 0.576896 0.764279 0.080339 -0.168263 0.194967 -1.389075 0.324790 0.596991 -0.393345 -0.161429 0.388604 1.534398 -0.683040 0.583047 0.911797 -0.914609 0.542754 0.067884 1.175517 0.200887 0.806089 0.161072 -0.317808 0.194102 1.232793 0.497963 -0.312422 -0.155367 -0.129277 -1.066311 -0.313966 -0.197227 0.346492 0.427422 -0.597530 0.343169 0.758660 0.291291 0.485870 -0.434476 0.582752 -0.623909 -0.922538 -0.427554 0.954890 -0.547792 0.229129
type 0.161979 0.373228 -0.777981 0.298930 0.358731 0.021630 -0.643950 0.594340 0.128324 0.448037 0.613126 0.085775 -0.399730 -0.071300 0.331048 -0.218354 -0.735302 -0.562470 -0.437742 0.029644 -0.318892 -0.395838 1.228877 -0.125495 0.180499 0.484013 -0.489444 0.596629 -0.341250 0.265302 -0.198707 0.910070 -0.663715 -0.464134 -0.421105 -0.164105 -0.037126 0.024854 -0.068365 0.725218 0.895632 -0.181053 1.019297 0.779373 0.179027 0.522213 -0.687904 -0.463898 -0.567090 -0.000662
axial 0.794238 -0.778237 0.476086 -0.144347 0.793055 -0.896909 -0.903205 0.482156 -0.065181 -0.227536 0.888913 0.276748 0.011405 -0.265252 0.973887 0.272347 0.096703 0.054706 0.013687 1.162124 -1.309794 0.256816 1.266266 0.132182 0.156914 -0.849196 -1.044486 0.230754 -0.923234 -0.290241 0.678522 0.026689 -1.067879 -0.011828 -0.809234 -0.105086 -0.243205 1.087456 -0.185517 -0.018993 -0.038563 0.542252 0.054651 -0.986697 0.523686 -0.213904 -1.090056 -0.060445 -0.625631 0.286658
force -0.308099 -0.344552 1.111116 -0.810394 0.350045 -0.268037 -0.185404 -0.121993 0.318848 -0.482805 0.823662 -0.549060 -0.214306 0.741913 0.892847 -0.879186 0.061675 -0.265461 -0.072927 1.386246 -1.001273 -0.335066 -0.351055 0.115390 -0.516492 -0.296985 -0.465702 1.276209 -0.230501 0.875510 -0.194172 0.166944 -0.698209 -1.196840 -0.425479 -0.109592 0.371443 0.668889 -0.045792 -0.041651 -0.665130 0.421060 -0.346496 -1.597170 -0.195721 0.411811 0.334854 0.977369 -0.277262 -1.167680
thermal 0.919645 -0.848817 0.621102 0.002392 0.406266 0.819385 -1.023576 0.929579 -0.265719 -0.242138 -0.584285 0.029043 0.685124 -1.512734 0.076594 0.349984 0.834161 -0.291603 -0.295876 0.231165 -0.244032 -0.092139 -0.366699 -0.229469 -0.188835 -1.039861 0.636067 0.233957 -0.446570 -0.460719 0.448906 1.085218 -0.314798 -0.011490 0.267033 -1.347835 -0.114832 -1.070271 0.308401 0.130608 1.353418 1.327246 1.051331 -0.667267 0.304752 0.517424 -0.563045 0.636456 0.047163 0.093041
incompressible 0.743344 -1.191876 0.045800 0.760173 1.127107 0.517848 -0.603885 0.155519 -0.196828 -0.071412 1.102181 -0.066226 -0.292586 -0.168475 0.837567 -0.087493 -0.574339 0.262874 -0.501901 0.947398 -0.258528 1.287651 0.312947 -0.040849 0.377811 -0.153212 -0.115709 0.285395 1.575731 -0.044773 -0.491989 0.587611 -0.610571 0.202281 -0.783799 -0.017172 -0.137370 0.759417 -0.543265 -1.037712 -0.245228 -0.824117 -0.228345 0.536833 -0.279885 -1.113448 -0.714590 0.306868 -0.814128 -0.317970
nozzle -0.790618 0.285440 0.028441 0.507883 0.141614 -1.085075 -0.506244 -0.046437 0.395244 -0.275005 0.913480 -1.075104 -0.622471 -0.813899 0.005025 0.183163 0.143128 -0.548014 -0.984986 0.976190 -0.319529 -0.668840 0.118812 0.375944 -0.115949 0.977289 -0.057012 -0.083627 -0.417056 -0.007824 0.310048 -1.051391 0.032616 -0.665977 -0.718110 -0.680873 0.824922 -0.089509 0.163772 0.681281 0.096552 0.500429 -0.590118 1.097064 0.070969 -0.443703 0.557127 -0.997247 -0.130894 -0.297560
coefficient -0.062615 -0.020762 0.917672 0.321741 0.276353 0.156349 -0.268460 0.044740 0.328831 -0.935438 0.956339 -0.779056 0.122008 -0.254232 0.068745 -0.309362 0.122255 0.459109 -0.363911 0.986847 0.408655 -0.555975 -1.036007 -0.792814 -1.244799 0.200874 -0.672046 0.704815 -0.257634 0.593872 -0.926598 0.775879 -0.249574 -1.003009 0.660622 0.173565 -0.552860 -0.063049 -0.012804 -0.017270 0.909688 0.418613 -0.345202 -0.133449 0.564615 -0.534613 -0.477916 0.716413 -0.689573 -0.372450
various 0.301043 0.477918 0.127345 0.308267 0.724907 -0.233444 0.215074 -0.008127 0.096315 0.146060 -0.171291 -0.084937 0.303540 1.242317 -0.004136 -0.372086 -0.351703 -0.477672 0.003404 0.541172 -0.449129 -0.008880 0.083069 0.243333 0.049178 -0.543395 1.151466 0.677610 -0.050375 0.901432 0.174345 0.402837 -0.665004 0.206457 -0.801648 -1.049654 0.522407 -0.580141 -0.927310 0.079680 -0.611701 0.997327 0.753103 0.214433 -0.146592 0.535802 -0.360749 0.942967 0.578947 -0.181578
section -0.314824 0.393747 0.428716 0.879429 0.116501 -0.615681 -0.572852 -0.149859 0.410049 -0.491486 0.302963 -1.056399 -0.964712 0.313661 1.205193 -0.698840 -0.063638 -0.031473 -0.223526 1.404573 -0.723826 -0.607554 -0.167705 -0.214018 -0.769492 -0.660152 0.422317 0.278837 0.400938 0.079965 1.536218 -0.207976 0.340669 0.393696 -0.075874 0.215113 0.833509 -0.235407 -0.238706 0.040665 0.068551 -0.944868 0.490091 -0.273107 0.450542 -0.305957 0.356295 -0.224601 -0.781257 0.302653
zero -0.070783 0.216795 0.256976 1.234548 0.258645 -0.835762 -0.121291 -0.616861 0.450054 -0.844627 0.107902 -1.300065 0.092249 0.110406 0.071358 0.336704 -0.504907 0.095259 -0.064935 0.668450 -0.762413 0.180431 -0.534984 -0.465606 0.504264 -0.052396 -0.184747 1.095973 0.607936 -0.067794 -1.288220 0.213676 0.015954 -0.115031 0.268100 -0.318662 0.202579 0.480739 -0.596767 -0.410840 0.932950 0.563499 0.625821 -0.631629 0.110043 -1.444666 0.473200 0.868851 0.425506 -0.009048
developed 0.404171 0.131444 -0.429738 0.438610 0.140401 0.373687 -0.416651 -0.025132 -0.695759 -0.224198 0.319037 0.124661 0.211923 -0.871550 0.785325 0.104346 0.163484 0.087707 -0.729053 0.216836 -0.700428 -0.402306 0.046739 -0.330350 0.045662 -0.960064 0.457043 0.391207 0.343875 0.626233 -0.075893 0.897495 0.067614 -0.720348 -0.080191 0.437584 -0.026970 -0.111668 -0.345302 0.011151 -0.629970 0.394427 1.322898 0.024278 -0.012809 0.133827 -0.602644 -0.650605 -1.078651 -0.570295
static -0.082746 0.435812 1.492670 0.052844 -0.269095 -0.393986 0.555106 -0.408163 0.324857 0.301968 0.843665 -2.005123 0.138336 -0.329771 0.749312 0.688902 -0.502755 -0.363130 -1.628806 -0.487874 -0.375736 -0.615602 -0.460691 0.719170 0.100909 0.675017 -0.198131 -0.030348 -0.794531 -0.075735 -0.045344 -0.031945 -1.093659 0.261465 -1.007174 -0.885309 0.757148 -0.201313 -0.522729 -0.411130 -0.521342 0.299451 0.293935 0.380591 0.007665 -0.007965 -0.398679 0.542374 -0.098522 -1.196829
time -0.820751 -1.924937 -0.337776 0.251701 0.061269 -0.271493 0.178606 -0.272492 -0.108278 -0.145156 0.131799 -0.201319 0.301747 0.148897 0.096312 0.723240 0.273107 -0.173340 0.166632 0.656192 -0.256621 0.145237 -0.384971 -0.524310 -0.816777 -0.165021 -0.204915 0.158834 -0.511584 0.960360 0.405799 1.376274 0.358895 0.369884 0.434765 -0.600395 -0.008842 -0.456752 -1.123187 0.020073 -0.444352 0.417996 1.566796 -0.313280 0.215015 -0.625429 -0.379957 0.641781 -0.644002 0.228548
well 0.356283 -0.080494 0.342006 0.137208 0.529891 -0.105462 -0.972284 0.362417 0.105680 -0.624171 -0.485053 -0.018873 -0.634015 -0.475844 0.775702 0.103216 0.328043 -0.007998 -0.008336 0.506509 0.423316 0.273937 -0.063791 -0.844095 0.311754 -0.366033 0.275916 0.554146 0.605991 0.389342 -0.811973 0.776457 -0.751008 -0.265227 0.378010 0.905968 0.748347 -0.066391 -0.658412 -0.506988 -0.491859 0.224812 -0.261419 0.038359 0.233599 0.535457 -0.564879 0.910099 -0.907956 0.409945
maximum -0.475792 0.462536 -0.430289 -0.524499 -0.199867 -0.766450 -0.213057 0.472190 0.078204 -0.576143 0.016030 -0.646768 -0.203877 -0.426993 0.180436 0.043390 0.003251 0.658773 -0.410558 1.478874 -0.220055 0.483768 -0.427971 -0.100599 -1.542614 1.397271 -0.466087 0.363460 -0.965879 0.346399 -0.459066 0.692821 0.338672 -0.086610 0.864333 -0.330741 -0.417608 0.063473 0.151812 -0.108938 0.559104 0.715094 0.335935 -0.464982 0.159872 -0.482547 -0.486466 0.802021 -0.644614 0.273942
motion 0.236129 -0.477356 -1.035204 -0.062764 0.079332 0.397982 -0.112479 0.405306 0.014787 -0.161415 0.089864 0.370386 -0.130589 0.497937 0.596453 -1.278161 -0.904613 -0.249447 -0.284896 0.405238 -0.455213 0.944541 0.293444 0.032629 0.226449 1.475832 0.363389 0.621732 1.104279 0.618898 0.594407 0.371650 0.449885 -0.036203 -0.530015 0.096180 0.340352 1.174750 -1.161789 -0.184464 -0.471810 -0.520091 0.755377 0.522570 -0.142907 -0.921048 -0.765537 0.997728 -0.545844 -1.346259
test -0.248503 0.361949 0.487300 0.682828 0.600860 -0.643865 -1.046234 -0.310747 0.282810 0.082414 -0.023928 -0.613250 -0.828015 -0.079081 0.499619 -0.183951 0.268714 -0.541530 -0.622273 1.067387 -0.008286 0.078671 0.395313 0.823473 -1.125849 0.611378 0.201275 -0.139488 -0.580412 0.945106 1.079680 0.069506 -0.668193 0.597719 0.029168 0.637806 1.078993 -0.463048 -0.514132 0.290651 0.045717 -0.084032 0.607404 -0.346585 0.706244 0.658599 -0.468222 -0.575662 -0.199907 -0.508656
cases 0.165724 -0.090690 0.214380 0.432409 0.581325 -0.121244 -0.313532 0.230761 -0.011743 -0.988533 -0.093696 -0.031905 0.157512 -0.415933 0.530472 0.051100 -0.663554 0.029593 0.115419 0.650337 0.361850 -0.060076 -0.220522 -0.614358 1.003354 0.544550 0.788438 0.390408 0.649660 0.555963 -0.879569 0.490597 -0.817924 0.754380 -0.478574 -0.408355 -0.157216 0.326524 -0.741945 0.232715 0.153497 0.326830 0.499650 1.135073 0.419105 -0.100576 0.299020 0.406576 -0.316990 0.655610
angles -0.273084 1.764792 -0.155010 0.292065 -0.367860 -0.968872 0.091630 -0.465598 1.043557 -0.284348 0.040011 -1.295244 0.503465 0.556370 0.849646 -0.453210 -0.845964 0.743407 -0.631331 0.773314 -0.318415 0.478076 0.141746 -0.289637 -0.043200 -0.061581 0.364931 0.842604 -0.080749 0.467509 -0.461346 -0.044218 -0.055504 0.045065 -0.399041 0.056291 0.797758 -0.466937 -0.278707 0.092073 0.847556 0.953674 0.884150 0.322812 -1.374772 0.332976 0.088558 1.028724 0.720339 0.405959
normal -0.435318 0.028610 0.217645 -0.987413 0.988047 -0.873269 -0.031468 -0.473023 0.184981 -0.595454 0.287661 -0.688970 -0.403648 0.082713 -0.145629 -0.462731 0.643894 0.213044 -0.123649 0.822878 -0.405643 -0.756948 0.543127 0.231976 -0.355422 -0.322262 -0.056556 0.764416 0.058554 0.389341 0.258440 0.240170 -0.200575 -1.389530 -1.087797 -1.168758 0.376289 0.374784 -0.656047 0.331103 -0.019048 0.012234 0.371537 -0.744249 0.149198 -0.064212 -0.167596 1.335642 -0.726325 -0.657866
due 0.013294 -0.040401 -0.096035 -0.301129 -0.628925 0.729588 0.165624 0.458481 -0.361688 -0.443004 0.097475 -0.415771 0.273827 0.391838 0.204297 -0.666484 0.297218 -0.257849 0.188246 0.931161 -0.296945 0.637419 0.620318 -0.656981 -0.059315 0.217045 -0.817402 0.218306 -0.024408 -0.349240 -0.025000 0.994391 -0.737002 -0.640013 -0.344996 -0.668824 0.186399 0.232258 -0.298316 1.124258 1.180559 0.738831 0.839366 -0.664805 0.208674 0.215506 -0.115856 0.897879 -1.235628 -0.367829
uniform -0.174692 -0.597318 0.138269 -0.657817 0.977407 -0.987394 -0.980975 0.125467 0.175711 -0.575263 -0.002130 -1.116699 -0.535826 -0.569141 1.176343 -0.213289 -0.124911 -0.454220 0.020810 0.493243 -0.946962 0.319360 0.619473 0.137478 0.239528 -0.449785 0.681452 0.113694 -0.040465 0.328528 0.523860 0.442111 0.027147 0.292477 -1.539240 -1.309744 0.204989 0.706797 -0.188982 -0.178254 0.345093 -0.793401 -0.402741 -0.551002 0.398545 -0.708142 -0.432909 0.403942 -0.755463 0.107642
along -0.145919 0.012872 0.379806 0.277729 0.706047 -0.406947 -0.239803 -0.169382 -0.417478 -0.561740 0.549192 0.005379 -1.441249 -0.180583 1.336214 0.363059 0.796564 -0.142547 0.184472 0.440002 -0.560007 0.114318 0.316205 0.300581 -0.825745 -0.200380 0.130785 0.054218 0.972225 1.122429 0.374225 0.522476 0.383194 -0.253383 -0.492089 -0.729755 0.484349 1.270909 -1.059827 0.240579 -0.118989 0.157006 -0.177305 0.597133 0.498475 -0.222453 0.279708 0.132547 0.258545 -0.000421
using 0.628394 0.068588 0.450421 0.705516 0.509969 0.749474 -0.600548 -0.492098 -0.190751 -0.063114 0.514034 -0.000924 -0.419931 -0.278118 -0.042341 0.374962 0.870998 -0.400998 -0.471529 0.009597 0.362538 0.089558 0.107027 0.451586 -0.059614 -0.386038 0.253066 1.397912 0.378480 1.011850 0.476620 0.767379 -0.135767 -1.139736 0.288549 0.191317 -0.008334 -0.265186 -0.130398 0.138375 -0.253773 -0.271958 0.474073 0.100929 0.014356 -0.289959 -0.690112 -0.473509 -0.481398 -1.288477
base -0.044683 1.236602 1.215689 1.254329 -0.567631 -0.070531 -0.210380 0.866589 0.295712 -0.144487 0.387643 -0.118426 0.032963 -0.748623 0.236221 -0.283386 -0.379552 -0.162901 -1.830308 0.734733 -0.542624 -0.593337 0.188192 0.380741 0.084105 1.122044 -0.316577 0.589920 0.006513 -0.278729 -0.726955 0.116018 -0.808843 -0.399560 -0.265778 -0.595139 0.500937 0.034829 0.897889 -0.553089 0.546697 0.383003 -0.456442 0.676585 -0.455341 0.049669 0.528421 0.545924 0.482120 0.202860
local -0.121502 0.093039 0.132236 0.426551 0.779668 -0.329260 -0.282526 -0.132184 0.077721 -0.449113 0.441714 -0.262010 -0.073376 -0.840213 0.412927 -0.071234 0.301574 1.150195 -1.103440 0.115561 -0.203804 0.130639 -0.107121 -0.987755 -1.196684 -1.209980 -0.259731 -0.163621 0.167783 0.573086 -0.516110 0.686157 -0.711178 -0.387088 -0.068609 -0.321871 -0.296923 -0.132934 0.152580 -0.935986 0.060711 0.472743 0.486282 -0.130128 0.725460 -0.445470 -0.382470 0.988324 0.001242 -0.742518
friction 0.185027 0.126319 0.637953 1.005650 0.281358 1.036074 0.001176 0.380467 0.226851 -0.683320 0.640009 -0.037511 0.014377 -0.249696 0.140573 -0.459836 0.118223 0.240429 -0.376527 -0.064426 0.142757 0.475398 -1.316343 -0.463392 -0.749054 -0.656420 -0.906822 0.075979 -0.041145 1.548609 -0.907458 0.868141 -0.630979 0.146234 -0.115160 -0.409103 -0.314154 -0.189300 -0.069113 -0.481604 0.682285 -0.634934 -0.284168 0.014127 0.855448 -0.898113 -0.468795 1.155258 -0.191882 -1.038453
derived 0.086176 -0.555089 0.313978 0.558401 -0.351729 -0.319327 -0.248260 -0.002043 0.315576 0.356066 0.156715 -0.145849 0.206728 -0.530066 0.202412 -0.800120 0.067297 -0.231847 0.379961 0.525198 -0.590146 -0.254238 0.511244 0.181131 0.042322 -0.077327 0.737640 0.729567 0.238502 0.277686 -0.346036 0.110253 0.178735 -1.067105 -0.356246 -0.195054 -0.335005 0.435493 -0.786857 0.095709 -0.363631 0.361010 1.091598 0.610386 0.251896 -0.398268 -0.426749 0.380950 -0.628751 -0.679177
terms -0.611076 -0.725067 0.532666 0.338641 -0.077618 -0.778143 0.327198 -0.542225 0.038260 -0.325031 0.726720 0.108153 0.053632 -0.111661 0.924284 -0.680971 0.541741 -0.361789 1.318244 0.738133 0.097317 0.483657 0.707524 -0.899361 -0.049313 -0.439387 0.960980 0.617030 0.333052 0.320195 -0.244289 0.640017 -0.508380 -0.668595 -0.131849 -0.078375 -0.411864 -0.264813 -0.826748 -0.161114 -0.819178 0.136044 0.147083 0.053842 0.894967 -0.439409 -0.185761 0.541112 -1.095450 0.045354
waves -0.655154 0.470103 -0.514742 0.192806 1.559237 -0.320410 -0.139431 -0.071639 -0.215016 0.127493 -0.042485 -0.127065 -0.269974 -0.217497 -0.607354 -0.113886 0.469537 0.456097 -0.065195 0.830444 0.025091 -1.577184 0.267201 -0.027821 0.565428 0.093662 0.588131 -0.374839 -0.011435 -0.291381 -0.297709 0.143904 -0.192952 0.027026 -0.213969 -0.378327 0.511613 -0.122922 -0.722083 1.456534 -0.401868 -0.843259 0.503389 -1.103347 -0.408845 0.433480 -0.303215 1.200963 -0.054912 -0.024112
steady 0.607115 -1.774934 -0.846917 0.114816 0.930502 0.475890 -0.297065 0.018623 -0.777301 0.154103 0.012800 0.710801 0.061829 0.153798 0.189836 -0.105266 -0.321524 0.569854 -0.447836 0.828563 -0.333020 0.701849 0.446883 0.740494 0.521964 0.587097 0.345371 0.738823 0.397304 -0.309396 0.044667 0.681896 -0.883435 0.126862 -0.384778 -0.074237 0.547542 0.035561 -0.947344 -0.540823 -0.228321 -0.208816 0.617918 0.013854 -0.987107 -0.466586 -0.803362 1.081207 -0.628401 0.069173
past 0.502977 -0.380900 -0.405022 0.725472 0.984163 -0.105137 0.361061 0.637696 -0.033743 -0.857657 0.538388 0.154601 -0.256694 -0.232407 0.385121 -0.626106 0.892388 0.870727 -1.056858 0.384712 -0.890418 0.744355 0.709490 -0.494718 0.978803 -0.222187 0.562129 0.482686 1.457735 -0.532437 -0.361409 -0.304029 -0.117899 -0.248968 -1.156777 1.040802 0.108152 0.375576 -0.553171 -0.560091 0.498508 -1.196381 0.027951 -0.424039 -0.391376 -1.559660 0.462845 -0.016005 0.147085 0.336839
equilibrium -0.661975 -0.411425 -0.338319 0.313723 1.039582 -1.164791 -0.661850 -0.649501 0.513456 -0.253231 0.124182 -0.135688 0.298601 -1.161876 -1.335019 -0.351219 0.098040 -0.500364 -0.975625 -0.396822 0.433502 0.607439 0.049852 0.628584 1.421728 0.555280 1.174869 0.827643 -0.154058 -0.036336 0.799080 -0.399109 0.172160 -0.100232 -0.721794 -0.848406 -0.806490 -0.565324 -0.332104 -0.406427 0.025637 1.287170 0.224956 0.089243 0.168816 0.002376 -0.122422 0.778559 -0.296159 -0.031743
applied 0.952082 -0.199906 0.020193 -0.055457 0.283615 -0.002651 -0.817001 0.080651 -0.369091 -0.023532 -0.036919 0.379513 -0.045090 -0.020036 0.537414 -0.642016 -0.101461 0.018198 -0.356746 0.008809 -0.842246 0.083157 0.326460 0.073991 0.386825 -0.122870 0.372889 0.421128 0.502223 0.542007 -0.612394 0.790676 -0.447002 -0.443204 0.101728 0.437390 -0.337726 0.268923 -0.788781 0.080421 0.012247 0.214954 0.418301 -0.247233 0.444831 -0.243638 -0.020448 0.203407 -0.548041 0.170721
interaction -0.653536 -0.122246 -0.008307 0.256951 1.556711 0.257973 -0.358911 0.512690 -0.101097 0.164396 1.069020 0.260648 -0.801767 -0.699462 -0.099109 0.234451 0.252988 0.620424 -0.691357 0.337722 -0.781761 -0.760527 0.329010 -0.923889 0.293315 0.412207 0.215462 -0.075525 0.563596 -0.905655 -0.611872 -0.134871 -1.275846 0.158554 -0.068221 -0.586801 0.710867 -0.033921 -0.035833 0.940950 0.075809 -0.397733 -0.650351 -0.218597 0.773979 0.885146 -0.432829 1.494025 0.105327 -0.905511
length -0.480756 1.060555 0.922972 0.206628 1.448427 -0.657497 0.360760 0.648997 0.398804 -0.085785 0.030477 0.408539 -0.572746 0.424950 0.913629 0.635941 -0.203545 -0.094839 -0.817050 1.134575 -0.408352 0.274298 0.281254 -0.680391 -1.465741 0.515796 -0.090329 0.929248 -0.031508 0.833463 -0.011504 1.054311 0.161467 0.261832 -0.788550 -0.881465 -1.599901 0.013220 0.182590 -0.526872 -0.260163 -0.033181 -0.734965 -0.678520 0.575170 -0.349683 -0.250292 -0.999464 0.359793 0.062120
plates 0.961044 -0.483644 -0.401603 -0.765502 0.007876 0.210450 0.109676 0.057255 0.069639 -0.242041 -0.445793 0.669524 -0.665689 0.044539 0.172627 0.150864 -0.301656 0.120765 0.967765 -0.389673 -1.503363 -0.142400 1.385907 -0.048051 0.322161 -0.373810 0.149332 0.044535 0.015638 1.025801 -1.103901 0.270996 -0.070363 0.478345 -1.932975 -0.586899 1.106662 -0.008209 -0.652733 -0.632767 0.306387 0.155129 0.594593 0.307250 0.520673 -0.833845 -0.070633 -0.171488 0.588221 0.045667
second -0.078856 0.716621 -0.557788 0.790469 0.001598 -0.246024 0.064494 -0.620247 -0.074584 -1.011487 1.217276 0.020310 0.358085 -0.018898 -0.153537 -0.058508 1.051091 -0.332527 0.736500 0.153104 -0.815796 0.258960 -0.320780 -0.861459 0.003080 -0.283117 0.411591 0.962826 0.985323 -0.323781 -0.838630 0.612012 0.020219 -0.525984 0.614357 0.102312 0.576840 -1.516431 -0.262931 0.452322 0.056074 0.490332 0.011619 -1.180522 -0.495031 -0.735608 -0.287212 0.089049 -0.616609 -0.527696
revolution 0.569626 0.695104 -0.436473 1.829898 0.310463 -0.481957 -0.292238 0.197650 -0.302114 -0.911209 0.680744 0.104342 0.208400 -0.018222 -0.520800 -0.167483 0.278914 0.041274 -0.557980 0.930267 -1.534771 0.061844 0.225909 0.192831 0.743244 -0.568250 -0.183850 0.950852 0.945876 -0.603004 -0.057224 -0.514873 0.337610 -0.708831 0.104254 0.102946 -0.050487 0.226711 -0.242124 -0.856020 0.102172 0.857400 1.126654 -1.243944 -0.804114 -0.437435 0.778711 0.309562 0.266704 -0.022815
several 1.407002 0.233717 -0.133140 0.855420 0.438646 0.352040 -0.272426 -0.009510 0.264142 -0.730329 0.237794 -0.132364 0.322048 0.858095 0.105238 0.442795 -0.013300 -0.690350 -0.030104 0.722775 -0.005394 -0.287505 0.342879 0.848883 0.592479 -0.259451 1.183889 0.411666 0.075687 0.365153 -0.022431 0.453188 -0.437293 -0.014900 -0.646648 -0.440118 1.038106 -0.379757 -0.450563 0.146514 -0.268496 0.701195 0.055640 -0.019957 0.361173 0.129048 0.973275 -0.247353 -0.612438 -0.069097
determined 0.224241 -0.160122 1.131998 0.091616 0.438415 -0.006610 -0.083421 0.053559 0.189325 -0.229031 0.521974 -0.229210 -0.412835 -0.015066 0.237337 -0.194218 0.448326 -0.452712 -0.108441 1.509610 -0.006761 0.232864 0.435904 -0.374894 -0.217833 0.155102 0.028899 0.445881 0.178918 0.542201 -0.063722 0.490765 -0.655451 -0.415970 -0.154750 -0.044247 -0.454244 -0.303650 -0.493549 0.299996 -0.632530 0.608152 0.145883 0.056465 0.292921 0.119618 -0.076886 0.458461 -0.417427 0.163676
x -0.867263 -0.421749 -0.281032 0.471464 0.164175 -1.266019 0.256612 -1.222678 0.438200 -0.194594 -0.007239 -0.728827 -0.434432 0.115741 1.204198 0.549559 0.548554 0.191776 -1.202677 0.477169 -0.965019 0.541736 -0.160945 -0.603573 -1.608474 0.309923 0.234112 -0.427512 0.017038 0.539322 0.971697 0.869910 -0.245703 -0.549854 0.826174 -0.194327 -0.048916 -0.552399 -0.404761 -0.337873 -0.527941 -0.622507 -0.808092 0.343625 -0.359147 -0.703881 -0.559718 0.620632 0.424887 -0.859647
properties -0.453523 -0.673326 0.474692 0.230034 0.439615 -0.001770 -1.122561 0.469670 -0.305443 -0.057640 0.130397 -0.375901 0.560564 -0.775119 -0.002516 -0.261832 1.107919 -0.777330 -1.482980 0.101906 0.522196 0.324217 -0.345153 1.121398 -0.044775 -0.843423 1.138349 -0.618088 0.185069 -0.280649 0.297686 0.339231 0.294728 -0.155994 -0.533866 -0.294994 -0.397835 -0.774310 -0.668655 -0.750633 0.099952 0.571726 0.809678 0.739032 -0.674537 0.573421 -0.177286 0.296103 -0.642583 -0.401531
transonic -0.060800 0.808453 -0.262514 1.480281 0.718240 -0.800958 0.009808 0.030951 -0.310080 1.593597 0.205978 -0.197976 -0.478123 0.768951 0.127579 -0.201650 0.033809 1.111364 -0.774241 1.135323 -0.315437 0.605179 0.235300 0.329352 0.369043 -0.150076 0.319229 0.789029 0.702290 -0.104198 0.869339 -0.235835 -0.827921 0.032599 -0.468306 0.374323 0.861473 -1.208489 0.543081 0.472320 0.100985 -0.766487 0.171162 0.441937 -0.015068 -0.856277 -0.855200 0.283133 0.181443 -0.527196
near -0.079966 0.605288 -0.124371 0.766344 -0.232785 -0.781209 -0.028929 -0.420701 -0.458796 -0.102008 0.935396 -0.390357 -0.601748 -0.225484 0.273162 1.052544 0.616731 0.622838 -0.428504 -0.024556 0.102093 0.175521 0.766410 0.723533 -0.088277 0.631220 0.088863 0.561449 0.870209 0.011148 -1.165170 0.287985 0.008604 -0.454471 0.034998 -0.673083 0.162858 0.577537 -0.231535 0.058026 0.837581 0.135668 0.535735 0.534302 -0.022300 0.350272 1.044204 0.880484 -0.009071 0.289196
bending 0.153620 -1.100931 0.438362 -0.980940 -0.330732 0.296368 0.369961 0.892383 0.771916 -0.950190 -0.598223 -0.511933 0.045657 -0.438478 1.180920 0.271156 -0.405803 0.005373 0.963428 -0.100462 -1.103084 0.059536 0.392201 -0.087060 -0.062611 0.203222 0.835222 1.052415 -0.496214 -0.077987 -0.468012 0.165288 -0.686061 -0.530443 -1.188403 -0.276766 0.210091 0.573170 -0.895130 0.270327 1.095180 0.123060 0.309352 -1.118548 0.111344 0.356001 -1.306053 -0.743492 -0.583709 0.142061
calculation 0.503285 -0.219952 -0.440572 0.593751 -0.315894 0.512011 -0.433584 0.465656 -0.531054 -0.642615 0.827673 -0.091250 0.518399 0.568150 0.370646 -0.023485 0.089235 0.135704 -0.342537 0.513750 -0.087939 0.026854 0.073119 0.425678 1.096534 -1.609751 0.029929 0.401566 0.303495 0.034221 -0.668737 0.642440 -0.223429 -0.516075 0.086074 0.368155 0.549710 0.048074 -0.741697 0.328762 -0.357540 0.826643 -0.035849 -0.196520 0.125724 -0.728007 -0.096864 0.101464 -1.199650 -0.026842
pressures -0.108683 1.210049 0.679089 0.914451 -0.630110 -0.631154 0.350879 -0.673717 0.458461 -0.567490 0.170756 -0.711299 -0.148311 -0.095957 0.007367 -0.201082 0.199104 0.490090 -1.042819 -0.123781 0.100898 -0.637675 -0.352552 0.546897 -0.207077 0.144280 0.958064 0.609609 0.196894 -0.101256 0.015793 -0.099591 -0.765508 -0.624654 -0.573995 -0.890527 0.899661 0.695896 0.107592 -0.904246 0.095456 0.778199 0.832674 0.139768 0.038501 0.561599 0.144258 1.342184 0.379919 -0.157107
aircraft 0.718722 1.090137 -1.104073 0.313644 0.258609 0.700728 -0.198054 0.403045 -0.787777 0.140501 -0.882947 0.655788 -0.114713 0.594599 1.141972 0.360697 0.604181 -0.422665 0.054604 -0.342445 -0.671905 -0.148050 0.031181 1.510281 -0.204074 0.505786 -0.251912 0.369408 -0.940115 -0.831528 -0.316419 0.121735 -0.687162 0.250839 0.766984 -1.331401 1.140675 -0.153762 -0.138415 -0.188526 -0.224239 0.519857 0.532032 -0.584449 -0.437750 0.731469 0.566380 0.476545 -1.182142 0.003247
layers -0.418174 0.031238 -0.135654 1.816205 1.084714 0.318449 -0.941007 0.584126 -0.720822 -0.391434 0.344835 0.490524 -0.250698 -0.471385 0.255598 0.266212 0.082391 0.065844 -0.178804 0.748203 -0.358146 0.321192 -0.015982 -0.092961 -0.119783 -0.824756 -0.420151 -0.859606 1.209355 0.218510 0.008591 0.354381 -0.060840 1.495152 0.365526 -0.285240 0.627687 -0.311901 -0.909248 0.507723 0.390439 -0.591270 -0.612685 -0.190837 -0.037700 -0.009816 -0.356388 0.774701 -0.138763 -0.026244
plane -0.377010 -0.023305 -0.262872 -0.746900 1.153169 -0.235967 -0.500266 -0.271654 -0.293273 -0.222242 -0.128886 0.058942 -0.213155 0.595804 0.052997 0.217899 0.192535 0.064608 -0.262492 1.133080 -1.786213 -0.591230 0.435788 -0.057575 -0.044641 0.195743 0.304668 0.107685 0.994026 0.090956 0.780901 0.856536 0.159237 -0.370980 -0.387964 -0.269060 -0.230307 -0.390783 -1.123724 0.474457 0.596706 -0.085033 -0.301556 -0.025039 -0.964434 -0.730855 -0.042245 0.177511 -0.309786 0.087333
rate -0.667862 -0.163038 -0.149254 -0.237731 0.543969 -0.234418 -0.390462 -0.039461 1.118087 -0.469556 0.905876 -0.004880 -0.560492 -0.401246 0.114460 -0.434988 -0.350843 0.091580 0.215831 0.188373 0.075724 0.720713 -0.274834 -0.429441 -0.167262 -0.072872 -0.202294 0.027889 -0.554229 0.527152 -0.366137 0.558692 0.360420 0.077353 0.237353 -0.596286 -1.229018 -0.490651 0.385357 -0.711493 -0.406496 1.565436 -0.025101 -0.124176 0.494010 -0.072988 0.282749 1.174808 -0.952913 -0.728294
heating -0.422038 0.636828 -1.177127 -0.368321 -0.234020 0.730022 -0.972255 0.483177 0.623961 -0.919927 -0.073123 0.407560 -0.333416 -0.173959 1.264170 0.229739 -0.501866 0.386238 -0.560097 0.379473 -0.103538 0.835255 -0.269409 -0.011123 0.422424 0.044786 -0.024298 0.063483 -1.290724 0.630317 0.163660 0.199577 0.616093 0.659411 0.867524 -0.271962 -0.116689 0.046020 -0.073220 -0.646005 0.730324 1.069531 0.354096 0.025687 1.002454 0.361430 0.440911 1.142903 -1.262715 -0.752077
ratios 0.851069 0.674223 0.497402 0.829704 -0.319981 -0.927274 1.002432 0.805463 0.738625 -0.489777 0.084120 -0.466867 0.484865 0.319054 1.052371 0.490420 0.459063 -0.374600 -0.589158 0.989926 -0.291429 0.008543 -0.289691 0.000724 -1.163885 0.420453 -0.582491 0.031090 -0.797231 0.444567 -0.265830 -0.374663 0.156689 0.742118 -0.143579 -1.097511 0.161952 -1.273100 -0.566694 0.319779 0.364751 0.618483 0.110044 0.695879 0.192261 -0.466483 0.133199 0.167551 0.296911 0.583433
similar 0.480988 0.233114 -0.503534 0.992799 1.034573 0.023138 -0.558533 -0.453389 -0.234535 -0.614487 -0.528555 0.402486 -0.534332 -0.356870 0.620505 -0.505301 -0.564335 -0.800090 0.195553 0.745801 -0.144238 0.074838 -0.306206 -0.398779 -0.261836 -0.608439 0.203991 -0.138109 0.992135 -0.056357 -0.376501 0.218275 -0.034131 1.103200 0.718539 -0.023985 0.858248 0.246733 -0.872449 0.087056 -0.256382 0.153257 0.709298 0.187805 0.263679 -0.158907 -0.158688 0.084870 -0.088229 -0.467245
measured 0.053790 0.596414 0.906137 0.217417 0.324370 -0.082094 0.191768 -0.955642 1.021806 -0.947811 -0.589902 -1.028751 -0.509829 0.171062 0.877412 -0.311562 0.405129 0.896313 -0.225142 0.393233 0.818711 0.251808 -0.318956 -0.073750 -0.682539 -0.129106 0.208149 0.656237 0.509476 1.437931 0.460841 0.379216 -0.720354 -0.200036 -0.127468 -0.178273 1.000867 0.016630 -0.329905 0.088552 -0.153831 0.301821 0.150370 0.062460 0.035590 -0.536105 -0.338157 1.288433 0.050502 -0.345536
calculations 0.511838 0.434096 0.018151 1.083082 -0.425986 -0.440453 -0.857767 0.364460 0.430370 -0.376430 0.024297 0.135929 0.185818 0.032061 -0.019587 0.268951 0.434624 -0.253074 -0.709282 0.521168 0.337055 0.147656 -0.326936 0.201434 0.489137 -0.467380 0.790696 0.865327 -0.013294 -0.019297 -0.412182 0.243996 -0.097455 -0.279063 -0.000675 -0.176483 0.339004 -0.355361 -0.470611 -0.551824 -0.494029 -0.074746 0.034883 -0.467483 0.917653 -0.510028 -0.644686 0.215576 -0.356398 -0.198243
influence -0.503641 -0.846927 0.298162 0.537691 -0.547744 0.278278 -0.037929 0.866281 -0.490727 -0.175041 0.621438 -0.342270 -0.668758 -0.077596 0.209865 -0.553771 0.609375 0.108375 -0.065006 1.159887 -0.055316 0.675260 -0.003268 -0.535346 -0.699447 -0.000934 0.327772 -0.002723 -0.067196 -0.355040 0.224353 -0.697644 -0.429906 -0.166646 -0.776669 0.135940 0.523130 -0.892930 0.178570 0.798409 0.552984 0.914673 0.194111 0.228821 1.096046 -0.051610 0.230967 1.201280 -0.724128 -0.352857
airfoil -0.406878 0.540102 0.033480 0.117218 0.057556 -0.838010 -0.045462 0.040785 -0.933057 -0.227752 -0.143418 -1.249096 -0.420966 -0.030199 0.548163 -0.623445 -0.053769 1.197644 -0.717872 2.325540 -0.276730 -0.248222 0.433226 -0.710636 -0.344204 -0.469018 0.484567 0.336407 0.435186 -0.547256 0.431952 0.029958 -0.319170 -0.245138 -0.278565 0.480494 0.406166 0.228548 0.046855 0.127691 0.665328 -1.181633 0.315253 -0.218843 -0.044870 -0.853479 -0.077255 0.200968 -0.569199 0.734097
good 0.239422 0.791125 0.899538 0.456466 -0.039587 -0.919894 -1.404483 0.121440 1.234284 -0.691711 -0.220823 -0.334020 -0.496571 -0.142171 -0.444259 0.016101 0.735915 0.393584 -0.002597 0.567300 0.263427 0.464250 -0.273946 -0.137610 -0.330072 -0.011082 0.106933 0.300902 0.854571 0.481468 -1.677070 0.248881 -0.439413 0.392565 -0.117522 1.208149 0.448376 0.226908 -0.733441 0.482249 -0.280607 0.066273 0.558617 -0.097944 -0.060969 -0.187832 -1.013776 0.674287 -0.628328 0.471119
tube 0.055890 0.436709 0.815163 0.391540 0.656845 -0.497730 0.503828 0.315551 0.649360 0.375728 0.731120 -1.196639 -0.303495 -0.212161 -0.298006 0.700984 0.655246 0.016484 -1.270395 -1.180265 0.074655 -0.337590 -0.089173 0.288324 -0.009955 -0.346162 -0.658090 -0.605665 -0.298717 -0.017558 0.480172 0.072352 -0.158657 0.507353 -1.116062 -0.342691 -0.222612 -0.061856 -0.544945 0.522014 -1.109589 -0.963021 1.007819 0.110413 -0.588421 0.116525 -0.623125 0.693760 -0.765866 -0.278276
load 0.167142 -1.506937 0.181594 -0.901968 -0.237058 -0.750573 -0.215147 0.297489 -0.386288 0.347477 -0.780933 -0.588156 0.051855 -0.431263 1.154907 0.062152 0.173331 0.239749 0.443689 0.273937 -0.331425 -0.103273 -0.013560 -0.585605 0.087590 -0.473146 -0.011685 0.950465 -0.180402 0.541138 0.109575 0.682882 -0.479370 -0.571398 0.453266 -0.847510 -0.036551 0.586948 -0.426165 0.036167 -0.045584 1.004846 0.486832 -0.511964 1.033151 -0.261595 -0.950430 0.065384 0.194430 1.375811
differential 0.560108 0.019388 0.017649 0.787447 0.004709 -0.249772 0.217661 -1.365963 0.139692 0.402732 0.514927 0.381784 0.344383 -0.651566 -0.355982 -0.880639 -0.801991 -1.244335 0.989895 0.661316 -0.002420 0.093411 0.550004 -0.421926 0.554586 -0.145138 0.222547 1.532523 -0.121807 -0.513244 -0.036952 1.293846 -0.206173 -0.780951 -0.011982 -0.955675 -0.613929 -0.580669 -0.327070 -0.557998 0.597592 1.081105 -0.150958 0.705764 0.550619 -0.701690 -0.766830 0.050405 -0.095832 -1.018021
part 0.030207 0.343460 -0.552698 0.642831 0.000524 -0.496739 -0.382316 0.388288 0.142783 0.038674 1.127250 0.708897 0.334752 -0.229602 0.352479 -0.586606 0.824084 -0.264791 0.941919 -0.240851 -1.072740 -0.092040 -0.670190 0.622563 -0.133679 0.879581 0.497423 0.422602 0.054529 -0.052460 -0.210190 -0.127388 -0.322480 0.392653 -0.011231 -0.168135 0.092352 -1.335424 0.553743 0.865307 0.041339 -0.288420 0.107379 -0.038504 -0.227819 -0.953920 -0.081103 0.116861 -1.214083 -0.236201
investigated 0.089427 -0.003697 0.356666 0.815771 0.057597 0.196071 -0.061100 0.046706 0.398387 -0.799688 0.571744 -0.714223 -0.562476 -0.727927 0.524486 0.311277 -0.046051 -0.132243 -0.246045 0.326332 -0.406702 0.013982 0.194591 -0.223919 0.608949 0.507308 0.361878 0.428894 -0.066248 0.540291 -0.395439 0.523401 -0.884192 -0.226471 -0.671702 0.005786 0.223062 -0.301424 -0.493467 0.604120 -0.424678 0.025226 -0.015836 0.110663 -0.344646 0.258565 -0.423943 -0.176146 -0.079520 -0.153539
note -0.373573 -1.676553 -0.930602 0.569027 -0.312158 -0.219741 -0.657509 0.478804 0.107196 0.465803 0.733143 0.145683 -0.801553 -0.678105 -0.235502 0.980653 -0.529045 0.868179 0.053005 -0.131727 -0.729030 -0.739310 -0.077839 -0.602924 -0.026520 -0.036836 0.258778 0.331962 -0.288683 -0.048152 -0.713194 -0.125474 0.081755 0.666080 -0.289190 0.291549 1.092638 -0.654851 -0.678747 0.172300 -1.060664 -0.358430 0.804912 -0.413609 0.853217 0.271186 -0.677204 0.146894 -0.446993 0.330951
forces -0.008124 0.090780 -0.180766 -0.709928 -0.546290 1.143134 0.428310 0.642688 -0.411542 -0.462056 -0.295924 0.242170 0.464765 0.657899 0.701917 -0.352766 0.094851 0.077256 -0.467988 0.510928 -0.880865 0.386232 -0.183772 -0.153069 0.315001 -0.591502 0.478214 1.286073 0.198536 -0.280195 0.340852 0.073994 0.127872 -1.198629 -0.927327 -0.772756 0.254035 -0.138600 -0.541939 -0.944876 0.584852 0.064415 1.133917 -0.083530 -0.135512 -0.021063 -0.246497 0.509527 -1.743805 -0.843394
initial -0.780726 -0.242209 0.022965 0.565338 0.447123 -0.416617 -0.039257 0.335035 -0.986421 -0.365761 -0.346689 -1.245577 0.093397 -0.705890 -0.482991 0.071996 -0.843875 -0.488910 0.020988 1.531378 -0.173074 0.411598 0.365865 -0.474092 -0.326358 0.551881 0.028637 -0.028736 -0.851466 0.576837 -0.068353 0.196205 0.582163 0.422710 -0.191023 -0.472914 -0.286234 0.355571 -0.735406 0.380190 -0.186035 0.360884 0.759494 -1.082486 0.615049 0.080942 -0.803053 0.261203 0.079240 0.394410
